== Model info

Model                          
meka.classifiers.multilabel.CC: Node #1

J48 pruned tree
------------------

obj1 <= 862: 0 (105967.0/21595.0)
obj1 > 862
|   obj1 <= 950
|   |   obj2 <= 992
|   |   |   obj1 <= 884: 0 (3018.0/840.0)
|   |   |   obj1 > 884
|   |   |   |   obj1 <= 900
|   |   |   |   |   obj2 <= 812
|   |   |   |   |   |   obj1 <= 899
|   |   |   |   |   |   |   obj1 <= 886
|   |   |   |   |   |   |   |   obj2 <= 738: 1 (250.0/116.0)
|   |   |   |   |   |   |   |   obj2 > 738: 0 (623.0/221.0)
|   |   |   |   |   |   |   obj1 > 886: 0 (410.0/88.0)
|   |   |   |   |   |   obj1 > 899
|   |   |   |   |   |   |   obj2 <= 732: 1 (197.0/90.0)
|   |   |   |   |   |   |   obj2 > 732: 0 (1729.0/690.0)
|   |   |   |   |   obj2 > 812
|   |   |   |   |   |   obj1 <= 885: 1 (962.0/386.0)
|   |   |   |   |   |   obj1 > 885
|   |   |   |   |   |   |   obj1 <= 899
|   |   |   |   |   |   |   |   obj2 <= 881: 0 (146.0/22.0)
|   |   |   |   |   |   |   |   obj2 > 881
|   |   |   |   |   |   |   |   |   obj2 <= 898
|   |   |   |   |   |   |   |   |   |   obj1 <= 898
|   |   |   |   |   |   |   |   |   |   |   obj2 <= 892
|   |   |   |   |   |   |   |   |   |   |   |   obj1 <= 893: 0 (2.0)
|   |   |   |   |   |   |   |   |   |   |   |   obj1 > 893: 1 (11.0/4.0)
|   |   |   |   |   |   |   |   |   |   |   obj2 > 892: 1 (10.0)
|   |   |   |   |   |   |   |   |   |   obj1 > 898: 0 (7.0/1.0)
|   |   |   |   |   |   |   |   |   obj2 > 898: 0 (113.0/24.0)
|   |   |   |   |   |   |   obj1 > 899
|   |   |   |   |   |   |   |   obj2 <= 960
|   |   |   |   |   |   |   |   |   obj2 <= 947
|   |   |   |   |   |   |   |   |   |   obj2 <= 877
|   |   |   |   |   |   |   |   |   |   |   obj2 <= 816: 1 (577.0/247.0)
|   |   |   |   |   |   |   |   |   |   |   obj2 > 816: 0 (784.0/362.0)
|   |   |   |   |   |   |   |   |   |   obj2 > 877: 1 (526.0/187.0)
|   |   |   |   |   |   |   |   |   obj2 > 947: 0 (286.0/121.0)
|   |   |   |   |   |   |   |   obj2 > 960
|   |   |   |   |   |   |   |   |   obj2 <= 965: 1 (27.0/3.0)
|   |   |   |   |   |   |   |   |   obj2 > 965: 0 (66.0/19.0)
|   |   |   |   obj1 > 900
|   |   |   |   |   obj1 <= 947: 0 (3173.0/827.0)
|   |   |   |   |   obj1 > 947
|   |   |   |   |   |   obj2 <= 490
|   |   |   |   |   |   |   obj2 <= 325
|   |   |   |   |   |   |   |   obj2 <= 313
|   |   |   |   |   |   |   |   |   obj2 <= 308: 0 (11.0/1.0)
|   |   |   |   |   |   |   |   |   obj2 > 308: 1 (31.0/11.0)
|   |   |   |   |   |   |   |   obj2 > 313: 0 (23.0/3.0)
|   |   |   |   |   |   |   obj2 > 325: 1 (237.0/88.0)
|   |   |   |   |   |   obj2 > 490
|   |   |   |   |   |   |   obj2 <= 795
|   |   |   |   |   |   |   |   obj2 <= 767: 0 (1146.0/426.0)
|   |   |   |   |   |   |   |   obj2 > 767
|   |   |   |   |   |   |   |   |   obj2 <= 770: 1 (79.0/19.0)
|   |   |   |   |   |   |   |   |   obj2 > 770
|   |   |   |   |   |   |   |   |   |   obj2 <= 792: 0 (73.0/31.0)
|   |   |   |   |   |   |   |   |   |   obj2 > 792: 1 (179.0/67.0)
|   |   |   |   |   |   |   obj2 > 795: 0 (1405.0/486.0)
|   |   obj2 > 992
|   |   |   obj2 <= 993: 1 (825.0/221.0)
|   |   |   obj2 > 993
|   |   |   |   obj2 <= 998: 0 (150.0/22.0)
|   |   |   |   obj2 > 998: 1 (199.0/85.0)
|   obj1 > 950
|   |   obj1 <= 974: 0 (7592.0/914.0)
|   |   obj1 > 974
|   |   |   obj1 <= 992: 0 (935.0/210.0)
|   |   |   obj1 > 992
|   |   |   |   obj1 <= 994
|   |   |   |   |   obj2 <= 881
|   |   |   |   |   |   obj2 <= 818
|   |   |   |   |   |   |   obj2 <= 812: 0 (1773.0/678.0)
|   |   |   |   |   |   |   obj2 > 812: 1 (62.0/23.0)
|   |   |   |   |   |   obj2 > 818: 0 (223.0/78.0)
|   |   |   |   |   obj2 > 881
|   |   |   |   |   |   obj2 <= 943: 1 (901.0/358.0)
|   |   |   |   |   |   obj2 > 943
|   |   |   |   |   |   |   obj2 <= 974: 0 (80.0/19.0)
|   |   |   |   |   |   |   obj2 > 974
|   |   |   |   |   |   |   |   obj2 <= 978: 1 (24.0/7.0)
|   |   |   |   |   |   |   |   obj2 > 978: 0 (45.0/16.0)
|   |   |   |   obj1 > 994: 0 (2428.0/486.0)

Number of Leaves  : 	43

Size of the tree : 	85


meka.classifiers.multilabel.CC: Node #2

J48 pruned tree
------------------

lbl0 = 0
|   obj1 <= 844
|   |   obj1 <= 734
|   |   |   obj1 <= 701
|   |   |   |   obj1 <= 673
|   |   |   |   |   obj1 <= 670
|   |   |   |   |   |   obj1 <= 664
|   |   |   |   |   |   |   obj1 <= 658: 1 (9228.0/2640.0)
|   |   |   |   |   |   |   obj1 > 658
|   |   |   |   |   |   |   |   obj1 <= 660: 0 (40.0/12.0)
|   |   |   |   |   |   |   |   obj1 > 660
|   |   |   |   |   |   |   |   |   obj2 <= 703: 1 (194.0/50.0)
|   |   |   |   |   |   |   |   |   obj2 > 703
|   |   |   |   |   |   |   |   |   |   obj2 <= 706: 0 (38.0/9.0)
|   |   |   |   |   |   |   |   |   |   obj2 > 706: 1 (218.0/50.0)
|   |   |   |   |   |   obj1 > 664
|   |   |   |   |   |   |   obj1 <= 669
|   |   |   |   |   |   |   |   obj2 <= 785
|   |   |   |   |   |   |   |   |   obj2 <= 703: 1 (55.0/21.0)
|   |   |   |   |   |   |   |   |   obj2 > 703: 0 (87.0/21.0)
|   |   |   |   |   |   |   |   obj2 > 785: 1 (61.0/29.0)
|   |   |   |   |   |   |   obj1 > 669
|   |   |   |   |   |   |   |   obj2 <= 899: 1 (52.0/14.0)
|   |   |   |   |   |   |   |   obj2 > 899: 0 (6.0/1.0)
|   |   |   |   |   obj1 > 670: 1 (1670.0/170.0)
|   |   |   |   obj1 > 673
|   |   |   |   |   obj1 <= 675
|   |   |   |   |   |   obj1 <= 674
|   |   |   |   |   |   |   obj2 <= 978: 1 (42.0/17.0)
|   |   |   |   |   |   |   obj2 > 978: 0 (5.0)
|   |   |   |   |   |   obj1 > 674: 0 (74.0/19.0)
|   |   |   |   |   obj1 > 675: 1 (8799.0/2837.0)
|   |   |   obj1 > 701
|   |   |   |   obj1 <= 706
|   |   |   |   |   obj2 <= 709
|   |   |   |   |   |   obj2 <= 695
|   |   |   |   |   |   |   obj2 <= 694: 0 (696.0/241.0)
|   |   |   |   |   |   |   obj2 > 694: 1 (26.0/8.0)
|   |   |   |   |   |   obj2 > 695: 0 (663.0/120.0)
|   |   |   |   |   obj2 > 709
|   |   |   |   |   |   obj2 <= 767
|   |   |   |   |   |   |   obj1 <= 703: 1 (43.0/14.0)
|   |   |   |   |   |   |   obj1 > 703: 0 (386.0/175.0)
|   |   |   |   |   |   obj2 > 767: 0 (692.0/230.0)
|   |   |   |   obj1 > 706
|   |   |   |   |   obj1 <= 711
|   |   |   |   |   |   obj1 <= 707: 1 (338.0/121.0)
|   |   |   |   |   |   obj1 > 707
|   |   |   |   |   |   |   obj1 <= 708: 0 (154.0/48.0)
|   |   |   |   |   |   |   obj1 > 708
|   |   |   |   |   |   |   |   obj1 <= 709: 1 (92.0/32.0)
|   |   |   |   |   |   |   |   obj1 > 709
|   |   |   |   |   |   |   |   |   obj1 <= 710
|   |   |   |   |   |   |   |   |   |   obj2 <= 708
|   |   |   |   |   |   |   |   |   |   |   obj2 <= 702: 1 (169.0/73.0)
|   |   |   |   |   |   |   |   |   |   |   obj2 > 702: 0 (160.0/66.0)
|   |   |   |   |   |   |   |   |   |   obj2 > 708: 1 (71.0/22.0)
|   |   |   |   |   |   |   |   |   obj1 > 710: 0 (64.0/25.0)
|   |   |   |   |   obj1 > 711
|   |   |   |   |   |   obj1 <= 720: 1 (430.0/115.0)
|   |   |   |   |   |   obj1 > 720
|   |   |   |   |   |   |   obj1 <= 729
|   |   |   |   |   |   |   |   obj1 <= 726
|   |   |   |   |   |   |   |   |   obj2 <= 553: 0 (40.0/17.0)
|   |   |   |   |   |   |   |   |   obj2 > 553: 1 (162.0/51.0)
|   |   |   |   |   |   |   |   obj1 > 726: 0 (200.0/67.0)
|   |   |   |   |   |   |   obj1 > 729
|   |   |   |   |   |   |   |   obj2 <= 822: 1 (1217.0/400.0)
|   |   |   |   |   |   |   |   obj2 > 822
|   |   |   |   |   |   |   |   |   obj1 <= 733: 1 (26.0/6.0)
|   |   |   |   |   |   |   |   |   obj1 > 733
|   |   |   |   |   |   |   |   |   |   obj2 <= 983: 0 (294.0/136.0)
|   |   |   |   |   |   |   |   |   |   obj2 > 983: 1 (22.0/4.0)
|   |   obj1 > 734
|   |   |   obj1 <= 761
|   |   |   |   obj1 <= 752
|   |   |   |   |   obj1 <= 739: 1 (1047.0/194.0)
|   |   |   |   |   obj1 > 739
|   |   |   |   |   |   obj1 <= 740: 0 (214.0/93.0)
|   |   |   |   |   |   obj1 > 740
|   |   |   |   |   |   |   obj1 <= 747: 1 (792.0/210.0)
|   |   |   |   |   |   |   obj1 > 747
|   |   |   |   |   |   |   |   obj2 <= 563: 1 (24.0/4.0)
|   |   |   |   |   |   |   |   obj2 > 563: 0 (171.0/77.0)
|   |   |   |   obj1 > 752: 1 (33481.0/6142.0)
|   |   |   obj1 > 761
|   |   |   |   obj2 <= 850
|   |   |   |   |   obj2 <= 735
|   |   |   |   |   |   obj2 <= 694
|   |   |   |   |   |   |   obj1 <= 805
|   |   |   |   |   |   |   |   obj1 <= 803: 1 (1827.0/587.0)
|   |   |   |   |   |   |   |   obj1 > 803: 0 (126.0/55.0)
|   |   |   |   |   |   |   obj1 > 805: 1 (953.0/234.0)
|   |   |   |   |   |   obj2 > 694
|   |   |   |   |   |   |   obj2 <= 704
|   |   |   |   |   |   |   |   obj1 <= 766: 1 (66.0/24.0)
|   |   |   |   |   |   |   |   obj1 > 766: 0 (389.0/149.0)
|   |   |   |   |   |   |   obj2 > 704
|   |   |   |   |   |   |   |   obj1 <= 780
|   |   |   |   |   |   |   |   |   obj1 <= 768
|   |   |   |   |   |   |   |   |   |   obj2 <= 707: 1 (7.0)
|   |   |   |   |   |   |   |   |   |   obj2 > 707
|   |   |   |   |   |   |   |   |   |   |   obj1 <= 765: 1 (5.0)
|   |   |   |   |   |   |   |   |   |   |   obj1 > 765: 0 (18.0/7.0)
|   |   |   |   |   |   |   |   |   obj1 > 768: 1 (52.0/8.0)
|   |   |   |   |   |   |   |   obj1 > 780
|   |   |   |   |   |   |   |   |   obj2 <= 731
|   |   |   |   |   |   |   |   |   |   obj2 <= 728: 1 (362.0/130.0)
|   |   |   |   |   |   |   |   |   |   obj2 > 728
|   |   |   |   |   |   |   |   |   |   |   obj2 <= 729: 0 (78.0/18.0)
|   |   |   |   |   |   |   |   |   |   |   obj2 > 729
|   |   |   |   |   |   |   |   |   |   |   |   obj2 <= 730: 1 (13.0/5.0)
|   |   |   |   |   |   |   |   |   |   |   |   obj2 > 730: 0 (2.0)
|   |   |   |   |   |   |   |   |   obj2 > 731
|   |   |   |   |   |   |   |   |   |   obj1 <= 809: 1 (227.0/66.0)
|   |   |   |   |   |   |   |   |   |   obj1 > 809
|   |   |   |   |   |   |   |   |   |   |   obj1 <= 816: 0 (13.0/4.0)
|   |   |   |   |   |   |   |   |   |   |   obj1 > 816: 1 (104.0/44.0)
|   |   |   |   |   obj2 > 735
|   |   |   |   |   |   obj1 <= 793
|   |   |   |   |   |   |   obj1 <= 778
|   |   |   |   |   |   |   |   obj1 <= 766: 1 (662.0/133.0)
|   |   |   |   |   |   |   |   obj1 > 766
|   |   |   |   |   |   |   |   |   obj1 <= 769: 0 (178.0/74.0)
|   |   |   |   |   |   |   |   |   obj1 > 769: 1 (991.0/227.0)
|   |   |   |   |   |   |   obj1 > 778
|   |   |   |   |   |   |   |   obj2 <= 790
|   |   |   |   |   |   |   |   |   obj2 <= 773: 1 (141.0/59.0)
|   |   |   |   |   |   |   |   |   obj2 > 773: 0 (48.0/18.0)
|   |   |   |   |   |   |   |   obj2 > 790: 1 (233.0/76.0)
|   |   |   |   |   |   obj1 > 793: 1 (10003.0/2034.0)
|   |   |   |   obj2 > 850
|   |   |   |   |   obj1 <= 768
|   |   |   |   |   |   obj1 <= 766
|   |   |   |   |   |   |   obj1 <= 764
|   |   |   |   |   |   |   |   obj2 <= 881: 1 (2.0)
|   |   |   |   |   |   |   |   obj2 > 881: 0 (11.0/4.0)
|   |   |   |   |   |   |   obj1 > 764: 1 (230.0/66.0)
|   |   |   |   |   |   obj1 > 766: 0 (387.0/94.0)
|   |   |   |   |   obj1 > 768
|   |   |   |   |   |   obj1 <= 829
|   |   |   |   |   |   |   obj2 <= 948
|   |   |   |   |   |   |   |   obj1 <= 810
|   |   |   |   |   |   |   |   |   obj1 <= 802: 1 (318.0/97.0)
|   |   |   |   |   |   |   |   |   obj1 > 802
|   |   |   |   |   |   |   |   |   |   obj2 <= 900: 1 (419.0/146.0)
|   |   |   |   |   |   |   |   |   |   obj2 > 900
|   |   |   |   |   |   |   |   |   |   |   obj2 <= 931: 0 (239.0/89.0)
|   |   |   |   |   |   |   |   |   |   |   obj2 > 931
|   |   |   |   |   |   |   |   |   |   |   |   obj1 <= 805: 1 (25.0/6.0)
|   |   |   |   |   |   |   |   |   |   |   |   obj1 > 805: 0 (43.0/19.0)
|   |   |   |   |   |   |   |   obj1 > 810: 1 (936.0/328.0)
|   |   |   |   |   |   |   obj2 > 948: 1 (1671.0/512.0)
|   |   |   |   |   |   obj1 > 829
|   |   |   |   |   |   |   obj1 <= 830: 0 (416.0/186.0)
|   |   |   |   |   |   |   obj1 > 830: 1 (456.0/119.0)
|   obj1 > 844
|   |   obj1 <= 948
|   |   |   obj1 <= 899
|   |   |   |   obj1 <= 890
|   |   |   |   |   obj1 <= 886: 1 (3751.0/1538.0)
|   |   |   |   |   obj1 > 886
|   |   |   |   |   |   obj1 <= 887: 0 (16.0/3.0)
|   |   |   |   |   |   obj1 > 887
|   |   |   |   |   |   |   obj2 <= 708: 0 (7.0/2.0)
|   |   |   |   |   |   |   obj2 > 708: 1 (32.0/11.0)
|   |   |   |   obj1 > 890
|   |   |   |   |   obj1 <= 892: 1 (294.0/53.0)
|   |   |   |   |   obj1 > 892
|   |   |   |   |   |   obj1 <= 895
|   |   |   |   |   |   |   obj1 <= 893
|   |   |   |   |   |   |   |   obj2 <= 787
|   |   |   |   |   |   |   |   |   obj2 <= 614: 0 (2.0)
|   |   |   |   |   |   |   |   |   obj2 > 614
|   |   |   |   |   |   |   |   |   |   obj2 <= 704: 1 (3.0)
|   |   |   |   |   |   |   |   |   |   obj2 > 704: 0 (3.0/1.0)
|   |   |   |   |   |   |   |   obj2 > 787: 1 (7.0)
|   |   |   |   |   |   |   obj1 > 893
|   |   |   |   |   |   |   |   obj1 <= 894
|   |   |   |   |   |   |   |   |   obj2 <= 809: 1 (14.0/3.0)
|   |   |   |   |   |   |   |   |   obj2 > 809: 0 (31.0/10.0)
|   |   |   |   |   |   |   |   obj1 > 894: 0 (17.0/8.0)
|   |   |   |   |   |   obj1 > 895: 1 (126.0/35.0)
|   |   |   obj1 > 899
|   |   |   |   obj2 <= 803
|   |   |   |   |   obj1 <= 901: 0 (1068.0/457.0)
|   |   |   |   |   obj1 > 901
|   |   |   |   |   |   obj1 <= 947
|   |   |   |   |   |   |   obj1 <= 946: 1 (922.0/358.0)
|   |   |   |   |   |   |   obj1 > 946: 0 (117.0/42.0)
|   |   |   |   |   |   obj1 > 947
|   |   |   |   |   |   |   obj2 <= 668: 0 (180.0/82.0)
|   |   |   |   |   |   |   obj2 > 668
|   |   |   |   |   |   |   |   obj2 <= 673: 1 (94.0/18.0)
|   |   |   |   |   |   |   |   obj2 > 673
|   |   |   |   |   |   |   |   |   obj2 <= 735: 0 (131.0/62.0)
|   |   |   |   |   |   |   |   |   obj2 > 735: 1 (575.0/205.0)
|   |   |   |   obj2 > 803
|   |   |   |   |   obj2 <= 996
|   |   |   |   |   |   obj1 <= 901: 0 (1208.0/397.0)
|   |   |   |   |   |   obj1 > 901
|   |   |   |   |   |   |   obj1 <= 946
|   |   |   |   |   |   |   |   obj1 <= 919
|   |   |   |   |   |   |   |   |   obj2 <= 809: 0 (26.0/10.0)
|   |   |   |   |   |   |   |   |   obj2 > 809: 1 (154.0/42.0)
|   |   |   |   |   |   |   |   obj1 > 919
|   |   |   |   |   |   |   |   |   obj1 <= 932: 0 (293.0/141.0)
|   |   |   |   |   |   |   |   |   obj1 > 932: 1 (168.0/57.0)
|   |   |   |   |   |   |   obj1 > 946
|   |   |   |   |   |   |   |   obj2 <= 849
|   |   |   |   |   |   |   |   |   obj2 <= 807: 0 (137.0/26.0)
|   |   |   |   |   |   |   |   |   obj2 > 807
|   |   |   |   |   |   |   |   |   |   obj1 <= 947
|   |   |   |   |   |   |   |   |   |   |   obj2 <= 841
|   |   |   |   |   |   |   |   |   |   |   |   obj2 <= 815: 1 (21.0/9.0)
|   |   |   |   |   |   |   |   |   |   |   |   obj2 > 815: 0 (169.0/58.0)
|   |   |   |   |   |   |   |   |   |   |   obj2 > 841: 1 (62.0/25.0)
|   |   |   |   |   |   |   |   |   |   obj1 > 947: 1 (323.0/150.0)
|   |   |   |   |   |   |   |   obj2 > 849: 0 (928.0/245.0)
|   |   |   |   |   obj2 > 996
|   |   |   |   |   |   obj1 <= 918: 0 (12.0/4.0)
|   |   |   |   |   |   obj1 > 918: 1 (71.0/21.0)
|   |   obj1 > 948
|   |   |   obj1 <= 998
|   |   |   |   obj1 <= 974: 1 (6699.0/1747.0)
|   |   |   |   obj1 > 974
|   |   |   |   |   obj1 <= 995
|   |   |   |   |   |   obj1 <= 984
|   |   |   |   |   |   |   obj2 <= 986: 1 (332.0/126.0)
|   |   |   |   |   |   |   obj2 > 986: 0 (22.0/9.0)
|   |   |   |   |   |   obj1 > 984
|   |   |   |   |   |   |   obj1 <= 986: 0 (36.0/9.0)
|   |   |   |   |   |   |   obj1 > 986: 1 (2100.0/840.0)
|   |   |   |   |   obj1 > 995
|   |   |   |   |   |   obj1 <= 996: 0 (173.0/38.0)
|   |   |   |   |   |   obj1 > 996
|   |   |   |   |   |   |   obj1 <= 997: 1 (28.0/11.0)
|   |   |   |   |   |   |   obj1 > 997
|   |   |   |   |   |   |   |   obj2 <= 906: 0 (6.0/1.0)
|   |   |   |   |   |   |   |   obj2 > 906: 1 (3.0)
|   |   |   obj1 > 998: 1 (1685.0/250.0)
lbl0 = 1: 0 (31365.0/6176.0)

Number of Leaves  : 	122

Size of the tree : 	243


meka.classifiers.multilabel.CC: Node #3

J48 pruned tree
------------------

lbl1 = 0
|   obj1 <= 862
|   |   obj1 <= 753
|   |   |   lbl0 = 0
|   |   |   |   obj1 <= 374
|   |   |   |   |   obj1 <= 355: 0 (1316.0/379.0)
|   |   |   |   |   obj1 > 355
|   |   |   |   |   |   obj2 <= 628
|   |   |   |   |   |   |   obj2 <= 360: 0 (18.0/8.0)
|   |   |   |   |   |   |   obj2 > 360: 1 (71.0/17.0)
|   |   |   |   |   |   obj2 > 628
|   |   |   |   |   |   |   obj1 <= 370
|   |   |   |   |   |   |   |   obj1 <= 368
|   |   |   |   |   |   |   |   |   obj1 <= 366: 0 (20.0/7.0)
|   |   |   |   |   |   |   |   |   obj1 > 366: 1 (6.0/1.0)
|   |   |   |   |   |   |   |   obj1 > 368: 0 (11.0/2.0)
|   |   |   |   |   |   |   obj1 > 370: 1 (3.0)
|   |   |   |   obj1 > 374
|   |   |   |   |   obj1 <= 590: 0 (704.0/147.0)
|   |   |   |   |   obj1 > 590
|   |   |   |   |   |   obj2 <= 753: 0 (4932.0/1325.0)
|   |   |   |   |   |   obj2 > 753
|   |   |   |   |   |   |   obj1 <= 670
|   |   |   |   |   |   |   |   obj2 <= 818
|   |   |   |   |   |   |   |   |   obj2 <= 803: 0 (196.0/75.0)
|   |   |   |   |   |   |   |   |   obj2 > 803: 1 (30.0/9.0)
|   |   |   |   |   |   |   |   obj2 > 818: 0 (199.0/53.0)
|   |   |   |   |   |   |   obj1 > 670
|   |   |   |   |   |   |   |   obj1 <= 675
|   |   |   |   |   |   |   |   |   obj1 <= 674: 0 (107.0/49.0)
|   |   |   |   |   |   |   |   |   obj1 > 674: 1 (32.0/5.0)
|   |   |   |   |   |   |   |   obj1 > 675: 0 (2067.0/491.0)
|   |   |   lbl0 = 1: 0 (7749.0/1557.0)
|   |   obj1 > 753
|   |   |   obj1 <= 761
|   |   |   |   obj2 <= 998
|   |   |   |   |   obj1 <= 760
|   |   |   |   |   |   obj2 <= 854
|   |   |   |   |   |   |   obj2 <= 842: 0 (6072.0/2341.0)
|   |   |   |   |   |   |   obj2 > 842: 1 (591.0/195.0)
|   |   |   |   |   |   obj2 > 854
|   |   |   |   |   |   |   obj2 <= 951: 0 (1873.0/589.0)
|   |   |   |   |   |   |   obj2 > 951
|   |   |   |   |   |   |   |   obj2 <= 955
|   |   |   |   |   |   |   |   |   lbl0 = 0: 0 (274.0/124.0)
|   |   |   |   |   |   |   |   |   lbl0 = 1: 1 (133.0/41.0)
|   |   |   |   |   |   |   |   obj2 > 955: 0 (607.0/210.0)
|   |   |   |   |   obj1 > 760: 1 (98.0/47.0)
|   |   |   |   obj2 > 998
|   |   |   |   |   lbl0 = 0: 1 (247.0/109.0)
|   |   |   |   |   lbl0 = 1: 0 (226.0/100.0)
|   |   |   obj1 > 761
|   |   |   |   obj1 <= 803
|   |   |   |   |   obj1 <= 800
|   |   |   |   |   |   obj1 <= 795: 0 (2870.0/647.0)
|   |   |   |   |   |   obj1 > 795
|   |   |   |   |   |   |   obj1 <= 799: 1 (93.0/35.0)
|   |   |   |   |   |   |   obj1 > 799
|   |   |   |   |   |   |   |   lbl0 = 0: 1 (5.0/2.0)
|   |   |   |   |   |   |   |   lbl0 = 1: 0 (8.0/1.0)
|   |   |   |   |   obj1 > 800: 0 (1991.0/408.0)
|   |   |   |   obj1 > 803
|   |   |   |   |   obj1 <= 804
|   |   |   |   |   |   lbl0 = 0: 1 (123.0/26.0)
|   |   |   |   |   |   lbl0 = 1: 0 (7.0/2.0)
|   |   |   |   |   obj1 > 804: 0 (6429.0/1752.0)
|   obj1 > 862
|   |   obj1 <= 950: 0 (10928.0/1743.0)
|   |   obj1 > 950
|   |   |   obj1 <= 955
|   |   |   |   obj1 <= 954
|   |   |   |   |   lbl0 = 0
|   |   |   |   |   |   obj1 <= 952
|   |   |   |   |   |   |   obj1 <= 951: 0 (7.0/2.0)
|   |   |   |   |   |   |   obj1 > 951
|   |   |   |   |   |   |   |   obj2 <= 849: 0 (12.0/1.0)
|   |   |   |   |   |   |   |   obj2 > 849
|   |   |   |   |   |   |   |   |   obj2 <= 921: 1 (5.0)
|   |   |   |   |   |   |   |   |   obj2 > 921: 0 (2.0)
|   |   |   |   |   |   obj1 > 952: 0 (699.0/242.0)
|   |   |   |   |   lbl0 = 1
|   |   |   |   |   |   obj1 <= 952: 0 (35.0/10.0)
|   |   |   |   |   |   obj1 > 952
|   |   |   |   |   |   |   obj2 <= 760: 1 (84.0/37.0)
|   |   |   |   |   |   |   obj2 > 760: 0 (137.0/51.0)
|   |   |   |   obj1 > 954: 1 (113.0/40.0)
|   |   |   obj1 > 955
|   |   |   |   obj1 <= 998
|   |   |   |   |   obj1 <= 992
|   |   |   |   |   |   obj1 <= 989: 0 (1655.0/348.0)
|   |   |   |   |   |   obj1 > 989
|   |   |   |   |   |   |   lbl0 = 0
|   |   |   |   |   |   |   |   obj1 <= 990: 1 (42.0/13.0)
|   |   |   |   |   |   |   |   obj1 > 990: 0 (66.0/25.0)
|   |   |   |   |   |   |   lbl0 = 1: 0 (35.0/3.0)
|   |   |   |   |   obj1 > 992: 0 (2176.0/351.0)
|   |   |   |   obj1 > 998
|   |   |   |   |   lbl0 = 0
|   |   |   |   |   |   obj2 <= 773: 1 (210.0/97.0)
|   |   |   |   |   |   obj2 > 773: 0 (40.0/5.0)
|   |   |   |   |   lbl0 = 1
|   |   |   |   |   |   obj2 <= 950: 0 (269.0/60.0)
|   |   |   |   |   |   obj2 > 950: 1 (25.0/6.0)
lbl1 = 1
|   lbl0 = 0: 1 (75481.0/4663.0)
|   lbl0 = 1
|   |   obj1 <= 844
|   |   |   obj1 <= 733
|   |   |   |   obj1 <= 694
|   |   |   |   |   obj1 <= 600: 0 (413.0/174.0)
|   |   |   |   |   obj1 > 600: 1 (767.0/358.0)
|   |   |   |   obj1 > 694: 0 (419.0/140.0)
|   |   |   obj1 > 733
|   |   |   |   obj1 <= 771
|   |   |   |   |   obj1 <= 753
|   |   |   |   |   |   obj1 <= 747: 1 (253.0/106.0)
|   |   |   |   |   |   obj1 > 747: 0 (17.0/4.0)
|   |   |   |   |   obj1 > 753: 1 (1685.0/590.0)
|   |   |   |   obj1 > 771
|   |   |   |   |   obj1 <= 821: 0 (678.0/304.0)
|   |   |   |   |   obj1 > 821: 1 (417.0/166.0)
|   |   obj1 > 844
|   |   |   obj1 <= 950
|   |   |   |   obj2 <= 870
|   |   |   |   |   obj2 <= 836: 0 (643.0/230.0)
|   |   |   |   |   obj2 > 836
|   |   |   |   |   |   obj1 <= 873: 0 (2.0)
|   |   |   |   |   |   obj1 > 873: 1 (24.0/5.0)
|   |   |   |   obj2 > 870: 0 (322.0/79.0)
|   |   |   obj1 > 950
|   |   |   |   obj1 <= 974: 1 (218.0/95.0)
|   |   |   |   obj1 > 974
|   |   |   |   |   obj1 <= 998: 0 (199.0/52.0)
|   |   |   |   |   obj1 > 998: 1 (119.0/50.0)

Number of Leaves  : 	68

Size of the tree : 	135


meka.classifiers.multilabel.CC: Node #4

J48 pruned tree
------------------

lbl0 = 0
|   lbl1 = 0
|   |   obj1 <= 984
|   |   |   obj1 <= 947
|   |   |   |   obj1 <= 946
|   |   |   |   |   obj2 <= 994
|   |   |   |   |   |   lbl2 = 0
|   |   |   |   |   |   |   obj1 <= 704: 1 (5277.0/2565.0)
|   |   |   |   |   |   |   obj1 > 704: 0 (12708.0/5868.0)
|   |   |   |   |   |   lbl2 = 1
|   |   |   |   |   |   |   obj1 <= 803
|   |   |   |   |   |   |   |   obj2 <= 952: 1 (5119.0/2317.0)
|   |   |   |   |   |   |   |   obj2 > 952: 0 (480.0/214.0)
|   |   |   |   |   |   |   obj1 > 803
|   |   |   |   |   |   |   |   obj1 <= 809: 0 (301.0/85.0)
|   |   |   |   |   |   |   |   obj1 > 809
|   |   |   |   |   |   |   |   |   obj1 <= 840
|   |   |   |   |   |   |   |   |   |   obj1 <= 829: 1 (417.0/174.0)
|   |   |   |   |   |   |   |   |   |   obj1 > 829
|   |   |   |   |   |   |   |   |   |   |   obj1 <= 830: 0 (72.0/29.0)
|   |   |   |   |   |   |   |   |   |   |   obj1 > 830
|   |   |   |   |   |   |   |   |   |   |   |   obj2 <= 804
|   |   |   |   |   |   |   |   |   |   |   |   |   obj2 <= 782: 1 (18.0/3.0)
|   |   |   |   |   |   |   |   |   |   |   |   |   obj2 > 782: 0 (10.0/3.0)
|   |   |   |   |   |   |   |   |   |   |   |   obj2 > 804: 1 (24.0/3.0)
|   |   |   |   |   |   |   |   |   obj1 > 840
|   |   |   |   |   |   |   |   |   |   obj1 <= 895: 0 (519.0/227.0)
|   |   |   |   |   |   |   |   |   |   obj1 > 895: 1 (385.0/171.0)
|   |   |   |   |   obj2 > 994
|   |   |   |   |   |   lbl2 = 0
|   |   |   |   |   |   |   obj2 <= 997: 1 (78.0/31.0)
|   |   |   |   |   |   |   obj2 > 997: 0 (149.0/71.0)
|   |   |   |   |   |   lbl2 = 1: 1 (174.0/50.0)
|   |   |   |   obj1 > 946: 1 (592.0/234.0)
|   |   |   obj1 > 947
|   |   |   |   obj1 <= 948
|   |   |   |   |   lbl2 = 0: 0 (868.0/185.0)
|   |   |   |   |   lbl2 = 1: 1 (114.0/46.0)
|   |   |   |   obj1 > 948
|   |   |   |   |   obj1 <= 975: 1 (1846.0/919.0)
|   |   |   |   |   obj1 > 975: 0 (40.0/14.0)
|   |   obj1 > 984
|   |   |   obj1 <= 995: 1 (867.0/323.0)
|   |   |   obj1 > 995
|   |   |   |   lbl2 = 0: 0 (262.0/117.0)
|   |   |   |   lbl2 = 1: 1 (139.0/42.0)
|   lbl1 = 1
|   |   lbl2 = 0: 0 (4663.0/1510.0)
|   |   lbl2 = 1
|   |   |   obj1 <= 673
|   |   |   |   obj1 <= 597
|   |   |   |   |   obj1 <= 369: 1 (2380.0/1133.0)
|   |   |   |   |   obj1 > 369
|   |   |   |   |   |   obj1 <= 595: 0 (2105.0/891.0)
|   |   |   |   |   |   obj1 > 595
|   |   |   |   |   |   |   obj2 <= 719: 1 (78.0/19.0)
|   |   |   |   |   |   |   obj2 > 719: 0 (6.0/1.0)
|   |   |   |   obj1 > 597
|   |   |   |   |   obj1 <= 613
|   |   |   |   |   |   obj2 <= 616: 0 (416.0/58.0)
|   |   |   |   |   |   obj2 > 616
|   |   |   |   |   |   |   obj2 <= 767
|   |   |   |   |   |   |   |   obj2 <= 707: 0 (75.0/25.0)
|   |   |   |   |   |   |   |   obj2 > 707: 1 (119.0/51.0)
|   |   |   |   |   |   |   obj2 > 767: 0 (73.0/20.0)
|   |   |   |   |   obj1 > 613: 0 (2782.0/960.0)
|   |   |   obj1 > 673
|   |   |   |   obj1 <= 693
|   |   |   |   |   obj1 <= 678: 0 (183.0/87.0)
|   |   |   |   |   obj1 > 678: 1 (701.0/178.0)
|   |   |   |   obj1 > 693
|   |   |   |   |   obj1 <= 765
|   |   |   |   |   |   obj1 <= 694
|   |   |   |   |   |   |   obj2 <= 694: 1 (2400.0/1099.0)
|   |   |   |   |   |   |   obj2 > 694
|   |   |   |   |   |   |   |   obj2 <= 986: 0 (1840.0/855.0)
|   |   |   |   |   |   |   |   obj2 > 986: 1 (59.0/15.0)
|   |   |   |   |   |   obj1 > 694: 0 (30722.0/14206.0)
|   |   |   |   |   obj1 > 765
|   |   |   |   |   |   obj2 <= 894
|   |   |   |   |   |   |   obj1 <= 897: 0 (13977.0/5723.0)
|   |   |   |   |   |   |   obj1 > 897
|   |   |   |   |   |   |   |   obj1 <= 949
|   |   |   |   |   |   |   |   |   obj1 <= 947
|   |   |   |   |   |   |   |   |   |   obj1 <= 900
|   |   |   |   |   |   |   |   |   |   |   obj1 <= 899: 1 (48.0/20.0)
|   |   |   |   |   |   |   |   |   |   |   obj1 > 899
|   |   |   |   |   |   |   |   |   |   |   |   obj2 <= 739: 0 (56.0/24.0)
|   |   |   |   |   |   |   |   |   |   |   |   obj2 > 739: 1 (589.0/250.0)
|   |   |   |   |   |   |   |   |   |   obj1 > 900: 0 (896.0/426.0)
|   |   |   |   |   |   |   |   |   obj1 > 947: 1 (736.0/304.0)
|   |   |   |   |   |   |   |   obj1 > 949: 0 (5455.0/2389.0)
|   |   |   |   |   |   obj2 > 894
|   |   |   |   |   |   |   obj2 <= 900: 1 (423.0/172.0)
|   |   |   |   |   |   |   obj2 > 900: 0 (4699.0/2224.0)
lbl0 = 1
|   lbl1 = 0
|   |   obj1 <= 892
|   |   |   obj1 <= 702: 1 (4838.0/1550.0)
|   |   |   obj1 > 702
|   |   |   |   lbl2 = 0
|   |   |   |   |   obj1 <= 867
|   |   |   |   |   |   obj1 <= 843
|   |   |   |   |   |   |   obj2 <= 871
|   |   |   |   |   |   |   |   obj2 <= 843
|   |   |   |   |   |   |   |   |   obj1 <= 703
|   |   |   |   |   |   |   |   |   |   obj2 <= 617: 1 (16.0/2.0)
|   |   |   |   |   |   |   |   |   |   obj2 > 617: 0 (214.0/94.0)
|   |   |   |   |   |   |   |   |   obj1 > 703: 1 (5668.0/2379.0)
|   |   |   |   |   |   |   |   obj2 > 843
|   |   |   |   |   |   |   |   |   obj1 <= 769: 1 (122.0/50.0)
|   |   |   |   |   |   |   |   |   obj1 > 769
|   |   |   |   |   |   |   |   |   |   obj1 <= 811
|   |   |   |   |   |   |   |   |   |   |   obj2 <= 845: 0 (67.0/12.0)
|   |   |   |   |   |   |   |   |   |   |   obj2 > 845: 1 (21.0/4.0)
|   |   |   |   |   |   |   |   |   |   obj1 > 811: 0 (163.0/72.0)
|   |   |   |   |   |   |   obj2 > 871: 1 (2118.0/778.0)
|   |   |   |   |   |   obj1 > 843
|   |   |   |   |   |   |   obj1 <= 851: 0 (332.0/126.0)
|   |   |   |   |   |   |   obj1 > 851
|   |   |   |   |   |   |   |   obj1 <= 863: 1 (56.0/11.0)
|   |   |   |   |   |   |   |   obj1 > 863: 0 (81.0/36.0)
|   |   |   |   |   obj1 > 867: 1 (1717.0/671.0)
|   |   |   |   lbl2 = 1
|   |   |   |   |   obj2 <= 863
|   |   |   |   |   |   obj1 <= 880: 1 (2480.0/956.0)
|   |   |   |   |   |   obj1 > 880: 0 (74.0/27.0)
|   |   |   |   |   obj2 > 863: 1 (1039.0/295.0)
|   |   obj1 > 892
|   |   |   obj1 <= 998: 1 (5889.0/1720.0)
|   |   |   obj1 > 998
|   |   |   |   obj2 <= 867: 0 (247.0/102.0)
|   |   |   |   obj2 > 867: 1 (47.0/11.0)
|   lbl1 = 1
|   |   obj1 <= 694
|   |   |   lbl2 = 0: 0 (597.0/248.0)
|   |   |   lbl2 = 1
|   |   |   |   obj2 <= 703: 1 (318.0/128.0)
|   |   |   |   obj2 > 703: 0 (265.0/109.0)
|   |   obj1 > 694
|   |   |   lbl2 = 0
|   |   |   |   obj2 <= 726
|   |   |   |   |   obj1 <= 756: 0 (285.0/90.0)
|   |   |   |   |   obj1 > 756
|   |   |   |   |   |   obj1 <= 884: 1 (154.0/60.0)
|   |   |   |   |   |   obj1 > 884: 0 (144.0/53.0)
|   |   |   |   obj2 > 726: 0 (1900.0/628.0)
|   |   |   lbl2 = 1
|   |   |   |   obj1 <= 820
|   |   |   |   |   obj1 <= 812
|   |   |   |   |   |   obj1 <= 799
|   |   |   |   |   |   |   obj1 <= 790: 0 (1413.0/521.0)
|   |   |   |   |   |   |   obj1 > 790: 1 (24.0/7.0)
|   |   |   |   |   |   obj1 > 799: 0 (220.0/70.0)
|   |   |   |   |   obj1 > 812: 1 (33.0/7.0)
|   |   |   |   obj1 > 820: 0 (823.0/352.0)

Number of Leaves  : 	79

Size of the tree : 	157


meka.classifiers.multilabel.CC: Node #5

J48 pruned tree
------------------

lbl2 = 0
|   lbl1 = 0: 0 (41309.0/114.0)
|   lbl1 = 1
|   |   lbl0 = 0
|   |   |   lbl3 = 0
|   |   |   |   obj1 <= 767
|   |   |   |   |   obj2 <= 974
|   |   |   |   |   |   obj2 <= 951: 0 (1520.0/503.0)
|   |   |   |   |   |   obj2 > 951: 1 (116.0/42.0)
|   |   |   |   |   obj2 > 974: 0 (87.0/16.0)
|   |   |   |   obj1 > 767
|   |   |   |   |   obj2 <= 769
|   |   |   |   |   |   obj1 <= 868
|   |   |   |   |   |   |   obj1 <= 838
|   |   |   |   |   |   |   |   obj2 <= 756: 0 (225.0/68.0)
|   |   |   |   |   |   |   |   obj2 > 756
|   |   |   |   |   |   |   |   |   obj2 <= 763: 0 (14.0)
|   |   |   |   |   |   |   |   |   obj2 > 763: 1 (6.0/1.0)
|   |   |   |   |   |   |   obj1 > 838: 1 (50.0/15.0)
|   |   |   |   |   |   obj1 > 868: 0 (391.0/75.0)
|   |   |   |   |   obj2 > 769: 0 (744.0/136.0)
|   |   |   lbl3 = 1: 0 (1510.0/199.0)
|   |   lbl0 = 1: 0 (3080.0/115.0)
lbl2 = 1
|   lbl0 = 0
|   |   lbl1 = 0
|   |   |   lbl3 = 0
|   |   |   |   obj1 <= 946
|   |   |   |   |   obj2 <= 902
|   |   |   |   |   |   obj2 <= 856
|   |   |   |   |   |   |   obj2 <= 593
|   |   |   |   |   |   |   |   obj2 <= 582: 0 (380.0/173.0)
|   |   |   |   |   |   |   |   obj2 > 582: 1 (65.0/16.0)
|   |   |   |   |   |   |   obj2 > 593
|   |   |   |   |   |   |   |   obj2 <= 777: 0 (1482.0/540.0)
|   |   |   |   |   |   |   |   obj2 > 777
|   |   |   |   |   |   |   |   |   obj2 <= 805
|   |   |   |   |   |   |   |   |   |   obj2 <= 803
|   |   |   |   |   |   |   |   |   |   |   obj2 <= 798: 1 (65.0/28.0)
|   |   |   |   |   |   |   |   |   |   |   obj2 > 798: 0 (35.0/10.0)
|   |   |   |   |   |   |   |   |   |   obj2 > 803: 1 (36.0/6.0)
|   |   |   |   |   |   |   |   |   obj2 > 805
|   |   |   |   |   |   |   |   |   |   obj2 <= 843
|   |   |   |   |   |   |   |   |   |   |   obj2 <= 823
|   |   |   |   |   |   |   |   |   |   |   |   obj1 <= 674: 1 (25.0/7.0)
|   |   |   |   |   |   |   |   |   |   |   |   obj1 > 674: 0 (336.0/143.0)
|   |   |   |   |   |   |   |   |   |   |   obj2 > 823: 0 (112.0/32.0)
|   |   |   |   |   |   |   |   |   |   obj2 > 843
|   |   |   |   |   |   |   |   |   |   |   obj1 <= 760
|   |   |   |   |   |   |   |   |   |   |   |   obj1 <= 708
|   |   |   |   |   |   |   |   |   |   |   |   |   obj1 <= 633: 1 (3.0/1.0)
|   |   |   |   |   |   |   |   |   |   |   |   |   obj1 > 633: 0 (5.0)
|   |   |   |   |   |   |   |   |   |   |   |   obj1 > 708: 1 (124.0/50.0)
|   |   |   |   |   |   |   |   |   |   |   obj1 > 760
|   |   |   |   |   |   |   |   |   |   |   |   obj1 <= 844
|   |   |   |   |   |   |   |   |   |   |   |   |   obj1 <= 822: 0 (19.0/5.0)
|   |   |   |   |   |   |   |   |   |   |   |   |   obj1 > 822: 1 (7.0/2.0)
|   |   |   |   |   |   |   |   |   |   |   |   obj1 > 844: 0 (6.0)
|   |   |   |   |   |   obj2 > 856: 0 (307.0/81.0)
|   |   |   |   |   obj2 > 902
|   |   |   |   |   |   obj2 <= 903
|   |   |   |   |   |   |   obj1 <= 694: 0 (4.0)
|   |   |   |   |   |   |   obj1 > 694: 1 (33.0/2.0)
|   |   |   |   |   |   obj2 > 903: 1 (498.0/247.0)
|   |   |   |   obj1 > 946
|   |   |   |   |   obj1 <= 992
|   |   |   |   |   |   obj1 <= 954: 1 (212.0/59.0)
|   |   |   |   |   |   obj1 > 954
|   |   |   |   |   |   |   obj1 <= 965: 0 (32.0/10.0)
|   |   |   |   |   |   |   obj1 > 965: 1 (128.0/47.0)
|   |   |   |   |   obj1 > 992: 0 (91.0/31.0)
|   |   |   lbl3 = 1: 0 (4541.0/1125.0)
|   |   lbl1 = 1: 1 (70818.0/18144.0)
|   lbl0 = 1: 0 (8889.0/912.0)

Number of Leaves  : 	38

Size of the tree : 	75


meka.classifiers.multilabel.CC: Node #6

J48 pruned tree
------------------

lbl2 = 0
|   lbl4 = 0
|   |   lbl1 = 0
|   |   |   lbl3 = 0
|   |   |   |   obj1 <= 947: 0 (16046.0/3466.0)
|   |   |   |   obj1 > 947
|   |   |   |   |   obj1 <= 948
|   |   |   |   |   |   lbl0 = 0: 1 (683.0/103.0)
|   |   |   |   |   |   lbl0 = 1: 0 (185.0/24.0)
|   |   |   |   |   obj1 > 948: 0 (1754.0/401.0)
|   |   |   lbl3 = 1
|   |   |   |   lbl0 = 0
|   |   |   |   |   obj1 <= 844
|   |   |   |   |   |   obj1 <= 763
|   |   |   |   |   |   |   obj1 <= 752: 0 (3451.0/1292.0)
|   |   |   |   |   |   |   obj1 > 752: 1 (1762.0/835.0)
|   |   |   |   |   |   obj1 > 763: 0 (2021.0/828.0)
|   |   |   |   |   obj1 > 844
|   |   |   |   |   |   obj1 <= 985
|   |   |   |   |   |   |   obj1 <= 949: 0 (1901.0/591.0)
|   |   |   |   |   |   |   obj1 > 949
|   |   |   |   |   |   |   |   obj1 <= 955
|   |   |   |   |   |   |   |   |   obj1 <= 954: 0 (227.0/93.0)
|   |   |   |   |   |   |   |   |   obj1 > 954: 1 (22.0/2.0)
|   |   |   |   |   |   |   |   obj1 > 955: 0 (442.0/146.0)
|   |   |   |   |   |   obj1 > 985
|   |   |   |   |   |   |   obj2 <= 851
|   |   |   |   |   |   |   |   obj1 <= 994: 1 (268.0/92.0)
|   |   |   |   |   |   |   |   obj1 > 994: 0 (68.0/32.0)
|   |   |   |   |   |   |   obj2 > 851: 0 (207.0/69.0)
|   |   |   |   lbl0 = 1
|   |   |   |   |   obj1 <= 931
|   |   |   |   |   |   obj1 <= 694
|   |   |   |   |   |   |   obj1 <= 331
|   |   |   |   |   |   |   |   obj2 <= 363
|   |   |   |   |   |   |   |   |   obj2 <= 255: 1 (39.0/12.0)
|   |   |   |   |   |   |   |   |   obj2 > 255: 0 (159.0/27.0)
|   |   |   |   |   |   |   |   obj2 > 363: 0 (289.0/92.0)
|   |   |   |   |   |   |   obj1 > 331
|   |   |   |   |   |   |   |   obj1 <= 368
|   |   |   |   |   |   |   |   |   obj1 <= 365
|   |   |   |   |   |   |   |   |   |   obj1 <= 334: 1 (7.0/1.0)
|   |   |   |   |   |   |   |   |   |   obj1 > 334: 0 (33.0/12.0)
|   |   |   |   |   |   |   |   |   obj1 > 365: 1 (20.0/1.0)
|   |   |   |   |   |   |   |   obj1 > 368: 0 (1796.0/646.0)
|   |   |   |   |   |   obj1 > 694
|   |   |   |   |   |   |   obj1 <= 810
|   |   |   |   |   |   |   |   obj1 <= 778
|   |   |   |   |   |   |   |   |   obj1 <= 775: 0 (3374.0/936.0)
|   |   |   |   |   |   |   |   |   obj1 > 775: 1 (35.0/10.0)
|   |   |   |   |   |   |   |   obj1 > 778: 0 (854.0/160.0)
|   |   |   |   |   |   |   obj1 > 810
|   |   |   |   |   |   |   |   obj1 <= 811
|   |   |   |   |   |   |   |   |   obj2 <= 739: 0 (3.0/1.0)
|   |   |   |   |   |   |   |   |   obj2 > 739: 1 (52.0/5.0)
|   |   |   |   |   |   |   |   obj1 > 811: 0 (3325.0/715.0)
|   |   |   |   |   obj1 > 931
|   |   |   |   |   |   obj1 <= 952
|   |   |   |   |   |   |   obj1 <= 947: 0 (140.0/46.0)
|   |   |   |   |   |   |   obj1 > 947: 1 (809.0/371.0)
|   |   |   |   |   |   obj1 > 952: 0 (1223.0/275.0)
|   |   lbl1 = 1
|   |   |   lbl0 = 0
|   |   |   |   obj1 <= 873
|   |   |   |   |   lbl3 = 0: 1 (1604.0/473.0)
|   |   |   |   |   lbl3 = 1
|   |   |   |   |   |   obj2 <= 925
|   |   |   |   |   |   |   obj1 <= 739: 1 (338.0/46.0)
|   |   |   |   |   |   |   obj1 > 739
|   |   |   |   |   |   |   |   obj1 <= 821
|   |   |   |   |   |   |   |   |   obj1 <= 808
|   |   |   |   |   |   |   |   |   |   obj2 <= 822
|   |   |   |   |   |   |   |   |   |   |   obj2 <= 741: 1 (146.0/68.0)
|   |   |   |   |   |   |   |   |   |   |   obj2 > 741: 0 (193.0/71.0)
|   |   |   |   |   |   |   |   |   |   obj2 > 822
|   |   |   |   |   |   |   |   |   |   |   obj2 <= 899: 1 (67.0/17.0)
|   |   |   |   |   |   |   |   |   |   |   obj2 > 899
|   |   |   |   |   |   |   |   |   |   |   |   obj1 <= 804: 1 (38.0/18.0)
|   |   |   |   |   |   |   |   |   |   |   |   obj1 > 804: 0 (4.0)
|   |   |   |   |   |   |   |   |   obj1 > 808: 1 (31.0/5.0)
|   |   |   |   |   |   |   |   obj1 > 821
|   |   |   |   |   |   |   |   |   obj2 <= 820
|   |   |   |   |   |   |   |   |   |   obj2 <= 771
|   |   |   |   |   |   |   |   |   |   |   obj2 <= 745: 1 (18.0/3.0)
|   |   |   |   |   |   |   |   |   |   |   obj2 > 745: 0 (34.0/9.0)
|   |   |   |   |   |   |   |   |   |   obj2 > 771: 1 (15.0/2.0)
|   |   |   |   |   |   |   |   |   obj2 > 820
|   |   |   |   |   |   |   |   |   |   obj2 <= 873: 0 (52.0/5.0)
|   |   |   |   |   |   |   |   |   |   obj2 > 873
|   |   |   |   |   |   |   |   |   |   |   obj1 <= 834: 0 (2.0)
|   |   |   |   |   |   |   |   |   |   |   obj1 > 834
|   |   |   |   |   |   |   |   |   |   |   |   obj1 <= 859: 1 (3.0)
|   |   |   |   |   |   |   |   |   |   |   |   obj1 > 859: 0 (5.0/2.0)
|   |   |   |   |   |   obj2 > 925: 1 (107.0/18.0)
|   |   |   |   obj1 > 873
|   |   |   |   |   obj1 <= 995: 1 (834.0/119.0)
|   |   |   |   |   obj1 > 995
|   |   |   |   |   |   lbl3 = 0: 1 (46.0/13.0)
|   |   |   |   |   |   lbl3 = 1
|   |   |   |   |   |   |   obj2 <= 961: 0 (13.0/2.0)
|   |   |   |   |   |   |   obj2 > 961: 1 (2.0)
|   |   |   lbl0 = 1
|   |   |   |   lbl3 = 0
|   |   |   |   |   obj1 <= 947
|   |   |   |   |   |   obj1 <= 882: 0 (1322.0/528.0)
|   |   |   |   |   |   obj1 > 882
|   |   |   |   |   |   |   obj1 <= 906: 1 (207.0/78.0)
|   |   |   |   |   |   |   obj1 > 906
|   |   |   |   |   |   |   |   obj1 <= 932: 0 (33.0/10.0)
|   |   |   |   |   |   |   |   obj1 > 932
|   |   |   |   |   |   |   |   |   obj2 <= 822: 1 (7.0)
|   |   |   |   |   |   |   |   |   obj2 > 822: 0 (4.0/1.0)
|   |   |   |   |   obj1 > 947: 0 (333.0/77.0)
|   |   |   |   lbl3 = 1
|   |   |   |   |   obj1 <= 288: 0 (26.0/6.0)
|   |   |   |   |   obj1 > 288
|   |   |   |   |   |   obj1 <= 879: 1 (737.0/247.0)
|   |   |   |   |   |   obj1 > 879
|   |   |   |   |   |   |   obj1 <= 935: 0 (125.0/50.0)
|   |   |   |   |   |   |   obj1 > 935: 1 (171.0/64.0)
|   lbl4 = 1
|   |   lbl1 = 0
|   |   |   lbl0 = 0
|   |   |   |   obj1 <= 682
|   |   |   |   |   obj1 <= 568
|   |   |   |   |   |   obj1 <= 368: 1 (8.0/1.0)
|   |   |   |   |   |   obj1 > 368: 0 (3.0)
|   |   |   |   |   obj1 > 568: 1 (7.0)
|   |   |   |   obj1 > 682: 0 (57.0/22.0)
|   |   |   lbl0 = 1: 1 (39.0)
|   |   lbl1 = 1: 1 (1226.0)
lbl2 = 1
|   lbl0 = 0: 1 (79364.0/1932.0)
|   lbl0 = 1
|   |   lbl4 = 0
|   |   |   lbl1 = 0
|   |   |   |   lbl3 = 0: 1 (1705.0/529.0)
|   |   |   |   lbl3 = 1
|   |   |   |   |   obj1 <= 768
|   |   |   |   |   |   obj1 <= 728
|   |   |   |   |   |   |   obj1 <= 715: 1 (799.0/205.0)
|   |   |   |   |   |   |   obj1 > 715
|   |   |   |   |   |   |   |   obj2 <= 788: 1 (13.0/2.0)
|   |   |   |   |   |   |   |   obj2 > 788: 0 (3.0)
|   |   |   |   |   |   obj1 > 728
|   |   |   |   |   |   |   obj2 <= 840
|   |   |   |   |   |   |   |   obj2 <= 350
|   |   |   |   |   |   |   |   |   obj1 <= 748: 1 (2.0)
|   |   |   |   |   |   |   |   |   obj1 > 748: 0 (25.0/5.0)
|   |   |   |   |   |   |   |   obj2 > 350: 1 (629.0/267.0)
|   |   |   |   |   |   |   obj2 > 840
|   |   |   |   |   |   |   |   obj2 <= 875: 0 (108.0/36.0)
|   |   |   |   |   |   |   |   obj2 > 875
|   |   |   |   |   |   |   |   |   obj2 <= 952: 1 (185.0/76.0)
|   |   |   |   |   |   |   |   |   obj2 > 952
|   |   |   |   |   |   |   |   |   |   obj2 <= 954: 0 (72.0/12.0)
|   |   |   |   |   |   |   |   |   |   obj2 > 954: 1 (110.0/48.0)
|   |   |   |   |   obj1 > 768
|   |   |   |   |   |   obj1 <= 980: 1 (1439.0/486.0)
|   |   |   |   |   |   obj1 > 980
|   |   |   |   |   |   |   obj2 <= 882: 1 (115.0/38.0)
|   |   |   |   |   |   |   obj2 > 882
|   |   |   |   |   |   |   |   obj2 <= 892: 0 (85.0/18.0)
|   |   |   |   |   |   |   |   obj2 > 892
|   |   |   |   |   |   |   |   |   obj2 <= 946: 1 (5.0)
|   |   |   |   |   |   |   |   |   obj2 > 946: 0 (33.0/7.0)
|   |   |   lbl1 = 1
|   |   |   |   lbl3 = 0
|   |   |   |   |   obj1 <= 770: 1 (953.0/230.0)
|   |   |   |   |   obj1 > 770
|   |   |   |   |   |   obj1 <= 846
|   |   |   |   |   |   |   obj1 <= 771
|   |   |   |   |   |   |   |   obj2 <= 760: 1 (32.0/15.0)
|   |   |   |   |   |   |   |   obj2 > 760: 0 (44.0/8.0)
|   |   |   |   |   |   |   obj1 > 771
|   |   |   |   |   |   |   |   obj1 <= 811: 1 (148.0/42.0)
|   |   |   |   |   |   |   |   obj1 > 811: 0 (167.0/71.0)
|   |   |   |   |   |   obj1 > 846
|   |   |   |   |   |   |   obj1 <= 997: 1 (239.0/45.0)
|   |   |   |   |   |   |   obj1 > 997
|   |   |   |   |   |   |   |   obj2 <= 720: 1 (2.0)
|   |   |   |   |   |   |   |   obj2 > 720: 0 (38.0/12.0)
|   |   |   |   lbl3 = 1: 1 (1026.0/96.0)
|   |   lbl4 = 1: 1 (912.0)

Number of Leaves  : 	93

Size of the tree : 	185


meka.classifiers.multilabel.CC: Node #7

J48 pruned tree
------------------

lbl2 = 0
|   lbl0 = 0
|   |   lbl4 = 0
|   |   |   lbl1 = 0
|   |   |   |   lbl3 = 0
|   |   |   |   |   obj1 <= 844
|   |   |   |   |   |   obj1 <= 730
|   |   |   |   |   |   |   obj1 <= 695
|   |   |   |   |   |   |   |   obj2 <= 728
|   |   |   |   |   |   |   |   |   lbl5 = 0: 1 (956.0/427.0)
|   |   |   |   |   |   |   |   |   lbl5 = 1
|   |   |   |   |   |   |   |   |   |   obj2 <= 695
|   |   |   |   |   |   |   |   |   |   |   obj1 <= 678
|   |   |   |   |   |   |   |   |   |   |   |   obj2 <= 538: 1 (53.0/20.0)
|   |   |   |   |   |   |   |   |   |   |   |   obj2 > 538: 0 (88.0/31.0)
|   |   |   |   |   |   |   |   |   |   |   obj1 > 678: 1 (123.0/39.0)
|   |   |   |   |   |   |   |   |   |   obj2 > 695
|   |   |   |   |   |   |   |   |   |   |   obj2 <= 704: 0 (68.0/18.0)
|   |   |   |   |   |   |   |   |   |   |   obj2 > 704
|   |   |   |   |   |   |   |   |   |   |   |   obj2 <= 726
|   |   |   |   |   |   |   |   |   |   |   |   |   obj2 <= 722
|   |   |   |   |   |   |   |   |   |   |   |   |   |   obj2 <= 705: 1 (9.0/1.0)
|   |   |   |   |   |   |   |   |   |   |   |   |   |   obj2 > 705: 0 (52.0/21.0)
|   |   |   |   |   |   |   |   |   |   |   |   |   obj2 > 722: 1 (5.0)
|   |   |   |   |   |   |   |   |   |   |   |   obj2 > 726: 0 (7.0)
|   |   |   |   |   |   |   |   obj2 > 728
|   |   |   |   |   |   |   |   |   obj2 <= 758
|   |   |   |   |   |   |   |   |   |   lbl5 = 0
|   |   |   |   |   |   |   |   |   |   |   obj2 <= 753
|   |   |   |   |   |   |   |   |   |   |   |   obj2 <= 749
|   |   |   |   |   |   |   |   |   |   |   |   |   obj1 <= 570: 1 (9.0)
|   |   |   |   |   |   |   |   |   |   |   |   |   obj1 > 570
|   |   |   |   |   |   |   |   |   |   |   |   |   |   obj1 <= 694: 0 (8.0/2.0)
|   |   |   |   |   |   |   |   |   |   |   |   |   |   obj1 > 694: 1 (4.0)
|   |   |   |   |   |   |   |   |   |   |   |   obj2 > 749: 0 (4.0)
|   |   |   |   |   |   |   |   |   |   |   obj2 > 753: 1 (88.0/15.0)
|   |   |   |   |   |   |   |   |   |   lbl5 = 1
|   |   |   |   |   |   |   |   |   |   |   obj1 <= 673: 1 (31.0/5.0)
|   |   |   |   |   |   |   |   |   |   |   obj1 > 673: 0 (6.0/2.0)
|   |   |   |   |   |   |   |   |   obj2 > 758
|   |   |   |   |   |   |   |   |   |   lbl5 = 0: 1 (319.0/130.0)
|   |   |   |   |   |   |   |   |   |   lbl5 = 1
|   |   |   |   |   |   |   |   |   |   |   obj2 <= 764: 0 (8.0/1.0)
|   |   |   |   |   |   |   |   |   |   |   obj2 > 764: 1 (110.0/38.0)
|   |   |   |   |   |   |   obj1 > 695
|   |   |   |   |   |   |   |   obj1 <= 704
|   |   |   |   |   |   |   |   |   lbl5 = 0: 0 (497.0/152.0)
|   |   |   |   |   |   |   |   |   lbl5 = 1
|   |   |   |   |   |   |   |   |   |   obj1 <= 703: 0 (35.0/6.0)
|   |   |   |   |   |   |   |   |   |   obj1 > 703
|   |   |   |   |   |   |   |   |   |   |   obj2 <= 707: 0 (59.0/13.0)
|   |   |   |   |   |   |   |   |   |   |   obj2 > 707
|   |   |   |   |   |   |   |   |   |   |   |   obj2 <= 760: 1 (16.0/3.0)
|   |   |   |   |   |   |   |   |   |   |   |   obj2 > 760
|   |   |   |   |   |   |   |   |   |   |   |   |   obj2 <= 961: 0 (19.0/6.0)
|   |   |   |   |   |   |   |   |   |   |   |   |   obj2 > 961: 1 (3.0)
|   |   |   |   |   |   |   |   obj1 > 704
|   |   |   |   |   |   |   |   |   obj1 <= 726
|   |   |   |   |   |   |   |   |   |   obj2 <= 685
|   |   |   |   |   |   |   |   |   |   |   lbl5 = 0
|   |   |   |   |   |   |   |   |   |   |   |   obj1 <= 707: 1 (40.0/5.0)
|   |   |   |   |   |   |   |   |   |   |   |   obj1 > 707
|   |   |   |   |   |   |   |   |   |   |   |   |   obj1 <= 711: 0 (14.0/5.0)
|   |   |   |   |   |   |   |   |   |   |   |   |   obj1 > 711: 1 (11.0/2.0)
|   |   |   |   |   |   |   |   |   |   |   lbl5 = 1
|   |   |   |   |   |   |   |   |   |   |   |   obj1 <= 705: 0 (3.0)
|   |   |   |   |   |   |   |   |   |   |   |   obj1 > 705
|   |   |   |   |   |   |   |   |   |   |   |   |   obj1 <= 709
|   |   |   |   |   |   |   |   |   |   |   |   |   |   obj2 <= 315: 1 (2.0)
|   |   |   |   |   |   |   |   |   |   |   |   |   |   obj2 > 315: 0 (6.0/2.0)
|   |   |   |   |   |   |   |   |   |   |   |   |   obj1 > 709: 1 (3.0)
|   |   |   |   |   |   |   |   |   |   obj2 > 685
|   |   |   |   |   |   |   |   |   |   |   obj1 <= 705: 1 (51.0/21.0)
|   |   |   |   |   |   |   |   |   |   |   obj1 > 705
|   |   |   |   |   |   |   |   |   |   |   |   obj1 <= 706: 0 (46.0/7.0)
|   |   |   |   |   |   |   |   |   |   |   |   obj1 > 706
|   |   |   |   |   |   |   |   |   |   |   |   |   obj1 <= 707
|   |   |   |   |   |   |   |   |   |   |   |   |   |   lbl5 = 0
|   |   |   |   |   |   |   |   |   |   |   |   |   |   |   obj2 <= 706: 0 (17.0/8.0)
|   |   |   |   |   |   |   |   |   |   |   |   |   |   |   obj2 > 706: 1 (26.0/1.0)
|   |   |   |   |   |   |   |   |   |   |   |   |   |   lbl5 = 1: 0 (7.0)
|   |   |   |   |   |   |   |   |   |   |   |   |   obj1 > 707
|   |   |   |   |   |   |   |   |   |   |   |   |   |   obj1 <= 719
|   |   |   |   |   |   |   |   |   |   |   |   |   |   |   lbl5 = 0: 0 (115.0/42.0)
|   |   |   |   |   |   |   |   |   |   |   |   |   |   |   lbl5 = 1
|   |   |   |   |   |   |   |   |   |   |   |   |   |   |   |   obj1 <= 713: 1 (32.0/14.0)
|   |   |   |   |   |   |   |   |   |   |   |   |   |   |   |   obj1 > 713: 0 (15.0/1.0)
|   |   |   |   |   |   |   |   |   |   |   |   |   |   obj1 > 719: 1 (10.0/2.0)
|   |   |   |   |   |   |   |   |   obj1 > 726
|   |   |   |   |   |   |   |   |   |   lbl5 = 0
|   |   |   |   |   |   |   |   |   |   |   obj1 <= 729
|   |   |   |   |   |   |   |   |   |   |   |   obj1 <= 728: 0 (16.0/6.0)
|   |   |   |   |   |   |   |   |   |   |   |   obj1 > 728: 1 (16.0/6.0)
|   |   |   |   |   |   |   |   |   |   |   obj1 > 729: 0 (6.0)
|   |   |   |   |   |   |   |   |   |   lbl5 = 1: 0 (39.0/2.0)
|   |   |   |   |   |   obj1 > 730
|   |   |   |   |   |   |   obj1 <= 755
|   |   |   |   |   |   |   |   obj1 <= 753
|   |   |   |   |   |   |   |   |   obj1 <= 746
|   |   |   |   |   |   |   |   |   |   obj1 <= 735: 1 (243.0/31.0)
|   |   |   |   |   |   |   |   |   |   obj1 > 735
|   |   |   |   |   |   |   |   |   |   |   obj1 <= 738
|   |   |   |   |   |   |   |   |   |   |   |   obj1 <= 736
|   |   |   |   |   |   |   |   |   |   |   |   |   obj2 <= 742: 0 (5.0)
|   |   |   |   |   |   |   |   |   |   |   |   |   obj2 > 742
|   |   |   |   |   |   |   |   |   |   |   |   |   |   obj2 <= 792: 1 (5.0)
|   |   |   |   |   |   |   |   |   |   |   |   |   |   obj2 > 792
|   |   |   |   |   |   |   |   |   |   |   |   |   |   |   obj2 <= 937: 0 (5.0/1.0)
|   |   |   |   |   |   |   |   |   |   |   |   |   |   |   obj2 > 937: 1 (2.0)
|   |   |   |   |   |   |   |   |   |   |   |   obj1 > 736
|   |   |   |   |   |   |   |   |   |   |   |   |   obj2 <= 916: 1 (49.0/13.0)
|   |   |   |   |   |   |   |   |   |   |   |   |   obj2 > 916: 0 (3.0)
|   |   |   |   |   |   |   |   |   |   |   obj1 > 738: 1 (165.0/33.0)
|   |   |   |   |   |   |   |   |   obj1 > 746: 0 (40.0/11.0)
|   |   |   |   |   |   |   |   obj1 > 753: 1 (1884.0/321.0)
|   |   |   |   |   |   |   obj1 > 755
|   |   |   |   |   |   |   |   obj1 <= 769
|   |   |   |   |   |   |   |   |   obj2 <= 865
|   |   |   |   |   |   |   |   |   |   obj2 <= 751
|   |   |   |   |   |   |   |   |   |   |   obj1 <= 767
|   |   |   |   |   |   |   |   |   |   |   |   lbl5 = 0
|   |   |   |   |   |   |   |   |   |   |   |   |   obj2 <= 699: 1 (16.0/4.0)
|   |   |   |   |   |   |   |   |   |   |   |   |   obj2 > 699: 0 (12.0/3.0)
|   |   |   |   |   |   |   |   |   |   |   |   lbl5 = 1
|   |   |   |   |   |   |   |   |   |   |   |   |   obj1 <= 765: 0 (3.0)
|   |   |   |   |   |   |   |   |   |   |   |   |   obj1 > 765: 1 (7.0/2.0)
|   |   |   |   |   |   |   |   |   |   |   obj1 > 767: 0 (75.0/19.0)
|   |   |   |   |   |   |   |   |   |   obj2 > 751
|   |   |   |   |   |   |   |   |   |   |   lbl5 = 0
|   |   |   |   |   |   |   |   |   |   |   |   obj2 <= 805: 1 (48.0/10.0)
|   |   |   |   |   |   |   |   |   |   |   |   obj2 > 805
|   |   |   |   |   |   |   |   |   |   |   |   |   obj2 <= 826: 0 (16.0/3.0)
|   |   |   |   |   |   |   |   |   |   |   |   |   obj2 > 826: 1 (15.0/5.0)
|   |   |   |   |   |   |   |   |   |   |   lbl5 = 1: 0 (25.0/11.0)
|   |   |   |   |   |   |   |   |   obj2 > 865: 0 (185.0/39.0)
|   |   |   |   |   |   |   |   obj1 > 769: 1 (2078.0/660.0)
|   |   |   |   |   obj1 > 844
|   |   |   |   |   |   obj1 <= 950
|   |   |   |   |   |   |   obj1 <= 947
|   |   |   |   |   |   |   |   obj1 <= 932
|   |   |   |   |   |   |   |   |   obj2 <= 755
|   |   |   |   |   |   |   |   |   |   obj2 <= 732: 0 (237.0/92.0)
|   |   |   |   |   |   |   |   |   |   obj2 > 732: 1 (337.0/82.0)
|   |   |   |   |   |   |   |   |   obj2 > 755
|   |   |   |   |   |   |   |   |   |   lbl5 = 0: 0 (779.0/323.0)
|   |   |   |   |   |   |   |   |   |   lbl5 = 1
|   |   |   |   |   |   |   |   |   |   |   obj2 <= 987
|   |   |   |   |   |   |   |   |   |   |   |   obj2 <= 919
|   |   |   |   |   |   |   |   |   |   |   |   |   obj1 <= 860: 0 (10.0/1.0)
|   |   |   |   |   |   |   |   |   |   |   |   |   obj1 > 860: 1 (113.0/40.0)
|   |   |   |   |   |   |   |   |   |   |   |   obj2 > 919
|   |   |   |   |   |   |   |   |   |   |   |   |   obj1 <= 887
|   |   |   |   |   |   |   |   |   |   |   |   |   |   obj2 <= 950: 0 (5.0/1.0)
|   |   |   |   |   |   |   |   |   |   |   |   |   |   obj2 > 950: 1 (7.0/1.0)
|   |   |   |   |   |   |   |   |   |   |   |   |   obj1 > 887: 0 (35.0/8.0)
|   |   |   |   |   |   |   |   |   |   |   obj2 > 987: 1 (15.0/1.0)
|   |   |   |   |   |   |   |   obj1 > 932: 0 (247.0/77.0)
|   |   |   |   |   |   |   obj1 > 947
|   |   |   |   |   |   |   |   lbl5 = 0
|   |   |   |   |   |   |   |   |   obj2 <= 750: 0 (27.0/6.0)
|   |   |   |   |   |   |   |   |   obj2 > 750: 1 (80.0/30.0)
|   |   |   |   |   |   |   |   lbl5 = 1: 0 (580.0/17.0)
|   |   |   |   |   |   obj1 > 950
|   |   |   |   |   |   |   lbl5 = 0
|   |   |   |   |   |   |   |   obj2 <= 612: 0 (40.0/17.0)
|   |   |   |   |   |   |   |   obj2 > 612
|   |   |   |   |   |   |   |   |   obj1 <= 954: 1 (213.0/45.0)
|   |   |   |   |   |   |   |   |   obj1 > 954
|   |   |   |   |   |   |   |   |   |   obj1 <= 966: 0 (38.0/12.0)
|   |   |   |   |   |   |   |   |   |   obj1 > 966: 1 (612.0/186.0)
|   |   |   |   |   |   |   lbl5 = 1
|   |   |   |   |   |   |   |   obj1 <= 992
|   |   |   |   |   |   |   |   |   obj1 <= 986: 1 (77.0/15.0)
|   |   |   |   |   |   |   |   |   obj1 > 986
|   |   |   |   |   |   |   |   |   |   obj2 <= 517: 1 (2.0)
|   |   |   |   |   |   |   |   |   |   obj2 > 517: 0 (8.0/1.0)
|   |   |   |   |   |   |   |   obj1 > 992: 1 (74.0/4.0)
|   |   |   |   lbl3 = 1
|   |   |   |   |   lbl5 = 0
|   |   |   |   |   |   obj1 <= 733: 0 (1938.0/357.0)
|   |   |   |   |   |   obj1 > 733
|   |   |   |   |   |   |   obj1 <= 754
|   |   |   |   |   |   |   |   obj1 <= 734: 1 (107.0/42.0)
|   |   |   |   |   |   |   |   obj1 > 734
|   |   |   |   |   |   |   |   |   obj2 <= 735
|   |   |   |   |   |   |   |   |   |   obj2 <= 685: 0 (74.0/28.0)
|   |   |   |   |   |   |   |   |   |   obj2 > 685: 1 (119.0/46.0)
|   |   |   |   |   |   |   |   |   obj2 > 735: 0 (738.0/292.0)
|   |   |   |   |   |   |   obj1 > 754: 0 (3219.0/743.0)
|   |   |   |   |   lbl5 = 1
|   |   |   |   |   |   obj1 <= 992
|   |   |   |   |   |   |   obj1 <= 730
|   |   |   |   |   |   |   |   obj1 <= 694: 1 (787.0/252.0)
|   |   |   |   |   |   |   |   obj1 > 694
|   |   |   |   |   |   |   |   |   obj1 <= 728
|   |   |   |   |   |   |   |   |   |   obj2 <= 708
|   |   |   |   |   |   |   |   |   |   |   obj2 <= 602
|   |   |   |   |   |   |   |   |   |   |   |   obj1 <= 725: 1 (40.0/10.0)
|   |   |   |   |   |   |   |   |   |   |   |   obj1 > 725: 0 (7.0/1.0)
|   |   |   |   |   |   |   |   |   |   |   obj2 > 602: 0 (153.0/62.0)
|   |   |   |   |   |   |   |   |   |   obj2 > 708: 1 (124.0/42.0)
|   |   |   |   |   |   |   |   |   obj1 > 728: 0 (22.0/3.0)
|   |   |   |   |   |   |   obj1 > 730: 1 (2784.0/843.0)
|   |   |   |   |   |   obj1 > 992
|   |   |   |   |   |   |   obj1 <= 994: 0 (212.0/79.0)
|   |   |   |   |   |   |   obj1 > 994: 1 (45.0/15.0)
|   |   |   lbl1 = 1
|   |   |   |   lbl5 = 0
|   |   |   |   |   lbl3 = 0
|   |   |   |   |   |   obj2 <= 752: 0 (222.0/64.0)
|   |   |   |   |   |   obj2 > 752
|   |   |   |   |   |   |   obj2 <= 851: 1 (235.0/86.0)
|   |   |   |   |   |   |   obj2 > 851: 0 (106.0/31.0)
|   |   |   |   |   lbl3 = 1: 1 (433.0)
|   |   |   |   lbl5 = 1: 1 (2556.0/234.0)
|   |   lbl4 = 1: 1 (1186.0)
|   lbl0 = 1
|   |   lbl1 = 0
|   |   |   lbl3 = 0
|   |   |   |   obj1 <= 735: 0 (2031.0/249.0)
|   |   |   |   obj1 > 735
|   |   |   |   |   obj1 <= 864
|   |   |   |   |   |   obj1 <= 843
|   |   |   |   |   |   |   obj2 <= 998
|   |   |   |   |   |   |   |   obj2 <= 866
|   |   |   |   |   |   |   |   |   obj2 <= 833: 0 (1767.0/602.0)
|   |   |   |   |   |   |   |   |   obj2 > 833: 1 (208.0/98.0)
|   |   |   |   |   |   |   |   obj2 > 866: 0 (627.0/164.0)
|   |   |   |   |   |   |   obj2 > 998
|   |   |   |   |   |   |   |   obj1 <= 816: 1 (70.0/25.0)
|   |   |   |   |   |   |   |   obj1 > 816: 0 (5.0)
|   |   |   |   |   |   obj1 > 843
|   |   |   |   |   |   |   obj1 <= 845: 1 (198.0/61.0)
|   |   |   |   |   |   |   obj1 > 845: 0 (63.0/24.0)
|   |   |   |   |   obj1 > 864
|   |   |   |   |   |   obj1 <= 997: 0 (2134.0/257.0)
|   |   |   |   |   |   obj1 > 997
|   |   |   |   |   |   |   obj2 <= 750
|   |   |   |   |   |   |   |   obj2 <= 408: 1 (3.0)
|   |   |   |   |   |   |   |   obj2 > 408: 0 (25.0/7.0)
|   |   |   |   |   |   |   obj2 > 750
|   |   |   |   |   |   |   |   obj2 <= 864: 1 (83.0/26.0)
|   |   |   |   |   |   |   |   obj2 > 864: 0 (9.0/3.0)
|   |   |   lbl3 = 1
|   |   |   |   lbl5 = 0: 0 (8686.0/380.0)
|   |   |   |   lbl5 = 1
|   |   |   |   |   obj1 <= 972
|   |   |   |   |   |   obj2 <= 931: 0 (2926.0/597.0)
|   |   |   |   |   |   obj2 > 931
|   |   |   |   |   |   |   obj2 <= 947: 1 (41.0/19.0)
|   |   |   |   |   |   |   obj2 > 947
|   |   |   |   |   |   |   |   obj2 <= 994
|   |   |   |   |   |   |   |   |   obj1 <= 875
|   |   |   |   |   |   |   |   |   |   obj2 <= 981: 0 (86.0/23.0)
|   |   |   |   |   |   |   |   |   |   obj2 > 981: 1 (44.0/16.0)
|   |   |   |   |   |   |   |   |   obj1 > 875: 0 (92.0/21.0)
|   |   |   |   |   |   |   |   obj2 > 994: 0 (74.0/9.0)
|   |   |   |   |   obj1 > 972
|   |   |   |   |   |   obj1 <= 994
|   |   |   |   |   |   |   obj2 <= 875
|   |   |   |   |   |   |   |   obj1 <= 984
|   |   |   |   |   |   |   |   |   obj1 <= 978
|   |   |   |   |   |   |   |   |   |   obj1 <= 974: 0 (11.0/4.0)
|   |   |   |   |   |   |   |   |   |   obj1 > 974: 1 (10.0/3.0)
|   |   |   |   |   |   |   |   |   obj1 > 978: 0 (5.0)
|   |   |   |   |   |   |   |   obj1 > 984: 1 (108.0/36.0)
|   |   |   |   |   |   |   obj2 > 875: 0 (52.0/19.0)
|   |   |   |   |   |   obj1 > 994: 0 (38.0/4.0)
|   |   lbl1 = 1
|   |   |   lbl4 = 0
|   |   |   |   lbl5 = 0
|   |   |   |   |   lbl3 = 0
|   |   |   |   |   |   obj1 <= 923
|   |   |   |   |   |   |   obj2 <= 821: 0 (583.0/166.0)
|   |   |   |   |   |   |   obj2 > 821
|   |   |   |   |   |   |   |   obj2 <= 872
|   |   |   |   |   |   |   |   |   obj2 <= 842
|   |   |   |   |   |   |   |   |   |   obj2 <= 822: 1 (39.0/12.0)
|   |   |   |   |   |   |   |   |   |   obj2 > 822
|   |   |   |   |   |   |   |   |   |   |   obj2 <= 832: 0 (17.0/2.0)
|   |   |   |   |   |   |   |   |   |   |   obj2 > 832
|   |   |   |   |   |   |   |   |   |   |   |   obj1 <= 805: 1 (6.0/2.0)
|   |   |   |   |   |   |   |   |   |   |   |   obj1 > 805: 0 (2.0)
|   |   |   |   |   |   |   |   |   obj2 > 842: 1 (39.0/10.0)
|   |   |   |   |   |   |   |   obj2 > 872
|   |   |   |   |   |   |   |   |   obj2 <= 994: 0 (172.0/41.0)
|   |   |   |   |   |   |   |   |   obj2 > 994: 1 (27.0/11.0)
|   |   |   |   |   |   obj1 > 923: 0 (269.0/29.0)
|   |   |   |   |   lbl3 = 1: 0 (406.0)
|   |   |   |   lbl5 = 1
|   |   |   |   |   obj1 <= 710
|   |   |   |   |   |   lbl3 = 0
|   |   |   |   |   |   |   obj1 <= 694
|   |   |   |   |   |   |   |   obj2 <= 509: 1 (21.0/6.0)
|   |   |   |   |   |   |   |   obj2 > 509
|   |   |   |   |   |   |   |   |   obj2 <= 719: 0 (88.0/18.0)
|   |   |   |   |   |   |   |   |   obj2 > 719
|   |   |   |   |   |   |   |   |   |   obj2 <= 894: 1 (32.0/10.0)
|   |   |   |   |   |   |   |   |   |   obj2 > 894: 0 (10.0/2.0)
|   |   |   |   |   |   |   obj1 > 694: 0 (63.0/7.0)
|   |   |   |   |   |   lbl3 = 1: 1 (193.0/86.0)
|   |   |   |   |   obj1 > 710
|   |   |   |   |   |   obj1 <= 771: 1 (327.0/79.0)
|   |   |   |   |   |   obj1 > 771
|   |   |   |   |   |   |   obj2 <= 989
|   |   |   |   |   |   |   |   obj1 <= 997
|   |   |   |   |   |   |   |   |   obj1 <= 974: 1 (535.0/201.0)
|   |   |   |   |   |   |   |   |   obj1 > 974
|   |   |   |   |   |   |   |   |   |   lbl3 = 0: 0 (35.0/9.0)
|   |   |   |   |   |   |   |   |   |   lbl3 = 1: 1 (30.0/12.0)
|   |   |   |   |   |   |   |   obj1 > 997: 1 (27.0/2.0)
|   |   |   |   |   |   |   obj2 > 989
|   |   |   |   |   |   |   |   lbl3 = 0
|   |   |   |   |   |   |   |   |   obj1 <= 892: 0 (25.0/1.0)
|   |   |   |   |   |   |   |   |   obj1 > 892: 1 (4.0/1.0)
|   |   |   |   |   |   |   |   lbl3 = 1
|   |   |   |   |   |   |   |   |   obj2 <= 994: 1 (9.0/3.0)
|   |   |   |   |   |   |   |   |   obj2 > 994: 0 (6.0)
|   |   |   lbl4 = 1: 1 (115.0)
lbl2 = 1
|   lbl5 = 0
|   |   lbl4 = 0
|   |   |   lbl0 = 0
|   |   |   |   lbl1 = 0
|   |   |   |   |   lbl3 = 0
|   |   |   |   |   |   obj1 <= 874
|   |   |   |   |   |   |   obj2 <= 859
|   |   |   |   |   |   |   |   obj2 <= 797: 1 (240.0/111.0)
|   |   |   |   |   |   |   |   obj2 > 797
|   |   |   |   |   |   |   |   |   obj2 <= 807: 0 (49.0/11.0)
|   |   |   |   |   |   |   |   |   obj2 > 807
|   |   |   |   |   |   |   |   |   |   obj2 <= 817: 1 (11.0/3.0)
|   |   |   |   |   |   |   |   |   |   obj2 > 817: 0 (51.0/8.0)
|   |   |   |   |   |   |   obj2 > 859
|   |   |   |   |   |   |   |   obj1 <= 837: 1 (105.0/35.0)
|   |   |   |   |   |   |   |   obj1 > 837: 0 (8.0)
|   |   |   |   |   |   obj1 > 874
|   |   |   |   |   |   |   obj1 <= 992
|   |   |   |   |   |   |   |   obj1 <= 974: 1 (69.0/22.0)
|   |   |   |   |   |   |   |   obj1 > 974: 0 (4.0)
|   |   |   |   |   |   |   obj1 > 992: 1 (9.0)
|   |   |   |   |   lbl3 = 1
|   |   |   |   |   |   obj1 <= 732: 0 (108.0/43.0)
|   |   |   |   |   |   obj1 > 732
|   |   |   |   |   |   |   obj1 <= 858: 1 (179.0/54.0)
|   |   |   |   |   |   |   obj1 > 858
|   |   |   |   |   |   |   |   obj2 <= 707
|   |   |   |   |   |   |   |   |   obj1 <= 946: 0 (9.0)
|   |   |   |   |   |   |   |   |   obj1 > 946
|   |   |   |   |   |   |   |   |   |   obj2 <= 612: 1 (2.0)
|   |   |   |   |   |   |   |   |   |   obj2 > 612: 0 (3.0)
|   |   |   |   |   |   |   |   obj2 > 707
|   |   |   |   |   |   |   |   |   obj1 <= 947: 1 (48.0/17.0)
|   |   |   |   |   |   |   |   |   obj1 > 947: 0 (28.0/10.0)
|   |   |   |   lbl1 = 1
|   |   |   |   |   lbl3 = 0: 1 (301.0)
|   |   |   |   |   lbl3 = 1
|   |   |   |   |   |   obj1 <= 798: 1 (183.0/33.0)
|   |   |   |   |   |   obj1 > 798
|   |   |   |   |   |   |   obj2 <= 854
|   |   |   |   |   |   |   |   obj2 <= 748: 0 (26.0/6.0)
|   |   |   |   |   |   |   |   obj2 > 748: 1 (42.0/10.0)
|   |   |   |   |   |   |   obj2 > 854
|   |   |   |   |   |   |   |   obj1 <= 912: 0 (46.0/2.0)
|   |   |   |   |   |   |   |   obj1 > 912
|   |   |   |   |   |   |   |   |   obj1 <= 983
|   |   |   |   |   |   |   |   |   |   obj2 <= 901: 0 (2.0)
|   |   |   |   |   |   |   |   |   |   obj2 > 901: 1 (7.0)
|   |   |   |   |   |   |   |   |   obj1 > 983: 0 (4.0)
|   |   |   lbl0 = 1
|   |   |   |   lbl1 = 0
|   |   |   |   |   obj1 <= 749
|   |   |   |   |   |   obj1 <= 704
|   |   |   |   |   |   |   obj1 <= 584
|   |   |   |   |   |   |   |   obj2 <= 299: 0 (10.0/1.0)
|   |   |   |   |   |   |   |   obj2 > 299
|   |   |   |   |   |   |   |   |   lbl3 = 0
|   |   |   |   |   |   |   |   |   |   obj1 <= 331: 1 (15.0/3.0)
|   |   |   |   |   |   |   |   |   |   obj1 > 331: 0 (11.0/2.0)
|   |   |   |   |   |   |   |   |   lbl3 = 1: 1 (65.0/22.0)
|   |   |   |   |   |   |   obj1 > 584: 1 (179.0/25.0)
|   |   |   |   |   |   obj1 > 704
|   |   |   |   |   |   |   obj1 <= 736
|   |   |   |   |   |   |   |   lbl3 = 0
|   |   |   |   |   |   |   |   |   obj1 <= 713
|   |   |   |   |   |   |   |   |   |   obj1 <= 710: 1 (4.0/1.0)
|   |   |   |   |   |   |   |   |   |   obj1 > 710: 0 (8.0)
|   |   |   |   |   |   |   |   |   obj1 > 713: 1 (6.0)
|   |   |   |   |   |   |   |   lbl3 = 1: 0 (41.0/14.0)
|   |   |   |   |   |   |   obj1 > 736
|   |   |   |   |   |   |   |   obj1 <= 747: 1 (40.0/6.0)
|   |   |   |   |   |   |   |   obj1 > 747: 0 (5.0/1.0)
|   |   |   |   |   obj1 > 749
|   |   |   |   |   |   obj1 <= 845: 1 (1019.0/108.0)
|   |   |   |   |   |   obj1 > 845
|   |   |   |   |   |   |   obj1 <= 952
|   |   |   |   |   |   |   |   obj1 <= 947: 1 (246.0/62.0)
|   |   |   |   |   |   |   |   obj1 > 947: 0 (29.0/4.0)
|   |   |   |   |   |   |   obj1 > 952: 1 (221.0/27.0)
|   |   |   |   lbl1 = 1
|   |   |   |   |   lbl3 = 0: 1 (490.0/8.0)
|   |   |   |   |   lbl3 = 1
|   |   |   |   |   |   obj1 <= 934: 1 (81.0/4.0)
|   |   |   |   |   |   obj1 > 934
|   |   |   |   |   |   |   obj1 <= 950: 0 (8.0)
|   |   |   |   |   |   |   obj1 > 950: 1 (7.0)
|   |   lbl4 = 1: 1 (398.0)
|   lbl5 = 1
|   |   lbl0 = 0
|   |   |   lbl1 = 0
|   |   |   |   lbl3 = 0
|   |   |   |   |   lbl4 = 0
|   |   |   |   |   |   obj1 <= 603
|   |   |   |   |   |   |   obj1 <= 270
|   |   |   |   |   |   |   |   obj1 <= 268
|   |   |   |   |   |   |   |   |   obj2 <= 701
|   |   |   |   |   |   |   |   |   |   obj2 <= 338: 1 (3.0/1.0)
|   |   |   |   |   |   |   |   |   |   obj2 > 338: 0 (3.0)
|   |   |   |   |   |   |   |   |   obj2 > 701: 1 (5.0)
|   |   |   |   |   |   |   |   obj1 > 268: 0 (8.0/1.0)
|   |   |   |   |   |   |   obj1 > 270
|   |   |   |   |   |   |   |   obj1 <= 339: 1 (74.0/4.0)
|   |   |   |   |   |   |   |   obj1 > 339
|   |   |   |   |   |   |   |   |   obj2 <= 286: 0 (3.0)
|   |   |   |   |   |   |   |   |   obj2 > 286
|   |   |   |   |   |   |   |   |   |   obj1 <= 592: 1 (51.0/6.0)
|   |   |   |   |   |   |   |   |   |   obj1 > 592
|   |   |   |   |   |   |   |   |   |   |   obj1 <= 593: 0 (2.0)
|   |   |   |   |   |   |   |   |   |   |   obj1 > 593
|   |   |   |   |   |   |   |   |   |   |   |   obj1 <= 594: 1 (2.0)
|   |   |   |   |   |   |   |   |   |   |   |   obj1 > 594: 0 (2.0)
|   |   |   |   |   |   obj1 > 603
|   |   |   |   |   |   |   obj2 <= 606
|   |   |   |   |   |   |   |   obj2 <= 592
|   |   |   |   |   |   |   |   |   obj2 <= 270
|   |   |   |   |   |   |   |   |   |   obj2 <= 268: 1 (14.0/2.0)
|   |   |   |   |   |   |   |   |   |   obj2 > 268: 0 (5.0/1.0)
|   |   |   |   |   |   |   |   |   obj2 > 270: 1 (117.0/5.0)
|   |   |   |   |   |   |   |   obj2 > 592: 0 (8.0/1.0)
|   |   |   |   |   |   |   obj2 > 606: 1 (1406.0/44.0)
|   |   |   |   |   lbl4 = 1: 1 (1756.0)
|   |   |   |   lbl3 = 1: 1 (4164.0)
|   |   |   lbl1 = 1: 1 (69809.0)
|   |   lbl0 = 1
|   |   |   lbl4 = 0
|   |   |   |   lbl1 = 0
|   |   |   |   |   lbl3 = 0
|   |   |   |   |   |   obj1 <= 920: 1 (1038.0/31.0)
|   |   |   |   |   |   obj1 > 920
|   |   |   |   |   |   |   obj1 <= 949
|   |   |   |   |   |   |   |   obj2 <= 695: 0 (11.0/1.0)
|   |   |   |   |   |   |   |   obj2 > 695: 1 (60.0/20.0)
|   |   |   |   |   |   |   obj1 > 949: 1 (67.0/2.0)
|   |   |   |   |   lbl3 = 1
|   |   |   |   |   |   obj1 <= 696: 1 (437.0/87.0)
|   |   |   |   |   |   obj1 > 696
|   |   |   |   |   |   |   obj1 <= 707
|   |   |   |   |   |   |   |   obj1 <= 703: 0 (47.0/7.0)
|   |   |   |   |   |   |   |   obj1 > 703
|   |   |   |   |   |   |   |   |   obj2 <= 753
|   |   |   |   |   |   |   |   |   |   obj2 <= 694: 1 (20.0/8.0)
|   |   |   |   |   |   |   |   |   |   obj2 > 694: 0 (30.0/4.0)
|   |   |   |   |   |   |   |   |   obj2 > 753: 1 (23.0/6.0)
|   |   |   |   |   |   |   obj1 > 707
|   |   |   |   |   |   |   |   obj1 <= 992
|   |   |   |   |   |   |   |   |   obj1 <= 860
|   |   |   |   |   |   |   |   |   |   obj2 <= 699: 1 (147.0/26.0)
|   |   |   |   |   |   |   |   |   |   obj2 > 699
|   |   |   |   |   |   |   |   |   |   |   obj2 <= 707: 0 (29.0/10.0)
|   |   |   |   |   |   |   |   |   |   |   obj2 > 707
|   |   |   |   |   |   |   |   |   |   |   |   obj1 <= 772: 1 (539.0/132.0)
|   |   |   |   |   |   |   |   |   |   |   |   obj1 > 772
|   |   |   |   |   |   |   |   |   |   |   |   |   obj1 <= 792
|   |   |   |   |   |   |   |   |   |   |   |   |   |   obj2 <= 861: 0 (15.0/2.0)
|   |   |   |   |   |   |   |   |   |   |   |   |   |   obj2 > 861
|   |   |   |   |   |   |   |   |   |   |   |   |   |   |   obj1 <= 775: 0 (3.0/1.0)
|   |   |   |   |   |   |   |   |   |   |   |   |   |   |   obj1 > 775: 1 (2.0)
|   |   |   |   |   |   |   |   |   |   |   |   |   obj1 > 792
|   |   |   |   |   |   |   |   |   |   |   |   |   |   obj1 <= 804: 1 (60.0/14.0)
|   |   |   |   |   |   |   |   |   |   |   |   |   |   obj1 > 804
|   |   |   |   |   |   |   |   |   |   |   |   |   |   |   obj1 <= 811
|   |   |   |   |   |   |   |   |   |   |   |   |   |   |   |   obj1 <= 807
|   |   |   |   |   |   |   |   |   |   |   |   |   |   |   |   |   obj2 <= 744: 0 (2.0)
|   |   |   |   |   |   |   |   |   |   |   |   |   |   |   |   |   obj2 > 744: 1 (28.0/7.0)
|   |   |   |   |   |   |   |   |   |   |   |   |   |   |   |   obj1 > 807
|   |   |   |   |   |   |   |   |   |   |   |   |   |   |   |   |   obj2 <= 780
|   |   |   |   |   |   |   |   |   |   |   |   |   |   |   |   |   |   obj2 <= 757: 0 (2.0)
|   |   |   |   |   |   |   |   |   |   |   |   |   |   |   |   |   |   obj2 > 757: 1 (18.0/5.0)
|   |   |   |   |   |   |   |   |   |   |   |   |   |   |   |   |   obj2 > 780: 0 (52.0/20.0)
|   |   |   |   |   |   |   |   |   |   |   |   |   |   |   obj1 > 811: 1 (167.0/33.0)
|   |   |   |   |   |   |   |   |   obj1 > 860
|   |   |   |   |   |   |   |   |   |   obj1 <= 902
|   |   |   |   |   |   |   |   |   |   |   obj1 <= 899: 1 (106.0/40.0)
|   |   |   |   |   |   |   |   |   |   |   obj1 > 899
|   |   |   |   |   |   |   |   |   |   |   |   obj2 <= 741: 1 (12.0/1.0)
|   |   |   |   |   |   |   |   |   |   |   |   obj2 > 741: 0 (171.0/78.0)
|   |   |   |   |   |   |   |   |   |   obj1 > 902
|   |   |   |   |   |   |   |   |   |   |   obj1 <= 974: 1 (216.0/45.0)
|   |   |   |   |   |   |   |   |   |   |   obj1 > 974
|   |   |   |   |   |   |   |   |   |   |   |   obj2 <= 973: 0 (21.0/4.0)
|   |   |   |   |   |   |   |   |   |   |   |   obj2 > 973: 1 (2.0)
|   |   |   |   |   |   |   |   obj1 > 992
|   |   |   |   |   |   |   |   |   obj2 <= 892: 1 (94.0/8.0)
|   |   |   |   |   |   |   |   |   obj2 > 892
|   |   |   |   |   |   |   |   |   |   obj2 <= 947: 0 (5.0/1.0)
|   |   |   |   |   |   |   |   |   |   obj2 > 947: 1 (5.0)
|   |   |   |   lbl1 = 1: 1 (2063.0/79.0)
|   |   |   lbl4 = 1: 1 (912.0)

Number of Leaves  : 	255

Size of the tree : 	509


meka.classifiers.multilabel.CC: Node #8

J48 pruned tree
------------------

lbl2 = 0
|   lbl4 = 0: 0 (47712.0/1195.0)
|   lbl4 = 1
|   |   lbl0 = 0
|   |   |   lbl5 = 0: 0 (39.0)
|   |   |   lbl5 = 1
|   |   |   |   lbl1 = 0: 1 (36.0)
|   |   |   |   lbl1 = 1
|   |   |   |   |   lbl3 = 0
|   |   |   |   |   |   obj1 <= 737
|   |   |   |   |   |   |   obj1 <= 656: 0 (86.0/32.0)
|   |   |   |   |   |   |   obj1 > 656: 1 (115.0/32.0)
|   |   |   |   |   |   obj1 > 737
|   |   |   |   |   |   |   obj1 <= 769
|   |   |   |   |   |   |   |   obj2 <= 826
|   |   |   |   |   |   |   |   |   obj2 <= 804: 0 (169.0/54.0)
|   |   |   |   |   |   |   |   |   obj2 > 804: 1 (45.0/16.0)
|   |   |   |   |   |   |   |   obj2 > 826: 0 (181.0/47.0)
|   |   |   |   |   |   |   obj1 > 769
|   |   |   |   |   |   |   |   obj1 <= 807
|   |   |   |   |   |   |   |   |   obj1 <= 804
|   |   |   |   |   |   |   |   |   |   obj1 <= 799
|   |   |   |   |   |   |   |   |   |   |   obj1 <= 790
|   |   |   |   |   |   |   |   |   |   |   |   obj2 <= 765: 1 (5.0/1.0)
|   |   |   |   |   |   |   |   |   |   |   |   obj2 > 765: 0 (5.0/1.0)
|   |   |   |   |   |   |   |   |   |   |   obj1 > 790: 1 (12.0/1.0)
|   |   |   |   |   |   |   |   |   |   obj1 > 799: 0 (28.0/8.0)
|   |   |   |   |   |   |   |   |   obj1 > 804: 1 (42.0/3.0)
|   |   |   |   |   |   |   |   obj1 > 807
|   |   |   |   |   |   |   |   |   obj1 <= 903: 0 (120.0/28.0)
|   |   |   |   |   |   |   |   |   obj1 > 903
|   |   |   |   |   |   |   |   |   |   obj1 <= 954: 1 (61.0/15.0)
|   |   |   |   |   |   |   |   |   |   obj1 > 954
|   |   |   |   |   |   |   |   |   |   |   obj2 <= 780: 0 (23.0/3.0)
|   |   |   |   |   |   |   |   |   |   |   obj2 > 780
|   |   |   |   |   |   |   |   |   |   |   |   obj1 <= 983
|   |   |   |   |   |   |   |   |   |   |   |   |   obj2 <= 808: 1 (3.0)
|   |   |   |   |   |   |   |   |   |   |   |   |   obj2 > 808
|   |   |   |   |   |   |   |   |   |   |   |   |   |   obj2 <= 949: 0 (7.0)
|   |   |   |   |   |   |   |   |   |   |   |   |   |   obj2 > 949: 1 (7.0/3.0)
|   |   |   |   |   |   |   |   |   |   |   |   obj1 > 983: 1 (3.0)
|   |   |   |   |   lbl3 = 1
|   |   |   |   |   |   obj2 <= 694
|   |   |   |   |   |   |   obj1 <= 691: 1 (10.0/2.0)
|   |   |   |   |   |   |   obj1 > 691
|   |   |   |   |   |   |   |   obj1 <= 744: 0 (10.0)
|   |   |   |   |   |   |   |   obj1 > 744
|   |   |   |   |   |   |   |   |   obj2 <= 674
|   |   |   |   |   |   |   |   |   |   obj1 <= 870: 0 (10.0/1.0)
|   |   |   |   |   |   |   |   |   |   obj1 > 870: 1 (3.0/1.0)
|   |   |   |   |   |   |   |   |   obj2 > 674: 1 (3.0)
|   |   |   |   |   |   obj2 > 694: 0 (163.0/9.0)
|   |   lbl0 = 1: 0 (154.0)
lbl2 = 1
|   lbl5 = 0
|   |   lbl4 = 0: 0 (4019.0/183.0)
|   |   lbl4 = 1
|   |   |   lbl3 = 0: 1 (302.0/20.0)
|   |   |   lbl3 = 1: 0 (96.0/39.0)
|   lbl5 = 1
|   |   lbl4 = 0
|   |   |   lbl1 = 0
|   |   |   |   lbl3 = 0
|   |   |   |   |   lbl6 = 0
|   |   |   |   |   |   lbl0 = 0: 1 (90.0/12.0)
|   |   |   |   |   |   lbl0 = 1: 0 (63.0)
|   |   |   |   |   lbl6 = 1: 0 (2726.0/231.0)
|   |   |   |   lbl3 = 1
|   |   |   |   |   obj2 <= 753
|   |   |   |   |   |   obj2 <= 374
|   |   |   |   |   |   |   obj2 <= 362: 0 (362.0/67.0)
|   |   |   |   |   |   |   obj2 > 362
|   |   |   |   |   |   |   |   obj1 <= 426: 1 (28.0/4.0)
|   |   |   |   |   |   |   |   obj1 > 426: 0 (23.0/10.0)
|   |   |   |   |   |   obj2 > 374: 0 (1560.0/281.0)
|   |   |   |   |   obj2 > 753: 0 (3319.0/465.0)
|   |   |   lbl1 = 1
|   |   |   |   lbl0 = 0
|   |   |   |   |   lbl3 = 0: 0 (8194.0/2990.0)
|   |   |   |   |   lbl3 = 1
|   |   |   |   |   |   obj1 <= 995
|   |   |   |   |   |   |   obj1 <= 735
|   |   |   |   |   |   |   |   obj2 <= 320
|   |   |   |   |   |   |   |   |   obj2 <= 264: 0 (54.0/15.0)
|   |   |   |   |   |   |   |   |   obj2 > 264: 1 (314.0/125.0)
|   |   |   |   |   |   |   |   obj2 > 320: 0 (1953.0/874.0)
|   |   |   |   |   |   |   obj1 > 735
|   |   |   |   |   |   |   |   obj1 <= 809: 1 (4173.0/1818.0)
|   |   |   |   |   |   |   |   obj1 > 809
|   |   |   |   |   |   |   |   |   obj1 <= 947
|   |   |   |   |   |   |   |   |   |   obj1 <= 811: 0 (140.0/47.0)
|   |   |   |   |   |   |   |   |   |   obj1 > 811
|   |   |   |   |   |   |   |   |   |   |   obj1 <= 884
|   |   |   |   |   |   |   |   |   |   |   |   obj1 <= 828
|   |   |   |   |   |   |   |   |   |   |   |   |   obj1 <= 812: 1 (46.0/14.0)
|   |   |   |   |   |   |   |   |   |   |   |   |   obj1 > 812: 0 (457.0/205.0)
|   |   |   |   |   |   |   |   |   |   |   |   obj1 > 828: 1 (497.0/214.0)
|   |   |   |   |   |   |   |   |   |   |   obj1 > 884: 0 (486.0/208.0)
|   |   |   |   |   |   |   |   |   obj1 > 947
|   |   |   |   |   |   |   |   |   |   obj1 <= 991: 1 (852.0/353.0)
|   |   |   |   |   |   |   |   |   |   obj1 > 991: 0 (142.0/59.0)
|   |   |   |   |   |   obj1 > 995: 1 (225.0/60.0)
|   |   |   |   lbl0 = 1
|   |   |   |   |   lbl3 = 0: 0 (1133.0/184.0)
|   |   |   |   |   lbl3 = 1
|   |   |   |   |   |   obj1 <= 988: 0 (895.0/242.0)
|   |   |   |   |   |   obj1 > 988
|   |   |   |   |   |   |   obj1 <= 996: 0 (17.0/7.0)
|   |   |   |   |   |   |   obj1 > 996: 1 (18.0/3.0)
|   |   lbl4 = 1
|   |   |   obj1 <= 672
|   |   |   |   obj1 <= 600
|   |   |   |   |   lbl1 = 0
|   |   |   |   |   |   obj1 <= 583
|   |   |   |   |   |   |   obj2 <= 779: 1 (203.0/48.0)
|   |   |   |   |   |   |   obj2 > 779
|   |   |   |   |   |   |   |   lbl0 = 0
|   |   |   |   |   |   |   |   |   lbl3 = 0: 0 (33.0/9.0)
|   |   |   |   |   |   |   |   |   lbl3 = 1: 1 (16.0/6.0)
|   |   |   |   |   |   |   |   lbl0 = 1: 1 (12.0/2.0)
|   |   |   |   |   |   obj1 > 583
|   |   |   |   |   |   |   lbl3 = 0: 0 (43.0/6.0)
|   |   |   |   |   |   |   lbl3 = 1: 1 (13.0/3.0)
|   |   |   |   |   lbl1 = 1
|   |   |   |   |   |   lbl0 = 0: 1 (3438.0/885.0)
|   |   |   |   |   |   lbl0 = 1
|   |   |   |   |   |   |   lbl3 = 0
|   |   |   |   |   |   |   |   obj2 <= 620: 1 (2.0)
|   |   |   |   |   |   |   |   obj2 > 620: 0 (8.0/1.0)
|   |   |   |   |   |   |   lbl3 = 1: 1 (24.0/11.0)
|   |   |   |   obj1 > 600
|   |   |   |   |   obj1 <= 613
|   |   |   |   |   |   lbl3 = 0
|   |   |   |   |   |   |   obj2 <= 616: 0 (342.0/43.0)
|   |   |   |   |   |   |   obj2 > 616
|   |   |   |   |   |   |   |   lbl1 = 0: 1 (2.0)
|   |   |   |   |   |   |   |   lbl1 = 1
|   |   |   |   |   |   |   |   |   obj2 <= 835: 0 (99.0/39.0)
|   |   |   |   |   |   |   |   |   obj2 > 835: 1 (11.0/2.0)
|   |   |   |   |   |   lbl3 = 1: 1 (113.0/28.0)
|   |   |   |   |   obj1 > 613
|   |   |   |   |   |   lbl0 = 0
|   |   |   |   |   |   |   lbl3 = 0
|   |   |   |   |   |   |   |   obj1 <= 669
|   |   |   |   |   |   |   |   |   lbl1 = 0: 0 (18.0/5.0)
|   |   |   |   |   |   |   |   |   lbl1 = 1: 1 (601.0/205.0)
|   |   |   |   |   |   |   |   obj1 > 669: 0 (670.0/291.0)
|   |   |   |   |   |   |   lbl3 = 1: 1 (706.0/238.0)
|   |   |   |   |   |   lbl0 = 1
|   |   |   |   |   |   |   lbl1 = 0
|   |   |   |   |   |   |   |   lbl3 = 0: 1 (2.0)
|   |   |   |   |   |   |   |   lbl3 = 1: 0 (2.0)
|   |   |   |   |   |   |   lbl1 = 1
|   |   |   |   |   |   |   |   obj2 <= 800: 0 (17.0)
|   |   |   |   |   |   |   |   obj2 > 800
|   |   |   |   |   |   |   |   |   obj1 <= 663: 0 (3.0)
|   |   |   |   |   |   |   |   |   obj1 > 663: 1 (2.0)
|   |   |   obj1 > 672
|   |   |   |   obj1 <= 754: 1 (28447.0/7887.0)
|   |   |   |   obj1 > 754
|   |   |   |   |   lbl1 = 0
|   |   |   |   |   |   lbl3 = 0
|   |   |   |   |   |   |   lbl0 = 0
|   |   |   |   |   |   |   |   obj1 <= 942
|   |   |   |   |   |   |   |   |   obj1 <= 803: 1 (120.0/50.0)
|   |   |   |   |   |   |   |   |   obj1 > 803
|   |   |   |   |   |   |   |   |   |   obj1 <= 805: 0 (77.0/1.0)
|   |   |   |   |   |   |   |   |   |   obj1 > 805
|   |   |   |   |   |   |   |   |   |   |   obj1 <= 819: 1 (91.0/31.0)
|   |   |   |   |   |   |   |   |   |   |   obj1 > 819
|   |   |   |   |   |   |   |   |   |   |   |   obj1 <= 902
|   |   |   |   |   |   |   |   |   |   |   |   |   obj1 <= 899: 0 (181.0/70.0)
|   |   |   |   |   |   |   |   |   |   |   |   |   obj1 > 899: 1 (24.0/5.0)
|   |   |   |   |   |   |   |   |   |   |   |   obj1 > 902: 0 (38.0/6.0)
|   |   |   |   |   |   |   |   obj1 > 942
|   |   |   |   |   |   |   |   |   obj1 <= 991
|   |   |   |   |   |   |   |   |   |   obj1 <= 987
|   |   |   |   |   |   |   |   |   |   |   obj1 <= 954
|   |   |   |   |   |   |   |   |   |   |   |   obj1 <= 950
|   |   |   |   |   |   |   |   |   |   |   |   |   obj1 <= 947: 1 (22.0/8.0)
|   |   |   |   |   |   |   |   |   |   |   |   |   obj1 > 947
|   |   |   |   |   |   |   |   |   |   |   |   |   |   obj2 <= 802: 1 (19.0/5.0)
|   |   |   |   |   |   |   |   |   |   |   |   |   |   obj2 > 802: 0 (16.0/5.0)
|   |   |   |   |   |   |   |   |   |   |   |   obj1 > 950: 1 (96.0/29.0)
|   |   |   |   |   |   |   |   |   |   |   obj1 > 954
|   |   |   |   |   |   |   |   |   |   |   |   obj1 <= 977
|   |   |   |   |   |   |   |   |   |   |   |   |   obj2 <= 882
|   |   |   |   |   |   |   |   |   |   |   |   |   |   obj2 <= 802: 1 (28.0/12.0)
|   |   |   |   |   |   |   |   |   |   |   |   |   |   obj2 > 802: 0 (15.0/1.0)
|   |   |   |   |   |   |   |   |   |   |   |   |   obj2 > 882: 1 (24.0/7.0)
|   |   |   |   |   |   |   |   |   |   |   |   obj1 > 977: 0 (4.0)
|   |   |   |   |   |   |   |   |   |   obj1 > 987: 1 (17.0/2.0)
|   |   |   |   |   |   |   |   |   obj1 > 991: 0 (34.0/12.0)
|   |   |   |   |   |   |   lbl0 = 1: 1 (75.0)
|   |   |   |   |   |   lbl3 = 1: 1 (439.0/70.0)
|   |   |   |   |   lbl1 = 1
|   |   |   |   |   |   lbl0 = 0
|   |   |   |   |   |   |   lbl3 = 0
|   |   |   |   |   |   |   |   obj1 <= 990
|   |   |   |   |   |   |   |   |   obj1 <= 884
|   |   |   |   |   |   |   |   |   |   obj1 <= 829: 1 (4650.0/1463.0)
|   |   |   |   |   |   |   |   |   |   obj1 > 829
|   |   |   |   |   |   |   |   |   |   |   obj1 <= 831: 1 (391.0/77.0)
|   |   |   |   |   |   |   |   |   |   |   obj1 > 831
|   |   |   |   |   |   |   |   |   |   |   |   obj1 <= 838
|   |   |   |   |   |   |   |   |   |   |   |   |   obj1 <= 836
|   |   |   |   |   |   |   |   |   |   |   |   |   |   obj1 <= 834
|   |   |   |   |   |   |   |   |   |   |   |   |   |   |   obj2 <= 628: 1 (4.0/1.0)
|   |   |   |   |   |   |   |   |   |   |   |   |   |   |   obj2 > 628: 0 (4.0)
|   |   |   |   |   |   |   |   |   |   |   |   |   |   obj1 > 834: 1 (26.0/3.0)
|   |   |   |   |   |   |   |   |   |   |   |   |   obj1 > 836: 0 (79.0/29.0)
|   |   |   |   |   |   |   |   |   |   |   |   obj1 > 838: 1 (2074.0/536.0)
|   |   |   |   |   |   |   |   |   obj1 > 884
|   |   |   |   |   |   |   |   |   |   obj1 <= 888: 0 (195.0/78.0)
|   |   |   |   |   |   |   |   |   |   obj1 > 888: 1 (3334.0/837.0)
|   |   |   |   |   |   |   |   obj1 > 990
|   |   |   |   |   |   |   |   |   obj1 <= 994
|   |   |   |   |   |   |   |   |   |   obj2 <= 757: 1 (132.0/59.0)
|   |   |   |   |   |   |   |   |   |   obj2 > 757
|   |   |   |   |   |   |   |   |   |   |   obj1 <= 992
|   |   |   |   |   |   |   |   |   |   |   |   obj2 <= 793: 0 (7.0/1.0)
|   |   |   |   |   |   |   |   |   |   |   |   obj2 > 793: 1 (36.0/14.0)
|   |   |   |   |   |   |   |   |   |   |   obj1 > 992: 0 (242.0/85.0)
|   |   |   |   |   |   |   |   |   obj1 > 994
|   |   |   |   |   |   |   |   |   |   obj2 <= 812: 1 (504.0/141.0)
|   |   |   |   |   |   |   |   |   |   obj2 > 812
|   |   |   |   |   |   |   |   |   |   |   obj2 <= 984: 1 (45.0/13.0)
|   |   |   |   |   |   |   |   |   |   |   obj2 > 984: 0 (12.0/2.0)
|   |   |   |   |   |   |   lbl3 = 1
|   |   |   |   |   |   |   |   obj1 <= 876: 1 (4620.0/1601.0)
|   |   |   |   |   |   |   |   obj1 > 876
|   |   |   |   |   |   |   |   |   obj1 <= 890
|   |   |   |   |   |   |   |   |   |   obj1 <= 884
|   |   |   |   |   |   |   |   |   |   |   obj1 <= 879
|   |   |   |   |   |   |   |   |   |   |   |   obj2 <= 657: 1 (7.0/1.0)
|   |   |   |   |   |   |   |   |   |   |   |   obj2 > 657: 0 (28.0/9.0)
|   |   |   |   |   |   |   |   |   |   |   obj1 > 879: 1 (46.0/16.0)
|   |   |   |   |   |   |   |   |   |   obj1 > 884: 0 (146.0/62.0)
|   |   |   |   |   |   |   |   |   obj1 > 890: 1 (3195.0/948.0)
|   |   |   |   |   |   lbl0 = 1: 0 (145.0/57.0)

Number of Leaves  : 	121

Size of the tree : 	241


meka.classifiers.multilabel.CC: Node #9

J48 pruned tree
------------------

lbl4 = 0
|   lbl7 = 0
|   |   lbl5 = 0
|   |   |   lbl1 = 0
|   |   |   |   lbl0 = 0
|   |   |   |   |   obj1 <= 934: 1 (13079.0/725.0)
|   |   |   |   |   obj1 > 934
|   |   |   |   |   |   obj1 <= 947
|   |   |   |   |   |   |   obj1 <= 946: 1 (58.0/6.0)
|   |   |   |   |   |   |   obj1 > 946
|   |   |   |   |   |   |   |   lbl6 = 0
|   |   |   |   |   |   |   |   |   lbl3 = 0
|   |   |   |   |   |   |   |   |   |   obj2 <= 767: 0 (16.0/5.0)
|   |   |   |   |   |   |   |   |   |   obj2 > 767: 1 (80.0/23.0)
|   |   |   |   |   |   |   |   |   lbl3 = 1: 1 (235.0/81.0)
|   |   |   |   |   |   |   |   lbl6 = 1
|   |   |   |   |   |   |   |   |   lbl3 = 0: 0 (64.0/24.0)
|   |   |   |   |   |   |   |   |   lbl3 = 1: 1 (27.0/5.0)
|   |   |   |   |   |   obj1 > 947
|   |   |   |   |   |   |   obj1 <= 992
|   |   |   |   |   |   |   |   obj1 <= 984: 1 (1282.0/58.0)
|   |   |   |   |   |   |   |   obj1 > 984
|   |   |   |   |   |   |   |   |   lbl6 = 0
|   |   |   |   |   |   |   |   |   |   obj1 <= 991: 1 (26.0/1.0)
|   |   |   |   |   |   |   |   |   |   obj1 > 991: 0 (3.0/1.0)
|   |   |   |   |   |   |   |   |   lbl6 = 1
|   |   |   |   |   |   |   |   |   |   lbl3 = 0: 1 (8.0/2.0)
|   |   |   |   |   |   |   |   |   |   lbl3 = 1: 0 (23.0)
|   |   |   |   |   |   |   obj1 > 992: 1 (546.0/12.0)
|   |   |   |   lbl0 = 1: 1 (16236.0/238.0)
|   |   |   lbl1 = 1
|   |   |   |   lbl6 = 0: 1 (1669.0/83.0)
|   |   |   |   lbl6 = 1
|   |   |   |   |   lbl0 = 0
|   |   |   |   |   |   lbl2 = 0
|   |   |   |   |   |   |   lbl3 = 0
|   |   |   |   |   |   |   |   obj1 <= 772
|   |   |   |   |   |   |   |   |   obj1 <= 694
|   |   |   |   |   |   |   |   |   |   obj1 <= 299: 1 (3.0)
|   |   |   |   |   |   |   |   |   |   obj1 > 299: 0 (32.0/11.0)
|   |   |   |   |   |   |   |   |   obj1 > 694: 1 (125.0/43.0)
|   |   |   |   |   |   |   |   obj1 > 772
|   |   |   |   |   |   |   |   |   obj1 <= 838: 0 (47.0/9.0)
|   |   |   |   |   |   |   |   |   obj1 > 838: 1 (37.0/5.0)
|   |   |   |   |   |   |   lbl3 = 1: 1 (433.0)
|   |   |   |   |   |   lbl2 = 1
|   |   |   |   |   |   |   lbl3 = 0: 1 (229.0/31.0)
|   |   |   |   |   |   |   lbl3 = 1: 0 (159.0/54.0)
|   |   |   |   |   lbl0 = 1
|   |   |   |   |   |   lbl2 = 0: 1 (314.0)
|   |   |   |   |   |   lbl2 = 1
|   |   |   |   |   |   |   lbl3 = 0
|   |   |   |   |   |   |   |   obj1 <= 986: 1 (456.0/64.0)
|   |   |   |   |   |   |   |   obj1 > 986: 0 (26.0/10.0)
|   |   |   |   |   |   |   lbl3 = 1: 1 (84.0)
|   |   lbl5 = 1
|   |   |   lbl0 = 0
|   |   |   |   lbl6 = 0
|   |   |   |   |   obj1 <= 992
|   |   |   |   |   |   lbl3 = 0
|   |   |   |   |   |   |   lbl1 = 0: 1 (1444.0/50.0)
|   |   |   |   |   |   |   lbl1 = 1: 0 (50.0/22.0)
|   |   |   |   |   |   lbl3 = 1
|   |   |   |   |   |   |   lbl1 = 0
|   |   |   |   |   |   |   |   obj2 <= 812
|   |   |   |   |   |   |   |   |   obj2 <= 771
|   |   |   |   |   |   |   |   |   |   obj1 <= 950: 1 (624.0/228.0)
|   |   |   |   |   |   |   |   |   |   obj1 > 950
|   |   |   |   |   |   |   |   |   |   |   obj1 <= 978: 1 (33.0/1.0)
|   |   |   |   |   |   |   |   |   |   |   obj1 > 978: 0 (5.0/1.0)
|   |   |   |   |   |   |   |   |   obj2 > 771
|   |   |   |   |   |   |   |   |   |   obj2 <= 809
|   |   |   |   |   |   |   |   |   |   |   obj2 <= 805
|   |   |   |   |   |   |   |   |   |   |   |   obj2 <= 795
|   |   |   |   |   |   |   |   |   |   |   |   |   obj2 <= 778
|   |   |   |   |   |   |   |   |   |   |   |   |   |   obj2 <= 775
|   |   |   |   |   |   |   |   |   |   |   |   |   |   |   obj2 <= 773: 0 (2.0)
|   |   |   |   |   |   |   |   |   |   |   |   |   |   |   obj2 > 773
|   |   |   |   |   |   |   |   |   |   |   |   |   |   |   |   obj1 <= 749: 0 (2.0)
|   |   |   |   |   |   |   |   |   |   |   |   |   |   |   |   obj1 > 749: 1 (5.0/1.0)
|   |   |   |   |   |   |   |   |   |   |   |   |   |   obj2 > 775: 0 (8.0/1.0)
|   |   |   |   |   |   |   |   |   |   |   |   |   obj2 > 778
|   |   |   |   |   |   |   |   |   |   |   |   |   |   obj1 <= 963: 1 (15.0/3.0)
|   |   |   |   |   |   |   |   |   |   |   |   |   |   obj1 > 963: 0 (2.0)
|   |   |   |   |   |   |   |   |   |   |   |   obj2 > 795: 0 (26.0/4.0)
|   |   |   |   |   |   |   |   |   |   |   obj2 > 805: 1 (40.0/12.0)
|   |   |   |   |   |   |   |   |   |   obj2 > 809: 0 (20.0/2.0)
|   |   |   |   |   |   |   |   obj2 > 812
|   |   |   |   |   |   |   |   |   obj2 <= 881: 1 (158.0/27.0)
|   |   |   |   |   |   |   |   |   obj2 > 881
|   |   |   |   |   |   |   |   |   |   obj1 <= 771
|   |   |   |   |   |   |   |   |   |   |   obj1 <= 700
|   |   |   |   |   |   |   |   |   |   |   |   obj2 <= 981
|   |   |   |   |   |   |   |   |   |   |   |   |   obj2 <= 891: 0 (4.0)
|   |   |   |   |   |   |   |   |   |   |   |   |   obj2 > 891: 1 (23.0/7.0)
|   |   |   |   |   |   |   |   |   |   |   |   obj2 > 981: 0 (7.0)
|   |   |   |   |   |   |   |   |   |   |   obj1 > 700: 1 (129.0/25.0)
|   |   |   |   |   |   |   |   |   |   obj1 > 771
|   |   |   |   |   |   |   |   |   |   |   obj1 <= 950
|   |   |   |   |   |   |   |   |   |   |   |   obj2 <= 994: 0 (126.0/58.0)
|   |   |   |   |   |   |   |   |   |   |   |   obj2 > 994: 1 (10.0/1.0)
|   |   |   |   |   |   |   |   |   |   |   obj1 > 950: 1 (24.0/3.0)
|   |   |   |   |   |   |   lbl1 = 1: 1 (162.0)
|   |   |   |   |   obj1 > 992
|   |   |   |   |   |   lbl1 = 0
|   |   |   |   |   |   |   obj1 <= 993
|   |   |   |   |   |   |   |   lbl2 = 0: 0 (133.0/25.0)
|   |   |   |   |   |   |   |   lbl2 = 1: 1 (2.0)
|   |   |   |   |   |   |   obj1 > 993: 1 (19.0/1.0)
|   |   |   |   |   |   lbl1 = 1: 1 (22.0/1.0)
|   |   |   |   lbl6 = 1
|   |   |   |   |   lbl1 = 0
|   |   |   |   |   |   lbl2 = 0
|   |   |   |   |   |   |   lbl3 = 0
|   |   |   |   |   |   |   |   obj1 <= 803: 1 (945.0/46.0)
|   |   |   |   |   |   |   |   obj1 > 803
|   |   |   |   |   |   |   |   |   obj1 <= 811
|   |   |   |   |   |   |   |   |   |   obj1 <= 810
|   |   |   |   |   |   |   |   |   |   |   obj1 <= 805: 0 (3.0)
|   |   |   |   |   |   |   |   |   |   |   obj1 > 805: 1 (42.0/2.0)
|   |   |   |   |   |   |   |   |   |   obj1 > 810: 0 (12.0/3.0)
|   |   |   |   |   |   |   |   |   obj1 > 811: 1 (428.0/35.0)
|   |   |   |   |   |   |   lbl3 = 1
|   |   |   |   |   |   |   |   obj1 <= 757: 1 (1243.0/255.0)
|   |   |   |   |   |   |   |   obj1 > 757
|   |   |   |   |   |   |   |   |   obj2 <= 695
|   |   |   |   |   |   |   |   |   |   obj1 <= 827
|   |   |   |   |   |   |   |   |   |   |   obj2 <= 336: 1 (7.0/1.0)
|   |   |   |   |   |   |   |   |   |   |   obj2 > 336: 0 (49.0/16.0)
|   |   |   |   |   |   |   |   |   |   obj1 > 827: 1 (61.0/21.0)
|   |   |   |   |   |   |   |   |   obj2 > 695
|   |   |   |   |   |   |   |   |   |   obj1 <= 977: 1 (858.0/198.0)
|   |   |   |   |   |   |   |   |   |   obj1 > 977
|   |   |   |   |   |   |   |   |   |   |   obj2 <= 868
|   |   |   |   |   |   |   |   |   |   |   |   obj1 <= 992: 0 (5.0/1.0)
|   |   |   |   |   |   |   |   |   |   |   |   obj1 > 992: 1 (67.0/11.0)
|   |   |   |   |   |   |   |   |   |   |   obj2 > 868
|   |   |   |   |   |   |   |   |   |   |   |   obj1 <= 992: 1 (7.0/1.0)
|   |   |   |   |   |   |   |   |   |   |   |   obj1 > 992: 0 (24.0/7.0)
|   |   |   |   |   |   lbl2 = 1
|   |   |   |   |   |   |   lbl3 = 0
|   |   |   |   |   |   |   |   obj1 <= 732
|   |   |   |   |   |   |   |   |   obj1 <= 695
|   |   |   |   |   |   |   |   |   |   obj1 <= 674
|   |   |   |   |   |   |   |   |   |   |   obj1 <= 586: 1 (105.0/27.0)
|   |   |   |   |   |   |   |   |   |   |   obj1 > 586: 0 (68.0/18.0)
|   |   |   |   |   |   |   |   |   |   obj1 > 674
|   |   |   |   |   |   |   |   |   |   |   obj1 <= 694: 1 (157.0/37.0)
|   |   |   |   |   |   |   |   |   |   |   obj1 > 694: 0 (14.0/3.0)
|   |   |   |   |   |   |   |   |   obj1 > 695: 1 (121.0/15.0)
|   |   |   |   |   |   |   |   obj1 > 732: 1 (1082.0/462.0)
|   |   |   |   |   |   |   lbl3 = 1
|   |   |   |   |   |   |   |   obj1 <= 756
|   |   |   |   |   |   |   |   |   obj1 <= 674
|   |   |   |   |   |   |   |   |   |   obj1 <= 666
|   |   |   |   |   |   |   |   |   |   |   obj2 <= 945: 1 (219.0/97.0)
|   |   |   |   |   |   |   |   |   |   |   obj2 > 945: 0 (15.0/2.0)
|   |   |   |   |   |   |   |   |   |   obj1 > 666: 0 (35.0/1.0)
|   |   |   |   |   |   |   |   |   obj1 > 674: 1 (1161.0/476.0)
|   |   |   |   |   |   |   |   obj1 > 756
|   |   |   |   |   |   |   |   |   obj2 <= 772
|   |   |   |   |   |   |   |   |   |   obj2 <= 704
|   |   |   |   |   |   |   |   |   |   |   obj1 <= 816: 1 (57.0/25.0)
|   |   |   |   |   |   |   |   |   |   |   obj1 > 816
|   |   |   |   |   |   |   |   |   |   |   |   obj2 <= 290: 1 (5.0)
|   |   |   |   |   |   |   |   |   |   |   |   obj2 > 290: 0 (74.0/19.0)
|   |   |   |   |   |   |   |   |   |   obj2 > 704: 1 (332.0/142.0)
|   |   |   |   |   |   |   |   |   obj2 > 772: 0 (534.0/217.0)
|   |   |   |   |   lbl1 = 1
|   |   |   |   |   |   lbl2 = 0
|   |   |   |   |   |   |   obj1 <= 952
|   |   |   |   |   |   |   |   obj1 <= 947: 0 (1540.0/281.0)
|   |   |   |   |   |   |   |   obj1 > 947: 1 (90.0/13.0)
|   |   |   |   |   |   |   obj1 > 952: 0 (277.0/26.0)
|   |   |   |   |   |   lbl2 = 1
|   |   |   |   |   |   |   lbl3 = 0: 1 (5204.0/1515.0)
|   |   |   |   |   |   |   lbl3 = 1
|   |   |   |   |   |   |   |   obj1 <= 771: 1 (2740.0/1314.0)
|   |   |   |   |   |   |   |   obj1 > 771: 0 (1668.0/758.0)
|   |   |   lbl0 = 1
|   |   |   |   obj1 <= 974
|   |   |   |   |   lbl1 = 0
|   |   |   |   |   |   lbl6 = 0
|   |   |   |   |   |   |   lbl2 = 0: 1 (3440.0/197.0)
|   |   |   |   |   |   |   lbl2 = 1
|   |   |   |   |   |   |   |   obj1 <= 579
|   |   |   |   |   |   |   |   |   lbl3 = 0: 1 (6.0)
|   |   |   |   |   |   |   |   |   lbl3 = 1
|   |   |   |   |   |   |   |   |   |   obj2 <= 699: 0 (20.0/4.0)
|   |   |   |   |   |   |   |   |   |   obj2 > 699: 1 (19.0/7.0)
|   |   |   |   |   |   |   |   obj1 > 579
|   |   |   |   |   |   |   |   |   obj1 <= 809
|   |   |   |   |   |   |   |   |   |   obj1 <= 699
|   |   |   |   |   |   |   |   |   |   |   obj1 <= 696: 1 (58.0/10.0)
|   |   |   |   |   |   |   |   |   |   |   obj1 > 696: 0 (4.0)
|   |   |   |   |   |   |   |   |   |   obj1 > 699: 1 (298.0/13.0)
|   |   |   |   |   |   |   |   |   obj1 > 809
|   |   |   |   |   |   |   |   |   |   obj1 <= 812: 0 (40.0)
|   |   |   |   |   |   |   |   |   |   obj1 > 812
|   |   |   |   |   |   |   |   |   |   |   obj1 <= 891
|   |   |   |   |   |   |   |   |   |   |   |   obj1 <= 882
|   |   |   |   |   |   |   |   |   |   |   |   |   obj2 <= 602
|   |   |   |   |   |   |   |   |   |   |   |   |   |   obj2 <= 288: 1 (2.0)
|   |   |   |   |   |   |   |   |   |   |   |   |   |   obj2 > 288: 0 (2.0)
|   |   |   |   |   |   |   |   |   |   |   |   |   obj2 > 602: 1 (50.0/1.0)
|   |   |   |   |   |   |   |   |   |   |   |   obj1 > 882: 0 (22.0/7.0)
|   |   |   |   |   |   |   |   |   |   |   obj1 > 891: 1 (173.0/9.0)
|   |   |   |   |   |   lbl6 = 1: 1 (3254.0/608.0)
|   |   |   |   |   lbl1 = 1
|   |   |   |   |   |   lbl2 = 0
|   |   |   |   |   |   |   lbl6 = 0
|   |   |   |   |   |   |   |   obj1 <= 884
|   |   |   |   |   |   |   |   |   lbl3 = 0
|   |   |   |   |   |   |   |   |   |   obj1 <= 690: 0 (57.0/17.0)
|   |   |   |   |   |   |   |   |   |   obj1 > 690
|   |   |   |   |   |   |   |   |   |   |   obj1 <= 703: 1 (64.0/12.0)
|   |   |   |   |   |   |   |   |   |   |   obj1 > 703: 0 (105.0/45.0)
|   |   |   |   |   |   |   |   |   lbl3 = 1
|   |   |   |   |   |   |   |   |   |   obj1 <= 771
|   |   |   |   |   |   |   |   |   |   |   obj1 <= 695: 0 (66.0/30.0)
|   |   |   |   |   |   |   |   |   |   |   obj1 > 695: 1 (57.0/16.0)
|   |   |   |   |   |   |   |   |   |   obj1 > 771
|   |   |   |   |   |   |   |   |   |   |   obj1 <= 867
|   |   |   |   |   |   |   |   |   |   |   |   obj1 <= 811
|   |   |   |   |   |   |   |   |   |   |   |   |   obj1 <= 808
|   |   |   |   |   |   |   |   |   |   |   |   |   |   obj1 <= 804
|   |   |   |   |   |   |   |   |   |   |   |   |   |   |   obj1 <= 790
|   |   |   |   |   |   |   |   |   |   |   |   |   |   |   |   obj1 <= 781: 0 (9.0/1.0)
|   |   |   |   |   |   |   |   |   |   |   |   |   |   |   |   obj1 > 781: 1 (5.0)
|   |   |   |   |   |   |   |   |   |   |   |   |   |   |   obj1 > 790: 0 (16.0)
|   |   |   |   |   |   |   |   |   |   |   |   |   |   obj1 > 804: 1 (6.0)
|   |   |   |   |   |   |   |   |   |   |   |   |   obj1 > 808: 0 (12.0)
|   |   |   |   |   |   |   |   |   |   |   |   obj1 > 811: 1 (11.0/2.0)
|   |   |   |   |   |   |   |   |   |   |   obj1 > 867: 0 (7.0)
|   |   |   |   |   |   |   |   obj1 > 884
|   |   |   |   |   |   |   |   |   obj1 <= 889
|   |   |   |   |   |   |   |   |   |   lbl3 = 0: 1 (45.0/2.0)
|   |   |   |   |   |   |   |   |   |   lbl3 = 1: 0 (3.0)
|   |   |   |   |   |   |   |   |   obj1 > 889
|   |   |   |   |   |   |   |   |   |   lbl3 = 0
|   |   |   |   |   |   |   |   |   |   |   obj2 <= 937: 0 (27.0/12.0)
|   |   |   |   |   |   |   |   |   |   |   obj2 > 937: 1 (5.0)
|   |   |   |   |   |   |   |   |   |   lbl3 = 1: 1 (42.0/14.0)
|   |   |   |   |   |   |   lbl6 = 1: 1 (763.0/255.0)
|   |   |   |   |   |   lbl2 = 1: 1 (1567.0/47.0)
|   |   |   |   obj1 > 974
|   |   |   |   |   obj1 <= 991
|   |   |   |   |   |   lbl2 = 0
|   |   |   |   |   |   |   lbl1 = 0
|   |   |   |   |   |   |   |   lbl6 = 0: 1 (19.0/1.0)
|   |   |   |   |   |   |   |   lbl6 = 1
|   |   |   |   |   |   |   |   |   lbl3 = 0: 0 (3.0)
|   |   |   |   |   |   |   |   |   lbl3 = 1
|   |   |   |   |   |   |   |   |   |   obj1 <= 981: 1 (10.0/1.0)
|   |   |   |   |   |   |   |   |   |   obj1 > 981
|   |   |   |   |   |   |   |   |   |   |   obj1 <= 986: 0 (3.0)
|   |   |   |   |   |   |   |   |   |   |   obj1 > 986: 1 (5.0/1.0)
|   |   |   |   |   |   |   lbl1 = 1
|   |   |   |   |   |   |   |   obj1 <= 978
|   |   |   |   |   |   |   |   |   obj2 <= 761: 0 (2.0)
|   |   |   |   |   |   |   |   |   obj2 > 761: 1 (4.0/1.0)
|   |   |   |   |   |   |   |   obj1 > 978: 0 (6.0)
|   |   |   |   |   |   lbl2 = 1
|   |   |   |   |   |   |   lbl1 = 0
|   |   |   |   |   |   |   |   obj1 <= 977: 0 (20.0/2.0)
|   |   |   |   |   |   |   |   obj1 > 977: 1 (4.0)
|   |   |   |   |   |   |   lbl1 = 1: 1 (8.0)
|   |   |   |   |   obj1 > 991
|   |   |   |   |   |   lbl2 = 0
|   |   |   |   |   |   |   lbl3 = 0: 1 (231.0/75.0)
|   |   |   |   |   |   |   lbl3 = 1
|   |   |   |   |   |   |   |   lbl1 = 0
|   |   |   |   |   |   |   |   |   lbl6 = 0: 1 (93.0/2.0)
|   |   |   |   |   |   |   |   |   lbl6 = 1
|   |   |   |   |   |   |   |   |   |   obj2 <= 844: 1 (64.0/8.0)
|   |   |   |   |   |   |   |   |   |   obj2 > 844
|   |   |   |   |   |   |   |   |   |   |   obj1 <= 994
|   |   |   |   |   |   |   |   |   |   |   |   obj2 <= 892
|   |   |   |   |   |   |   |   |   |   |   |   |   obj2 <= 879: 1 (3.0/1.0)
|   |   |   |   |   |   |   |   |   |   |   |   |   obj2 > 879: 0 (10.0/3.0)
|   |   |   |   |   |   |   |   |   |   |   |   obj2 > 892: 1 (2.0)
|   |   |   |   |   |   |   |   |   |   |   obj1 > 994: 0 (2.0)
|   |   |   |   |   |   |   |   lbl1 = 1
|   |   |   |   |   |   |   |   |   lbl6 = 0: 0 (11.0)
|   |   |   |   |   |   |   |   |   lbl6 = 1: 1 (31.0/7.0)
|   |   |   |   |   |   lbl2 = 1: 1 (168.0/18.0)
|   lbl7 = 1
|   |   lbl1 = 0
|   |   |   lbl5 = 0
|   |   |   |   lbl3 = 0
|   |   |   |   |   lbl0 = 0: 0 (29.0)
|   |   |   |   |   lbl0 = 1: 1 (87.0)
|   |   |   |   lbl3 = 1: 1 (101.0)
|   |   |   lbl5 = 1
|   |   |   |   lbl6 = 0: 0 (78.0)
|   |   |   |   lbl6 = 1
|   |   |   |   |   lbl2 = 0
|   |   |   |   |   |   lbl3 = 0: 0 (150.0)
|   |   |   |   |   |   lbl3 = 1
|   |   |   |   |   |   |   obj2 <= 834
|   |   |   |   |   |   |   |   obj1 <= 836
|   |   |   |   |   |   |   |   |   obj1 <= 830
|   |   |   |   |   |   |   |   |   |   obj2 <= 830
|   |   |   |   |   |   |   |   |   |   |   obj2 <= 320
|   |   |   |   |   |   |   |   |   |   |   |   obj1 <= 383: 1 (3.0)
|   |   |   |   |   |   |   |   |   |   |   |   obj1 > 383
|   |   |   |   |   |   |   |   |   |   |   |   |   obj1 <= 753: 0 (18.0/1.0)
|   |   |   |   |   |   |   |   |   |   |   |   |   obj1 > 753: 1 (2.0)
|   |   |   |   |   |   |   |   |   |   |   obj2 > 320
|   |   |   |   |   |   |   |   |   |   |   |   obj1 <= 560
|   |   |   |   |   |   |   |   |   |   |   |   |   obj1 <= 351: 1 (20.0/7.0)
|   |   |   |   |   |   |   |   |   |   |   |   |   obj1 > 351: 0 (12.0)
|   |   |   |   |   |   |   |   |   |   |   |   obj1 > 560: 1 (159.0/47.0)
|   |   |   |   |   |   |   |   |   |   obj2 > 830: 0 (12.0/1.0)
|   |   |   |   |   |   |   |   |   obj1 > 830: 0 (17.0/1.0)
|   |   |   |   |   |   |   |   obj1 > 836: 1 (63.0/13.0)
|   |   |   |   |   |   |   obj2 > 834: 1 (136.0/17.0)
|   |   |   |   |   lbl2 = 1
|   |   |   |   |   |   lbl3 = 0: 1 (231.0/4.0)
|   |   |   |   |   |   lbl3 = 1
|   |   |   |   |   |   |   lbl0 = 0: 1 (607.0/200.0)
|   |   |   |   |   |   |   lbl0 = 1
|   |   |   |   |   |   |   |   obj1 <= 729: 0 (40.0/2.0)
|   |   |   |   |   |   |   |   obj1 > 729
|   |   |   |   |   |   |   |   |   obj1 <= 748
|   |   |   |   |   |   |   |   |   |   obj2 <= 780: 1 (8.0/1.0)
|   |   |   |   |   |   |   |   |   |   obj2 > 780: 0 (2.0)
|   |   |   |   |   |   |   |   |   obj1 > 748: 0 (190.0/40.0)
|   |   lbl1 = 1
|   |   |   lbl0 = 0
|   |   |   |   lbl2 = 0: 0 (444.0/20.0)
|   |   |   |   lbl2 = 1
|   |   |   |   |   lbl3 = 0
|   |   |   |   |   |   lbl5 = 0
|   |   |   |   |   |   |   obj1 <= 699: 1 (11.0/1.0)
|   |   |   |   |   |   |   obj1 > 699: 0 (61.0/25.0)
|   |   |   |   |   |   lbl5 = 1
|   |   |   |   |   |   |   obj1 <= 663
|   |   |   |   |   |   |   |   obj1 <= 605: 0 (169.0/66.0)
|   |   |   |   |   |   |   |   obj1 > 605: 1 (65.0/23.0)
|   |   |   |   |   |   |   obj1 > 663: 0 (2756.0/868.0)
|   |   |   |   |   lbl3 = 1
|   |   |   |   |   |   obj1 <= 997: 0 (4805.0/1048.0)
|   |   |   |   |   |   obj1 > 997
|   |   |   |   |   |   |   obj2 <= 747: 1 (24.0/8.0)
|   |   |   |   |   |   |   obj2 > 747: 0 (140.0/51.0)
|   |   |   lbl0 = 1
|   |   |   |   lbl2 = 0: 1 (15.0)
|   |   |   |   lbl2 = 1
|   |   |   |   |   lbl3 = 0: 1 (184.0/66.0)
|   |   |   |   |   lbl3 = 1: 0 (264.0/113.0)
lbl4 = 1
|   lbl0 = 0
|   |   lbl2 = 0
|   |   |   lbl7 = 0
|   |   |   |   lbl3 = 0
|   |   |   |   |   obj1 <= 822
|   |   |   |   |   |   obj2 <= 611: 0 (39.0/8.0)
|   |   |   |   |   |   obj2 > 611
|   |   |   |   |   |   |   obj2 <= 906
|   |   |   |   |   |   |   |   obj2 <= 879
|   |   |   |   |   |   |   |   |   obj2 <= 622: 1 (13.0)
|   |   |   |   |   |   |   |   |   obj2 > 622
|   |   |   |   |   |   |   |   |   |   obj2 <= 841
|   |   |   |   |   |   |   |   |   |   |   obj2 <= 706: 0 (32.0/9.0)
|   |   |   |   |   |   |   |   |   |   |   obj2 > 706: 1 (153.0/71.0)
|   |   |   |   |   |   |   |   |   |   obj2 > 841: 0 (61.0/18.0)
|   |   |   |   |   |   |   |   obj2 > 879: 1 (25.0/2.0)
|   |   |   |   |   |   |   obj2 > 906: 0 (65.0/19.0)
|   |   |   |   |   obj1 > 822
|   |   |   |   |   |   obj1 <= 879: 0 (55.0/8.0)
|   |   |   |   |   |   obj1 > 879
|   |   |   |   |   |   |   obj1 <= 888: 1 (11.0)
|   |   |   |   |   |   |   obj1 > 888: 0 (63.0/17.0)
|   |   |   |   lbl3 = 1: 0 (215.0/40.0)
|   |   |   lbl7 = 1
|   |   |   |   lbl1 = 0: 0 (36.0)
|   |   |   |   lbl1 = 1: 1 (418.0/47.0)
|   |   lbl2 = 1
|   |   |   lbl1 = 0
|   |   |   |   lbl7 = 0: 0 (998.0/61.0)
|   |   |   |   lbl7 = 1
|   |   |   |   |   lbl3 = 0: 1 (931.0/285.0)
|   |   |   |   |   lbl3 = 1: 0 (952.0/366.0)
|   |   |   lbl1 = 1
|   |   |   |   obj1 <= 719
|   |   |   |   |   lbl3 = 0
|   |   |   |   |   |   lbl7 = 0
|   |   |   |   |   |   |   obj2 <= 617
|   |   |   |   |   |   |   |   obj2 <= 612
|   |   |   |   |   |   |   |   |   obj1 <= 710
|   |   |   |   |   |   |   |   |   |   lbl5 = 0: 1 (2.0)
|   |   |   |   |   |   |   |   |   |   lbl5 = 1
|   |   |   |   |   |   |   |   |   |   |   obj1 <= 294
|   |   |   |   |   |   |   |   |   |   |   |   obj1 <= 230: 0 (7.0/1.0)
