== Model info

Model                          
meka.classifiers.multilabel.CC: Node #1

J48 pruned tree
------------------

obj1 <= 862: 0 (105967.0/21595.0)
obj1 > 862
|   obj1 <= 950
|   |   obj2 <= 992
|   |   |   obj1 <= 884
|   |   |   |   obj3 <= 992: 0 (2885.0/768.0)
|   |   |   |   obj3 > 992
|   |   |   |   |   obj3 <= 996: 1 (119.0/49.0)
|   |   |   |   |   obj3 > 996: 0 (14.0/2.0)
|   |   |   obj1 > 884
|   |   |   |   obj1 <= 900
|   |   |   |   |   obj2 <= 812
|   |   |   |   |   |   obj1 <= 899
|   |   |   |   |   |   |   obj1 <= 886
|   |   |   |   |   |   |   |   obj2 <= 738: 1 (250.0/116.0)
|   |   |   |   |   |   |   |   obj2 > 738
|   |   |   |   |   |   |   |   |   obj3 <= 875: 0 (383.0/106.0)
|   |   |   |   |   |   |   |   |   obj3 > 875
|   |   |   |   |   |   |   |   |   |   obj2 <= 741: 1 (12.0/2.0)
|   |   |   |   |   |   |   |   |   |   obj2 > 741
|   |   |   |   |   |   |   |   |   |   |   obj2 <= 760: 0 (182.0/76.0)
|   |   |   |   |   |   |   |   |   |   |   obj2 > 760: 1 (46.0/17.0)
|   |   |   |   |   |   |   obj1 > 886: 0 (410.0/88.0)
|   |   |   |   |   |   obj1 > 899
|   |   |   |   |   |   |   obj2 <= 732: 1 (197.0/90.0)
|   |   |   |   |   |   |   obj2 > 732: 0 (1729.0/690.0)
|   |   |   |   |   obj2 > 812
|   |   |   |   |   |   obj3 <= 865
|   |   |   |   |   |   |   obj2 <= 926
|   |   |   |   |   |   |   |   obj2 <= 884
|   |   |   |   |   |   |   |   |   obj2 <= 817: 1 (424.0/195.0)
|   |   |   |   |   |   |   |   |   obj2 > 817: 0 (764.0/321.0)
|   |   |   |   |   |   |   |   obj2 > 884
|   |   |   |   |   |   |   |   |   obj1 <= 899
|   |   |   |   |   |   |   |   |   |   obj1 <= 887: 1 (184.0/74.0)
|   |   |   |   |   |   |   |   |   |   obj1 > 887
|   |   |   |   |   |   |   |   |   |   |   obj2 <= 894: 1 (5.0/1.0)
|   |   |   |   |   |   |   |   |   |   |   obj2 > 894: 0 (29.0/6.0)
|   |   |   |   |   |   |   |   |   obj1 > 899: 1 (307.0/111.0)
|   |   |   |   |   |   |   obj2 > 926
|   |   |   |   |   |   |   |   obj2 <= 970
|   |   |   |   |   |   |   |   |   obj2 <= 959: 0 (290.0/105.0)
|   |   |   |   |   |   |   |   |   obj2 > 959: 1 (23.0/7.0)
|   |   |   |   |   |   |   |   obj2 > 970: 0 (84.0/20.0)
|   |   |   |   |   |   obj3 > 865
|   |   |   |   |   |   |   obj1 <= 886: 1 (530.0/171.0)
|   |   |   |   |   |   |   obj1 > 886
|   |   |   |   |   |   |   |   obj1 <= 893: 0 (50.0/6.0)
|   |   |   |   |   |   |   |   obj1 > 893
|   |   |   |   |   |   |   |   |   obj1 <= 899
|   |   |   |   |   |   |   |   |   |   obj1 <= 896: 1 (15.0/3.0)
|   |   |   |   |   |   |   |   |   |   obj1 > 896: 0 (12.0/1.0)
|   |   |   |   |   |   |   |   |   obj1 > 899
|   |   |   |   |   |   |   |   |   |   obj2 <= 878
|   |   |   |   |   |   |   |   |   |   |   obj2 <= 816: 1 (163.0/58.0)
|   |   |   |   |   |   |   |   |   |   |   obj2 > 816: 0 (301.0/138.0)
|   |   |   |   |   |   |   |   |   |   obj2 > 878
|   |   |   |   |   |   |   |   |   |   |   obj2 <= 965: 1 (317.0/116.0)
|   |   |   |   |   |   |   |   |   |   |   obj2 > 965: 0 (19.0/6.0)
|   |   |   |   obj1 > 900
|   |   |   |   |   obj1 <= 947: 0 (3173.0/827.0)
|   |   |   |   |   obj1 > 947
|   |   |   |   |   |   obj3 <= 508
|   |   |   |   |   |   |   obj3 <= 468: 0 (192.0/94.0)
|   |   |   |   |   |   |   obj3 > 468: 1 (147.0/47.0)
|   |   |   |   |   |   obj3 > 508
|   |   |   |   |   |   |   obj2 <= 703
|   |   |   |   |   |   |   |   obj2 <= 325
|   |   |   |   |   |   |   |   |   obj2 <= 313
|   |   |   |   |   |   |   |   |   |   obj2 <= 308: 0 (11.0/1.0)
|   |   |   |   |   |   |   |   |   |   obj2 > 308: 1 (17.0/5.0)
|   |   |   |   |   |   |   |   |   obj2 > 313: 0 (22.0/2.0)
|   |   |   |   |   |   |   |   obj2 > 325
|   |   |   |   |   |   |   |   |   obj2 <= 496
|   |   |   |   |   |   |   |   |   |   obj2 <= 328: 1 (41.0/8.0)
|   |   |   |   |   |   |   |   |   |   obj2 > 328
|   |   |   |   |   |   |   |   |   |   |   obj3 <= 771
|   |   |   |   |   |   |   |   |   |   |   |   obj3 <= 760
|   |   |   |   |   |   |   |   |   |   |   |   |   obj3 <= 740
|   |   |   |   |   |   |   |   |   |   |   |   |   |   obj3 <= 606: 0 (2.0)
|   |   |   |   |   |   |   |   |   |   |   |   |   |   obj3 > 606: 1 (24.0/7.0)
|   |   |   |   |   |   |   |   |   |   |   |   |   obj3 > 740: 0 (7.0/1.0)
|   |   |   |   |   |   |   |   |   |   |   |   obj3 > 760: 1 (34.0/3.0)
|   |   |   |   |   |   |   |   |   |   |   obj3 > 771
|   |   |   |   |   |   |   |   |   |   |   |   obj3 <= 783: 0 (14.0/2.0)
|   |   |   |   |   |   |   |   |   |   |   |   obj3 > 783: 1 (86.0/39.0)
|   |   |   |   |   |   |   |   |   obj2 > 496: 0 (310.0/139.0)
|   |   |   |   |   |   |   obj2 > 703: 0 (2277.0/809.0)
|   |   obj2 > 992
|   |   |   obj2 <= 993: 1 (825.0/221.0)
|   |   |   obj2 > 993
|   |   |   |   obj2 <= 998: 0 (150.0/22.0)
|   |   |   |   obj2 > 998: 1 (199.0/85.0)
|   obj1 > 950
|   |   obj1 <= 974: 0 (7592.0/914.0)
|   |   obj1 > 974
|   |   |   obj2 <= 762: 0 (3178.0/688.0)
|   |   |   obj2 > 762
|   |   |   |   obj1 <= 992: 0 (529.0/126.0)
|   |   |   |   obj1 > 992
|   |   |   |   |   obj1 <= 994
|   |   |   |   |   |   obj3 <= 760
|   |   |   |   |   |   |   obj3 <= 590: 1 (43.0/15.0)
|   |   |   |   |   |   |   obj3 > 590: 0 (788.0/331.0)
|   |   |   |   |   |   obj3 > 760
|   |   |   |   |   |   |   obj2 <= 881
|   |   |   |   |   |   |   |   obj2 <= 818
|   |   |   |   |   |   |   |   |   obj2 <= 812
|   |   |   |   |   |   |   |   |   |   obj3 <= 809: 0 (166.0/70.0)
|   |   |   |   |   |   |   |   |   |   obj3 > 809
|   |   |   |   |   |   |   |   |   |   |   obj3 <= 932
|   |   |   |   |   |   |   |   |   |   |   |   obj3 <= 875
|   |   |   |   |   |   |   |   |   |   |   |   |   obj2 <= 787
|   |   |   |   |   |   |   |   |   |   |   |   |   |   obj3 <= 821: 1 (30.0/11.0)
|   |   |   |   |   |   |   |   |   |   |   |   |   |   obj3 > 821: 0 (141.0/64.0)
|   |   |   |   |   |   |   |   |   |   |   |   |   obj2 > 787: 1 (38.0/14.0)
|   |   |   |   |   |   |   |   |   |   |   |   obj3 > 875: 1 (143.0/52.0)
|   |   |   |   |   |   |   |   |   |   |   obj3 > 932
|   |   |   |   |   |   |   |   |   |   |   |   obj3 <= 960: 0 (15.0/1.0)
|   |   |   |   |   |   |   |   |   |   |   |   obj3 > 960
|   |   |   |   |   |   |   |   |   |   |   |   |   obj2 <= 769: 1 (17.0/4.0)
|   |   |   |   |   |   |   |   |   |   |   |   |   obj2 > 769: 0 (9.0/1.0)
|   |   |   |   |   |   |   |   |   obj2 > 812: 1 (35.0/11.0)
|   |   |   |   |   |   |   |   obj2 > 818: 0 (159.0/60.0)
|   |   |   |   |   |   |   obj2 > 881
|   |   |   |   |   |   |   |   obj2 <= 935: 1 (503.0/158.0)
|   |   |   |   |   |   |   |   obj2 > 935: 0 (89.0/33.0)
|   |   |   |   |   obj1 > 994: 0 (588.0/168.0)

Number of Leaves  : 	65

Size of the tree : 	129


meka.classifiers.multilabel.CC: Node #2

J48 pruned tree
------------------

lbl0 = 0
|   obj1 <= 844
|   |   obj1 <= 734
|   |   |   obj1 <= 701
|   |   |   |   obj1 <= 673
|   |   |   |   |   obj1 <= 670
|   |   |   |   |   |   obj1 <= 664
|   |   |   |   |   |   |   obj1 <= 658: 1 (9228.0/2640.0)
|   |   |   |   |   |   |   obj1 > 658
|   |   |   |   |   |   |   |   obj1 <= 660: 0 (40.0/12.0)
|   |   |   |   |   |   |   |   obj1 > 660
|   |   |   |   |   |   |   |   |   obj2 <= 760
|   |   |   |   |   |   |   |   |   |   obj2 <= 703: 1 (194.0/50.0)
|   |   |   |   |   |   |   |   |   |   obj2 > 703
|   |   |   |   |   |   |   |   |   |   |   obj2 <= 706
|   |   |   |   |   |   |   |   |   |   |   |   obj3 <= 787: 0 (32.0/4.0)
|   |   |   |   |   |   |   |   |   |   |   |   obj3 > 787: 1 (6.0/1.0)
|   |   |   |   |   |   |   |   |   |   |   obj2 > 706
|   |   |   |   |   |   |   |   |   |   |   |   obj1 <= 663
|   |   |   |   |   |   |   |   |   |   |   |   |   obj3 <= 818: 1 (65.0/21.0)
|   |   |   |   |   |   |   |   |   |   |   |   |   obj3 > 818
|   |   |   |   |   |   |   |   |   |   |   |   |   |   obj2 <= 716: 1 (3.0/1.0)
|   |   |   |   |   |   |   |   |   |   |   |   |   |   obj2 > 716: 0 (7.0)
|   |   |   |   |   |   |   |   |   |   |   |   obj1 > 663: 1 (7.0/1.0)
|   |   |   |   |   |   |   |   |   obj2 > 760: 1 (136.0/20.0)
|   |   |   |   |   |   obj1 > 664
|   |   |   |   |   |   |   obj1 <= 669
|   |   |   |   |   |   |   |   obj2 <= 785
|   |   |   |   |   |   |   |   |   obj2 <= 703: 1 (55.0/21.0)
|   |   |   |   |   |   |   |   |   obj2 > 703: 0 (87.0/21.0)
|   |   |   |   |   |   |   |   obj2 > 785
|   |   |   |   |   |   |   |   |   obj3 <= 695: 1 (20.0/4.0)
|   |   |   |   |   |   |   |   |   obj3 > 695: 0 (41.0/16.0)
|   |   |   |   |   |   |   obj1 > 669
|   |   |   |   |   |   |   |   obj3 <= 882
|   |   |   |   |   |   |   |   |   obj2 <= 899: 1 (39.0/5.0)
|   |   |   |   |   |   |   |   |   obj2 > 899: 0 (4.0/1.0)
|   |   |   |   |   |   |   |   obj3 > 882
|   |   |   |   |   |   |   |   |   obj2 <= 804: 0 (8.0/1.0)
|   |   |   |   |   |   |   |   |   obj2 > 804
|   |   |   |   |   |   |   |   |   |   obj2 <= 855: 1 (4.0/1.0)
|   |   |   |   |   |   |   |   |   |   obj2 > 855: 0 (3.0)
|   |   |   |   |   obj1 > 670: 1 (1670.0/170.0)
|   |   |   |   obj1 > 673
|   |   |   |   |   obj1 <= 675
|   |   |   |   |   |   obj1 <= 674
|   |   |   |   |   |   |   obj2 <= 978: 1 (42.0/17.0)
|   |   |   |   |   |   |   obj2 > 978: 0 (5.0)
|   |   |   |   |   |   obj1 > 674: 0 (74.0/19.0)
|   |   |   |   |   obj1 > 675
|   |   |   |   |   |   obj1 <= 685: 1 (923.0/294.0)
|   |   |   |   |   |   obj1 > 685
|   |   |   |   |   |   |   obj1 <= 687: 0 (348.0/161.0)
|   |   |   |   |   |   |   obj1 > 687: 1 (7528.0/2356.0)
|   |   |   obj1 > 701
|   |   |   |   obj1 <= 706
|   |   |   |   |   obj1 <= 702: 1 (62.0/25.0)
|   |   |   |   |   obj1 > 702
|   |   |   |   |   |   obj2 <= 695
|   |   |   |   |   |   |   obj2 <= 694: 0 (670.0/226.0)
|   |   |   |   |   |   |   obj2 > 694: 1 (25.0/8.0)
|   |   |   |   |   |   obj2 > 695: 0 (1749.0/533.0)
|   |   |   |   obj1 > 706
|   |   |   |   |   obj1 <= 711
|   |   |   |   |   |   obj1 <= 707: 1 (338.0/121.0)
|   |   |   |   |   |   obj1 > 707
|   |   |   |   |   |   |   obj1 <= 708: 0 (154.0/48.0)
|   |   |   |   |   |   |   obj1 > 708
|   |   |   |   |   |   |   |   obj1 <= 709: 1 (92.0/32.0)
|   |   |   |   |   |   |   |   obj1 > 709
|   |   |   |   |   |   |   |   |   obj1 <= 710
|   |   |   |   |   |   |   |   |   |   obj2 <= 708
|   |   |   |   |   |   |   |   |   |   |   obj2 <= 702: 1 (169.0/73.0)
|   |   |   |   |   |   |   |   |   |   |   obj2 > 702: 0 (160.0/66.0)
|   |   |   |   |   |   |   |   |   |   obj2 > 708: 1 (71.0/22.0)
|   |   |   |   |   |   |   |   |   obj1 > 710: 0 (64.0/25.0)
|   |   |   |   |   obj1 > 711
|   |   |   |   |   |   obj1 <= 720
|   |   |   |   |   |   |   obj2 <= 895: 1 (388.0/92.0)
|   |   |   |   |   |   |   obj2 > 895
|   |   |   |   |   |   |   |   obj2 <= 978: 0 (33.0/11.0)
|   |   |   |   |   |   |   |   obj2 > 978: 1 (9.0/1.0)
|   |   |   |   |   |   obj1 > 720
|   |   |   |   |   |   |   obj1 <= 729
|   |   |   |   |   |   |   |   obj1 <= 728
|   |   |   |   |   |   |   |   |   obj1 <= 726: 1 (202.0/74.0)
|   |   |   |   |   |   |   |   |   obj1 > 726
|   |   |   |   |   |   |   |   |   |   obj3 <= 707: 1 (74.0/33.0)
|   |   |   |   |   |   |   |   |   |   obj3 > 707: 0 (30.0/6.0)
|   |   |   |   |   |   |   |   obj1 > 728: 0 (96.0/20.0)
|   |   |   |   |   |   |   obj1 > 729
|   |   |   |   |   |   |   |   obj2 <= 822
|   |   |   |   |   |   |   |   |   obj2 <= 777
|   |   |   |   |   |   |   |   |   |   obj3 <= 854: 1 (627.0/211.0)
|   |   |   |   |   |   |   |   |   |   obj3 > 854
|   |   |   |   |   |   |   |   |   |   |   obj2 <= 717
|   |   |   |   |   |   |   |   |   |   |   |   obj2 <= 320: 0 (4.0/1.0)
|   |   |   |   |   |   |   |   |   |   |   |   obj2 > 320: 1 (32.0/5.0)
|   |   |   |   |   |   |   |   |   |   |   obj2 > 717
|   |   |   |   |   |   |   |   |   |   |   |   obj3 <= 997: 0 (127.0/53.0)
|   |   |   |   |   |   |   |   |   |   |   |   obj3 > 997: 1 (24.0/5.0)
|   |   |   |   |   |   |   |   |   obj2 > 777: 1 (403.0/102.0)
|   |   |   |   |   |   |   |   obj2 > 822
|   |   |   |   |   |   |   |   |   obj1 <= 733: 1 (26.0/6.0)
|   |   |   |   |   |   |   |   |   obj1 > 733
|   |   |   |   |   |   |   |   |   |   obj2 <= 983: 0 (294.0/136.0)
|   |   |   |   |   |   |   |   |   |   obj2 > 983: 1 (22.0/4.0)
|   |   obj1 > 734
|   |   |   obj1 <= 761
|   |   |   |   obj1 <= 752
|   |   |   |   |   obj1 <= 739: 1 (1047.0/194.0)
|   |   |   |   |   obj1 > 739
|   |   |   |   |   |   obj1 <= 740
|   |   |   |   |   |   |   obj3 <= 674: 1 (15.0/2.0)
|   |   |   |   |   |   |   obj3 > 674: 0 (199.0/80.0)
|   |   |   |   |   |   obj1 > 740
|   |   |   |   |   |   |   obj1 <= 747: 1 (792.0/210.0)
|   |   |   |   |   |   |   obj1 > 747
|   |   |   |   |   |   |   |   obj2 <= 563: 1 (24.0/4.0)
|   |   |   |   |   |   |   |   obj2 > 563: 0 (171.0/77.0)
|   |   |   |   obj1 > 752: 1 (33481.0/6142.0)
|   |   |   obj1 > 761
|   |   |   |   obj2 <= 850
|   |   |   |   |   obj2 <= 735
|   |   |   |   |   |   obj2 <= 694
|   |   |   |   |   |   |   obj1 <= 805
|   |   |   |   |   |   |   |   obj1 <= 803: 1 (1827.0/587.0)
|   |   |   |   |   |   |   |   obj1 > 803
|   |   |   |   |   |   |   |   |   obj3 <= 766: 1 (97.0/47.0)
|   |   |   |   |   |   |   |   |   obj3 > 766: 0 (29.0/5.0)
|   |   |   |   |   |   |   obj1 > 805: 1 (953.0/234.0)
|   |   |   |   |   |   obj2 > 694
|   |   |   |   |   |   |   obj2 <= 704
|   |   |   |   |   |   |   |   obj1 <= 766: 1 (66.0/24.0)
|   |   |   |   |   |   |   |   obj1 > 766: 0 (389.0/149.0)
|   |   |   |   |   |   |   obj2 > 704
|   |   |   |   |   |   |   |   obj3 <= 746
|   |   |   |   |   |   |   |   |   obj3 <= 714
|   |   |   |   |   |   |   |   |   |   obj2 <= 726: 1 (140.0/50.0)
|   |   |   |   |   |   |   |   |   |   obj2 > 726
|   |   |   |   |   |   |   |   |   |   |   obj2 <= 731: 0 (52.0/13.0)
|   |   |   |   |   |   |   |   |   |   |   obj2 > 731: 1 (24.0/8.0)
|   |   |   |   |   |   |   |   |   obj3 > 714: 0 (89.0/28.0)
|   |   |   |   |   |   |   |   obj3 > 746: 1 (576.0/177.0)
|   |   |   |   |   obj2 > 735
|   |   |   |   |   |   obj1 <= 793
|   |   |   |   |   |   |   obj1 <= 778
|   |   |   |   |   |   |   |   obj3 <= 974
|   |   |   |   |   |   |   |   |   obj1 <= 767: 1 (654.0/131.0)
|   |   |   |   |   |   |   |   |   obj1 > 767
|   |   |   |   |   |   |   |   |   |   obj1 <= 769
|   |   |   |   |   |   |   |   |   |   |   obj2 <= 778: 1 (77.0/35.0)
|   |   |   |   |   |   |   |   |   |   |   obj2 > 778: 0 (70.0/23.0)
|   |   |   |   |   |   |   |   |   |   obj1 > 769: 1 (978.0/224.0)
|   |   |   |   |   |   |   |   obj3 > 974
|   |   |   |   |   |   |   |   |   obj1 <= 769
|   |   |   |   |   |   |   |   |   |   obj1 <= 766: 1 (9.0/2.0)
|   |   |   |   |   |   |   |   |   |   obj1 > 766
|   |   |   |   |   |   |   |   |   |   |   obj3 <= 978
|   |   |   |   |   |   |   |   |   |   |   |   obj2 <= 760: 1 (5.0/1.0)
|   |   |   |   |   |   |   |   |   |   |   |   obj2 > 760: 0 (7.0/2.0)
|   |   |   |   |   |   |   |   |   |   |   obj3 > 978: 0 (18.0/2.0)
|   |   |   |   |   |   |   |   |   obj1 > 769: 1 (13.0/3.0)
|   |   |   |   |   |   |   obj1 > 778
|   |   |   |   |   |   |   |   obj2 <= 790
|   |   |   |   |   |   |   |   |   obj2 <= 773: 1 (141.0/59.0)
|   |   |   |   |   |   |   |   |   obj2 > 773: 0 (48.0/18.0)
|   |   |   |   |   |   |   |   obj2 > 790: 1 (233.0/76.0)
|   |   |   |   |   |   obj1 > 793: 1 (10003.0/2034.0)
|   |   |   |   obj2 > 850
|   |   |   |   |   obj1 <= 768
|   |   |   |   |   |   obj1 <= 766
|   |   |   |   |   |   |   obj1 <= 764
|   |   |   |   |   |   |   |   obj2 <= 881: 1 (2.0)
|   |   |   |   |   |   |   |   obj2 > 881
|   |   |   |   |   |   |   |   |   obj3 <= 726
|   |   |   |   |   |   |   |   |   |   obj2 <= 909: 0 (3.0/1.0)
|   |   |   |   |   |   |   |   |   |   obj2 > 909: 1 (3.0)
|   |   |   |   |   |   |   |   |   obj3 > 726: 0 (5.0)
|   |   |   |   |   |   |   obj1 > 764
|   |   |   |   |   |   |   |   obj2 <= 883
|   |   |   |   |   |   |   |   |   obj3 <= 949
|   |   |   |   |   |   |   |   |   |   obj3 <= 915
|   |   |   |   |   |   |   |   |   |   |   obj3 <= 430: 0 (4.0)
|   |   |   |   |   |   |   |   |   |   |   obj3 > 430: 1 (32.0/13.0)
|   |   |   |   |   |   |   |   |   |   obj3 > 915: 0 (6.0)
|   |   |   |   |   |   |   |   |   obj3 > 949: 1 (5.0)
|   |   |   |   |   |   |   |   obj2 > 883: 1 (183.0/43.0)
|   |   |   |   |   |   obj1 > 766: 0 (387.0/94.0)
|   |   |   |   |   obj1 > 768
|   |   |   |   |   |   obj1 <= 829
|   |   |   |   |   |   |   obj2 <= 948
|   |   |   |   |   |   |   |   obj3 <= 962
|   |   |   |   |   |   |   |   |   obj2 <= 931
|   |   |   |   |   |   |   |   |   |   obj2 <= 900: 1 (987.0/326.0)
|   |   |   |   |   |   |   |   |   |   obj2 > 900
|   |   |   |   |   |   |   |   |   |   |   obj1 <= 800
|   |   |   |   |   |   |   |   |   |   |   |   obj1 <= 789
|   |   |   |   |   |   |   |   |   |   |   |   |   obj3 <= 879: 1 (58.0/16.0)
|   |   |   |   |   |   |   |   |   |   |   |   |   obj3 > 879: 0 (20.0/7.0)
|   |   |   |   |   |   |   |   |   |   |   |   obj1 > 789: 1 (11.0)
|   |   |   |   |   |   |   |   |   |   |   obj1 > 800
|   |   |   |   |   |   |   |   |   |   |   |   obj1 <= 809: 0 (233.0/88.0)
|   |   |   |   |   |   |   |   |   |   |   |   obj1 > 809: 1 (30.0/7.0)
|   |   |   |   |   |   |   |   |   obj2 > 931
|   |   |   |   |   |   |   |   |   |   obj1 <= 805: 1 (89.0/18.0)
|   |   |   |   |   |   |   |   |   |   obj1 > 805
|   |   |   |   |   |   |   |   |   |   |   obj2 <= 946
|   |   |   |   |   |   |   |   |   |   |   |   obj1 <= 819: 1 (16.0/5.0)
|   |   |   |   |   |   |   |   |   |   |   |   obj1 > 819: 0 (26.0/8.0)
|   |   |   |   |   |   |   |   |   |   |   obj2 > 946
|   |   |   |   |   |   |   |   |   |   |   |   obj2 <= 947: 1 (324.0/103.0)
|   |   |   |   |   |   |   |   |   |   |   |   obj2 > 947
|   |   |   |   |   |   |   |   |   |   |   |   |   obj3 <= 799: 1 (38.0/14.0)
|   |   |   |   |   |   |   |   |   |   |   |   |   obj3 > 799: 0 (11.0/1.0)
|   |   |   |   |   |   |   |   obj3 > 962: 0 (137.0/61.0)
|   |   |   |   |   |   |   obj2 > 948: 1 (1671.0/512.0)
|   |   |   |   |   |   obj1 > 829
|   |   |   |   |   |   |   obj1 <= 830: 0 (416.0/186.0)
|   |   |   |   |   |   |   obj1 > 830: 1 (456.0/119.0)
|   obj1 > 844
|   |   obj1 <= 948
|   |   |   obj1 <= 899
|   |   |   |   obj1 <= 873
|   |   |   |   |   obj1 <= 854: 1 (118.0/39.0)
|   |   |   |   |   obj1 > 854
|   |   |   |   |   |   obj3 <= 981
|   |   |   |   |   |   |   obj2 <= 983: 1 (1772.0/789.0)
|   |   |   |   |   |   |   obj2 > 983: 0 (85.0/30.0)
|   |   |   |   |   |   obj3 > 981: 0 (90.0/30.0)
|   |   |   |   obj1 > 873
|   |   |   |   |   obj1 <= 890
|   |   |   |   |   |   obj1 <= 886: 1 (1686.0/595.0)
|   |   |   |   |   |   obj1 > 886
|   |   |   |   |   |   |   obj1 <= 887: 0 (16.0/3.0)
|   |   |   |   |   |   |   obj1 > 887
|   |   |   |   |   |   |   |   obj2 <= 708
|   |   |   |   |   |   |   |   |   obj1 <= 889
|   |   |   |   |   |   |   |   |   |   obj3 <= 705: 1 (2.0)
|   |   |   |   |   |   |   |   |   |   obj3 > 705: 0 (2.0)
|   |   |   |   |   |   |   |   |   obj1 > 889: 0 (3.0)
|   |   |   |   |   |   |   |   obj2 > 708: 1 (32.0/11.0)
|   |   |   |   |   obj1 > 890
|   |   |   |   |   |   obj1 <= 892: 1 (294.0/53.0)
|   |   |   |   |   |   obj1 > 892
|   |   |   |   |   |   |   obj1 <= 895
|   |   |   |   |   |   |   |   obj1 <= 893
|   |   |   |   |   |   |   |   |   obj2 <= 787
|   |   |   |   |   |   |   |   |   |   obj2 <= 614: 0 (2.0)
|   |   |   |   |   |   |   |   |   |   obj2 > 614
|   |   |   |   |   |   |   |   |   |   |   obj2 <= 704: 1 (3.0)
|   |   |   |   |   |   |   |   |   |   |   obj2 > 704: 0 (3.0/1.0)
|   |   |   |   |   |   |   |   |   obj2 > 787: 1 (7.0)
|   |   |   |   |   |   |   |   obj1 > 893
|   |   |   |   |   |   |   |   |   obj1 <= 894
|   |   |   |   |   |   |   |   |   |   obj2 <= 809
|   |   |   |   |   |   |   |   |   |   |   obj3 <= 705: 0 (3.0/1.0)
|   |   |   |   |   |   |   |   |   |   |   obj3 > 705: 1 (11.0/1.0)
|   |   |   |   |   |   |   |   |   |   obj2 > 809: 0 (31.0/10.0)
|   |   |   |   |   |   |   |   |   obj1 > 894: 0 (17.0/8.0)
|   |   |   |   |   |   |   obj1 > 895
|   |   |   |   |   |   |   |   obj1 <= 897: 1 (32.0/5.0)
|   |   |   |   |   |   |   |   obj1 > 897
|   |   |   |   |   |   |   |   |   obj3 <= 318: 0 (7.0/1.0)
|   |   |   |   |   |   |   |   |   obj3 > 318: 1 (87.0/24.0)
|   |   |   obj1 > 899
|   |   |   |   obj2 <= 803
|   |   |   |   |   obj1 <= 901: 0 (1068.0/457.0)
|   |   |   |   |   obj1 > 901
|   |   |   |   |   |   obj1 <= 919: 1 (367.0/111.0)
|   |   |   |   |   |   obj1 > 919
|   |   |   |   |   |   |   obj3 <= 855
|   |   |   |   |   |   |   |   obj1 <= 947
|   |   |   |   |   |   |   |   |   obj1 <= 945: 1 (377.0/159.0)
|   |   |   |   |   |   |   |   |   obj1 > 945
|   |   |   |   |   |   |   |   |   |   obj3 <= 841
|   |   |   |   |   |   |   |   |   |   |   obj1 <= 946
|   |   |   |   |   |   |   |   |   |   |   |   obj3 <= 793
|   |   |   |   |   |   |   |   |   |   |   |   |   obj3 <= 670: 0 (3.0/1.0)
|   |   |   |   |   |   |   |   |   |   |   |   |   obj3 > 670: 1 (4.0)
|   |   |   |   |   |   |   |   |   |   |   |   obj3 > 793: 0 (9.0/1.0)
|   |   |   |   |   |   |   |   |   |   |   obj1 > 946: 0 (56.0/20.0)
|   |   |   |   |   |   |   |   |   |   obj3 > 841: 1 (10.0/2.0)
|   |   |   |   |   |   |   |   obj1 > 947
|   |   |   |   |   |   |   |   |   obj2 <= 673: 1 (231.0/88.0)
|   |   |   |   |   |   |   |   |   obj2 > 673
|   |   |   |   |   |   |   |   |   |   obj2 <= 732
|   |   |   |   |   |   |   |   |   |   |   obj2 <= 691: 0 (8.0/1.0)
|   |   |   |   |   |   |   |   |   |   |   obj2 > 691
|   |   |   |   |   |   |   |   |   |   |   |   obj3 <= 760: 1 (59.0/23.0)
|   |   |   |   |   |   |   |   |   |   |   |   obj3 > 760: 0 (28.0/8.0)
|   |   |   |   |   |   |   |   |   |   obj2 > 732: 1 (453.0/153.0)
|   |   |   |   |   |   |   obj3 > 855
|   |   |   |   |   |   |   |   obj3 <= 859: 0 (25.0/5.0)
|   |   |   |   |   |   |   |   obj3 > 859
|   |   |   |   |   |   |   |   |   obj2 <= 697: 0 (115.0/44.0)
|   |   |   |   |   |   |   |   |   obj2 > 697: 1 (274.0/123.0)
|   |   |   |   obj2 > 803
|   |   |   |   |   obj3 <= 805
|   |   |   |   |   |   obj1 <= 901: 0 (510.0/202.0)
|   |   |   |   |   |   obj1 > 901
|   |   |   |   |   |   |   obj1 <= 946
|   |   |   |   |   |   |   |   obj1 <= 932
|   |   |   |   |   |   |   |   |   obj1 <= 919
|   |   |   |   |   |   |   |   |   |   obj2 <= 840: 0 (31.0/14.0)
|   |   |   |   |   |   |   |   |   |   obj2 > 840: 1 (96.0/20.0)
|   |   |   |   |   |   |   |   |   obj1 > 919: 0 (168.0/82.0)
|   |   |   |   |   |   |   |   obj1 > 932: 1 (70.0/17.0)
|   |   |   |   |   |   |   obj1 > 946
|   |   |   |   |   |   |   |   obj2 <= 809: 0 (68.0/16.0)
|   |   |   |   |   |   |   |   obj2 > 809
|   |   |   |   |   |   |   |   |   obj1 <= 947: 0 (134.0/47.0)
|   |   |   |   |   |   |   |   |   obj1 > 947
|   |   |   |   |   |   |   |   |   |   obj2 <= 836: 1 (178.0/65.0)
|   |   |   |   |   |   |   |   |   |   obj2 > 836
|   |   |   |   |   |   |   |   |   |   |   obj2 <= 996: 0 (163.0/62.0)
|   |   |   |   |   |   |   |   |   |   |   obj2 > 996: 1 (53.0/17.0)
|   |   |   |   |   obj3 > 805
|   |   |   |   |   |   obj3 <= 996
|   |   |   |   |   |   |   obj2 <= 806: 0 (104.0/20.0)
|   |   |   |   |   |   |   obj2 > 806
|   |   |   |   |   |   |   |   obj2 <= 812
|   |   |   |   |   |   |   |   |   obj1 <= 900: 0 (3.0)
|   |   |   |   |   |   |   |   |   obj1 > 900: 1 (37.0/11.0)
|   |   |   |   |   |   |   |   obj2 > 812
|   |   |   |   |   |   |   |   |   obj1 <= 901: 0 (666.0/184.0)
|   |   |   |   |   |   |   |   |   obj1 > 901
|   |   |   |   |   |   |   |   |   |   obj1 <= 946
|   |   |   |   |   |   |   |   |   |   |   obj3 <= 922
|   |   |   |   |   |   |   |   |   |   |   |   obj1 <= 911: 1 (28.0/7.0)
|   |   |   |   |   |   |   |   |   |   |   |   obj1 > 911
|   |   |   |   |   |   |   |   |   |   |   |   |   obj1 <= 916: 0 (8.0)
|   |   |   |   |   |   |   |   |   |   |   |   |   obj1 > 916
|   |   |   |   |   |   |   |   |   |   |   |   |   |   obj3 <= 884: 1 (115.0/50.0)
|   |   |   |   |   |   |   |   |   |   |   |   |   |   obj3 > 884: 0 (34.0/10.0)
|   |   |   |   |   |   |   |   |   |   |   obj3 > 922: 1 (81.0/33.0)
|   |   |   |   |   |   |   |   |   |   obj1 > 946
|   |   |   |   |   |   |   |   |   |   |   obj2 <= 896
|   |   |   |   |   |   |   |   |   |   |   |   obj1 <= 947: 0 (452.0/138.0)
|   |   |   |   |   |   |   |   |   |   |   |   obj1 > 947
|   |   |   |   |   |   |   |   |   |   |   |   |   obj3 <= 809: 0 (29.0/5.0)
|   |   |   |   |   |   |   |   |   |   |   |   |   obj3 > 809
|   |   |   |   |   |   |   |   |   |   |   |   |   |   obj3 <= 826: 1 (19.0/5.0)
|   |   |   |   |   |   |   |   |   |   |   |   |   |   obj3 > 826: 0 (194.0/56.0)
|   |   |   |   |   |   |   |   |   |   |   obj2 > 896
|   |   |   |   |   |   |   |   |   |   |   |   obj2 <= 996: 0 (285.0/54.0)
|   |   |   |   |   |   |   |   |   |   |   |   obj2 > 996: 1 (13.0/3.0)
|   |   |   |   |   |   obj3 > 996: 1 (33.0/9.0)
|   |   obj1 > 948
|   |   |   obj1 <= 998
|   |   |   |   obj1 <= 974: 1 (6699.0/1747.0)
|   |   |   |   obj1 > 974
|   |   |   |   |   obj1 <= 995
|   |   |   |   |   |   obj1 <= 984
|   |   |   |   |   |   |   obj2 <= 986: 1 (332.0/126.0)
|   |   |   |   |   |   |   obj2 > 986
|   |   |   |   |   |   |   |   obj3 <= 795: 0 (13.0/5.0)
|   |   |   |   |   |   |   |   obj3 > 795
|   |   |   |   |   |   |   |   |   obj3 <= 839: 1 (3.0)
|   |   |   |   |   |   |   |   |   obj3 > 839: 0 (6.0/1.0)
|   |   |   |   |   |   obj1 > 984
|   |   |   |   |   |   |   obj1 <= 986: 0 (36.0/9.0)
|   |   |   |   |   |   |   obj1 > 986
|   |   |   |   |   |   |   |   obj1 <= 994
|   |   |   |   |   |   |   |   |   obj1 <= 992: 1 (335.0/118.0)
|   |   |   |   |   |   |   |   |   obj1 > 992
|   |   |   |   |   |   |   |   |   |   obj2 <= 826
|   |   |   |   |   |   |   |   |   |   |   obj2 <= 603: 0 (46.0/19.0)
|   |   |   |   |   |   |   |   |   |   |   obj2 > 603: 1 (1075.0/406.0)
|   |   |   |   |   |   |   |   |   |   obj2 > 826
|   |   |   |   |   |   |   |   |   |   |   obj3 <= 760: 1 (287.0/115.0)
|   |   |   |   |   |   |   |   |   |   |   obj3 > 760
|   |   |   |   |   |   |   |   |   |   |   |   obj2 <= 950: 0 (258.0/112.0)
|   |   |   |   |   |   |   |   |   |   |   |   obj2 > 950: 1 (52.0/17.0)
|   |   |   |   |   |   |   |   obj1 > 994: 1 (47.0/11.0)
|   |   |   |   |   obj1 > 995
|   |   |   |   |   |   obj1 <= 996: 0 (173.0/38.0)
|   |   |   |   |   |   obj1 > 996
|   |   |   |   |   |   |   obj1 <= 997: 1 (28.0/11.0)
|   |   |   |   |   |   |   obj1 > 997
|   |   |   |   |   |   |   |   obj2 <= 906: 0 (6.0/1.0)
|   |   |   |   |   |   |   |   obj2 > 906: 1 (3.0)
|   |   |   obj1 > 998: 1 (1685.0/250.0)
lbl0 = 1: 0 (31365.0/6176.0)

Number of Leaves  : 	193

Size of the tree : 	385


meka.classifiers.multilabel.CC: Node #3

J48 pruned tree
------------------

lbl1 = 0
|   obj1 <= 862
|   |   obj1 <= 753
|   |   |   obj1 <= 694
|   |   |   |   lbl0 = 0
|   |   |   |   |   obj1 <= 374
|   |   |   |   |   |   obj1 <= 355: 0 (1316.0/379.0)
|   |   |   |   |   |   obj1 > 355
|   |   |   |   |   |   |   obj3 <= 682
|   |   |   |   |   |   |   |   obj1 <= 366
|   |   |   |   |   |   |   |   |   obj3 <= 359: 1 (11.0/1.0)
|   |   |   |   |   |   |   |   |   obj3 > 359
|   |   |   |   |   |   |   |   |   |   obj1 <= 359: 1 (3.0)
|   |   |   |   |   |   |   |   |   |   obj1 > 359: 0 (29.0/12.0)
|   |   |   |   |   |   |   |   obj1 > 366: 1 (42.0/7.0)
|   |   |   |   |   |   |   obj3 > 682
|   |   |   |   |   |   |   |   obj2 <= 717: 1 (32.0/13.0)
|   |   |   |   |   |   |   |   obj2 > 717: 0 (12.0)
|   |   |   |   |   obj1 > 374
|   |   |   |   |   |   obj1 <= 590: 0 (704.0/147.0)
|   |   |   |   |   |   obj1 > 590
|   |   |   |   |   |   |   obj2 <= 753: 0 (2669.0/882.0)
|   |   |   |   |   |   |   obj2 > 753
|   |   |   |   |   |   |   |   obj3 <= 703
|   |   |   |   |   |   |   |   |   obj2 <= 821: 1 (188.0/81.0)
|   |   |   |   |   |   |   |   |   obj2 > 821
|   |   |   |   |   |   |   |   |   |   obj2 <= 989: 0 (130.0/43.0)
|   |   |   |   |   |   |   |   |   |   obj2 > 989
|   |   |   |   |   |   |   |   |   |   |   obj2 <= 990: 1 (31.0/8.0)
|   |   |   |   |   |   |   |   |   |   |   obj2 > 990: 0 (18.0/8.0)
|   |   |   |   |   |   |   |   obj3 > 703: 0 (526.0/180.0)
|   |   |   |   lbl0 = 1: 0 (4494.0/1009.0)
|   |   |   obj1 > 694: 0 (7256.0/1346.0)
|   |   obj1 > 753
|   |   |   obj1 <= 761
|   |   |   |   obj2 <= 998
|   |   |   |   |   obj1 <= 760
|   |   |   |   |   |   obj2 <= 854
|   |   |   |   |   |   |   obj2 <= 842: 0 (6072.0/2341.0)
|   |   |   |   |   |   |   obj2 > 842: 1 (591.0/195.0)
|   |   |   |   |   |   obj2 > 854
|   |   |   |   |   |   |   obj2 <= 951: 0 (1873.0/589.0)
|   |   |   |   |   |   |   obj2 > 951
|   |   |   |   |   |   |   |   obj2 <= 955
|   |   |   |   |   |   |   |   |   lbl0 = 0: 0 (274.0/124.0)
|   |   |   |   |   |   |   |   |   lbl0 = 1: 1 (133.0/41.0)
|   |   |   |   |   |   |   |   obj2 > 955
|   |   |   |   |   |   |   |   |   obj2 <= 974
|   |   |   |   |   |   |   |   |   |   obj3 <= 837: 0 (171.0/47.0)
|   |   |   |   |   |   |   |   |   |   obj3 > 837
|   |   |   |   |   |   |   |   |   |   |   obj3 <= 854: 1 (32.0/8.0)
|   |   |   |   |   |   |   |   |   |   |   obj3 > 854
|   |   |   |   |   |   |   |   |   |   |   |   lbl0 = 0: 0 (104.0/44.0)
|   |   |   |   |   |   |   |   |   |   |   |   lbl0 = 1
|   |   |   |   |   |   |   |   |   |   |   |   |   obj3 <= 910: 0 (6.0/1.0)
|   |   |   |   |   |   |   |   |   |   |   |   |   obj3 > 910: 1 (23.0/6.0)
|   |   |   |   |   |   |   |   |   obj2 > 974: 0 (271.0/77.0)
|   |   |   |   |   obj1 > 760: 1 (98.0/47.0)
|   |   |   |   obj2 > 998
|   |   |   |   |   lbl0 = 0: 1 (247.0/109.0)
|   |   |   |   |   lbl0 = 1: 0 (226.0/100.0)
|   |   |   obj1 > 761
|   |   |   |   obj1 <= 803
|   |   |   |   |   obj1 <= 800
|   |   |   |   |   |   obj1 <= 795: 0 (2870.0/647.0)
|   |   |   |   |   |   obj1 > 795
|   |   |   |   |   |   |   obj1 <= 799
|   |   |   |   |   |   |   |   obj1 <= 798
|   |   |   |   |   |   |   |   |   obj3 <= 888
|   |   |   |   |   |   |   |   |   |   obj2 <= 802: 1 (7.0)
|   |   |   |   |   |   |   |   |   |   obj2 > 802
|   |   |   |   |   |   |   |   |   |   |   lbl0 = 0
|   |   |   |   |   |   |   |   |   |   |   |   obj3 <= 724: 0 (9.0/1.0)
|   |   |   |   |   |   |   |   |   |   |   |   obj3 > 724: 1 (26.0/4.0)
|   |   |   |   |   |   |   |   |   |   |   lbl0 = 1: 1 (20.0/5.0)
|   |   |   |   |   |   |   |   |   obj3 > 888
|   |   |   |   |   |   |   |   |   |   obj2 <= 472: 1 (3.0)
|   |   |   |   |   |   |   |   |   |   obj2 > 472: 0 (22.0/7.0)
|   |   |   |   |   |   |   |   obj1 > 798
|   |   |   |   |   |   |   |   |   obj3 <= 462: 0 (2.0)
|   |   |   |   |   |   |   |   |   obj3 > 462: 1 (4.0/1.0)
|   |   |   |   |   |   |   obj1 > 799
|   |   |   |   |   |   |   |   lbl0 = 0
|   |   |   |   |   |   |   |   |   obj3 <= 862: 1 (2.0)
|   |   |   |   |   |   |   |   |   obj3 > 862: 0 (3.0/1.0)
|   |   |   |   |   |   |   |   lbl0 = 1: 0 (8.0/1.0)
|   |   |   |   |   obj1 > 800: 0 (1991.0/408.0)
|   |   |   |   obj1 > 803
|   |   |   |   |   obj1 <= 804
|   |   |   |   |   |   lbl0 = 0: 1 (123.0/26.0)
|   |   |   |   |   |   lbl0 = 1: 0 (7.0/2.0)
|   |   |   |   |   obj1 > 804: 0 (6429.0/1752.0)
|   obj1 > 862
|   |   obj1 <= 950: 0 (10928.0/1743.0)
|   |   obj1 > 950
|   |   |   obj1 <= 955
|   |   |   |   obj1 <= 954
|   |   |   |   |   lbl0 = 0
|   |   |   |   |   |   obj1 <= 952
|   |   |   |   |   |   |   obj1 <= 951: 0 (7.0/2.0)
|   |   |   |   |   |   |   obj1 > 951
|   |   |   |   |   |   |   |   obj2 <= 849: 0 (12.0/1.0)
|   |   |   |   |   |   |   |   obj2 > 849
|   |   |   |   |   |   |   |   |   obj2 <= 921: 1 (5.0)
|   |   |   |   |   |   |   |   |   obj2 > 921: 0 (2.0)
|   |   |   |   |   |   obj1 > 952: 0 (699.0/242.0)
|   |   |   |   |   lbl0 = 1
|   |   |   |   |   |   obj1 <= 951
|   |   |   |   |   |   |   obj2 <= 671: 1 (2.0)
|   |   |   |   |   |   |   obj2 > 671: 0 (19.0/3.0)
|   |   |   |   |   |   obj1 > 951
|   |   |   |   |   |   |   obj1 <= 952
|   |   |   |   |   |   |   |   obj3 <= 779: 0 (5.0)
|   |   |   |   |   |   |   |   obj3 > 779
|   |   |   |   |   |   |   |   |   obj2 <= 957: 1 (7.0/2.0)
|   |   |   |   |   |   |   |   |   obj2 > 957: 0 (2.0)
|   |   |   |   |   |   |   obj1 > 952
|   |   |   |   |   |   |   |   obj2 <= 760: 1 (84.0/37.0)
|   |   |   |   |   |   |   |   obj2 > 760
|   |   |   |   |   |   |   |   |   obj3 <= 763
|   |   |   |   |   |   |   |   |   |   obj2 <= 946: 0 (16.0/4.0)
|   |   |   |   |   |   |   |   |   |   obj2 > 946: 1 (53.0/19.0)
|   |   |   |   |   |   |   |   |   obj3 > 763: 0 (68.0/13.0)
|   |   |   |   obj1 > 954: 1 (113.0/40.0)
|   |   |   obj1 > 955
|   |   |   |   obj1 <= 998
|   |   |   |   |   obj3 <= 998
|   |   |   |   |   |   obj1 <= 992
|   |   |   |   |   |   |   obj1 <= 989: 0 (1650.0/347.0)
|   |   |   |   |   |   |   obj1 > 989
|   |   |   |   |   |   |   |   lbl0 = 0
|   |   |   |   |   |   |   |   |   obj1 <= 990
|   |   |   |   |   |   |   |   |   |   obj3 <= 692: 1 (30.0/5.0)
|   |   |   |   |   |   |   |   |   |   obj3 > 692: 0 (12.0/4.0)
|   |   |   |   |   |   |   |   |   obj1 > 990
|   |   |   |   |   |   |   |   |   |   obj1 <= 991: 0 (56.0/21.0)
|   |   |   |   |   |   |   |   |   |   obj1 > 991
|   |   |   |   |   |   |   |   |   |   |   obj2 <= 799
|   |   |   |   |   |   |   |   |   |   |   |   obj3 <= 776: 1 (4.0)
|   |   |   |   |   |   |   |   |   |   |   |   obj3 > 776: 0 (2.0)
|   |   |   |   |   |   |   |   |   |   |   obj2 > 799: 0 (4.0)
|   |   |   |   |   |   |   |   lbl0 = 1: 0 (35.0/3.0)
|   |   |   |   |   |   obj1 > 992: 0 (2125.0/324.0)
|   |   |   |   |   obj3 > 998
|   |   |   |   |   |   lbl0 = 0: 0 (16.0/5.0)
|   |   |   |   |   |   lbl0 = 1
|   |   |   |   |   |   |   obj2 <= 819: 0 (3.0)
|   |   |   |   |   |   |   obj2 > 819: 1 (37.0/14.0)
|   |   |   |   obj1 > 998
|   |   |   |   |   lbl0 = 0
|   |   |   |   |   |   obj2 <= 773: 1 (210.0/97.0)
|   |   |   |   |   |   obj2 > 773: 0 (40.0/5.0)
|   |   |   |   |   lbl0 = 1
|   |   |   |   |   |   obj2 <= 950: 0 (269.0/60.0)
|   |   |   |   |   |   obj2 > 950: 1 (25.0/6.0)
lbl1 = 1
|   lbl0 = 0: 1 (75481.0/4663.0)
|   lbl0 = 1
|   |   obj1 <= 844
|   |   |   obj1 <= 733
|   |   |   |   obj1 <= 694
|   |   |   |   |   obj1 <= 600: 0 (413.0/174.0)
|   |   |   |   |   obj1 > 600: 1 (767.0/358.0)
|   |   |   |   obj1 > 694: 0 (419.0/140.0)
|   |   |   obj1 > 733
|   |   |   |   obj1 <= 771
|   |   |   |   |   obj1 <= 753
|   |   |   |   |   |   obj1 <= 747: 1 (253.0/106.0)
|   |   |   |   |   |   obj1 > 747: 0 (17.0/4.0)
|   |   |   |   |   obj1 > 753: 1 (1685.0/590.0)
|   |   |   |   obj1 > 771
|   |   |   |   |   obj1 <= 821: 0 (678.0/304.0)
|   |   |   |   |   obj1 > 821: 1 (417.0/166.0)
|   |   obj1 > 844
|   |   |   obj1 <= 950
|   |   |   |   obj1 <= 947
|   |   |   |   |   obj2 <= 870
|   |   |   |   |   |   obj2 <= 836: 0 (429.0/176.0)
|   |   |   |   |   |   obj2 > 836
|   |   |   |   |   |   |   obj1 <= 873: 0 (2.0)
|   |   |   |   |   |   |   obj1 > 873: 1 (23.0/4.0)
|   |   |   |   |   obj2 > 870
|   |   |   |   |   |   obj3 <= 835
|   |   |   |   |   |   |   obj2 <= 893: 0 (49.0/10.0)
|   |   |   |   |   |   |   obj2 > 893
|   |   |   |   |   |   |   |   obj2 <= 987: 1 (61.0/27.0)
|   |   |   |   |   |   |   |   obj2 > 987
|   |   |   |   |   |   |   |   |   obj1 <= 879: 1 (3.0/1.0)
|   |   |   |   |   |   |   |   |   obj1 > 879: 0 (32.0/5.0)
|   |   |   |   |   |   obj3 > 835
|   |   |   |   |   |   |   obj3 <= 950: 0 (85.0/8.0)
|   |   |   |   |   |   |   obj3 > 950
|   |   |   |   |   |   |   |   obj1 <= 878: 1 (5.0/1.0)
|   |   |   |   |   |   |   |   obj1 > 878
|   |   |   |   |   |   |   |   |   obj2 <= 946: 0 (17.0/2.0)
|   |   |   |   |   |   |   |   |   obj2 > 946
|   |   |   |   |   |   |   |   |   |   obj3 <= 966: 0 (3.0)
|   |   |   |   |   |   |   |   |   |   obj3 > 966
|   |   |   |   |   |   |   |   |   |   |   obj2 <= 967: 1 (4.0)
|   |   |   |   |   |   |   |   |   |   |   obj2 > 967
|   |   |   |   |   |   |   |   |   |   |   |   obj1 <= 892: 1 (3.0/1.0)
|   |   |   |   |   |   |   |   |   |   |   |   obj1 > 892: 0 (2.0)
|   |   |   |   obj1 > 947: 0 (273.0/62.0)
|   |   |   obj1 > 950
|   |   |   |   obj1 <= 974: 1 (218.0/95.0)
|   |   |   |   obj1 > 974
|   |   |   |   |   obj1 <= 998: 0 (199.0/52.0)
|   |   |   |   |   obj1 > 998: 1 (119.0/50.0)

Number of Leaves  : 	105

Size of the tree : 	209


meka.classifiers.multilabel.CC: Node #4

J48 pruned tree
------------------

lbl0 = 0
|   obj3 <= 368
|   |   obj3 <= 359
|   |   |   obj2 <= 733
|   |   |   |   obj1 <= 693
|   |   |   |   |   obj1 <= 678
|   |   |   |   |   |   lbl1 = 0: 1 (425.0/166.0)
|   |   |   |   |   |   lbl1 = 1
|   |   |   |   |   |   |   lbl2 = 0
|   |   |   |   |   |   |   |   obj1 <= 178: 1 (5.0)
|   |   |   |   |   |   |   |   obj1 > 178: 0 (59.0/23.0)
|   |   |   |   |   |   |   lbl2 = 1: 1 (592.0/284.0)
|   |   |   |   |   obj1 > 678
|   |   |   |   |   |   obj1 <= 686: 1 (126.0/8.0)
|   |   |   |   |   |   obj1 > 686
|   |   |   |   |   |   |   lbl2 = 0
|   |   |   |   |   |   |   |   obj3 <= 297: 1 (8.0/2.0)
|   |   |   |   |   |   |   |   obj3 > 297: 0 (17.0/6.0)
|   |   |   |   |   |   |   lbl2 = 1: 1 (38.0/14.0)
|   |   |   |   obj1 > 693
|   |   |   |   |   obj3 <= 321: 1 (2473.0/1169.0)
|   |   |   |   |   obj3 > 321
|   |   |   |   |   |   lbl1 = 0: 0 (104.0/49.0)
|   |   |   |   |   |   lbl1 = 1
|   |   |   |   |   |   |   obj2 <= 318: 1 (18.0/3.0)
|   |   |   |   |   |   |   obj2 > 318
|   |   |   |   |   |   |   |   lbl2 = 0
|   |   |   |   |   |   |   |   |   obj2 <= 672: 0 (7.0/1.0)
|   |   |   |   |   |   |   |   |   obj2 > 672: 1 (3.0)
|   |   |   |   |   |   |   |   lbl2 = 1: 0 (161.0/56.0)
|   |   |   obj2 > 733
|   |   |   |   lbl1 = 0
|   |   |   |   |   obj1 <= 303
|   |   |   |   |   |   obj1 <= 226: 1 (3.0)
|   |   |   |   |   |   obj1 > 226
|   |   |   |   |   |   |   obj2 <= 748: 1 (2.0)
|   |   |   |   |   |   |   obj2 > 748: 0 (41.0/7.0)
|   |   |   |   |   obj1 > 303: 1 (737.0/334.0)
|   |   |   |   lbl1 = 1: 0 (2025.0/875.0)
|   |   obj3 > 359
|   |   |   obj1 <= 703: 1 (264.0/44.0)
|   |   |   obj1 > 703
|   |   |   |   lbl2 = 0: 1 (16.0/5.0)
|   |   |   |   lbl2 = 1
|   |   |   |   |   obj2 <= 682: 1 (38.0/14.0)
|   |   |   |   |   obj2 > 682
|   |   |   |   |   |   obj2 <= 696: 0 (12.0)
|   |   |   |   |   |   obj2 > 696: 1 (16.0/5.0)
|   obj3 > 368
|   |   lbl1 = 0
|   |   |   obj1 <= 984
|   |   |   |   obj1 <= 947
|   |   |   |   |   obj1 <= 946
|   |   |   |   |   |   lbl2 = 0: 0 (16789.0/7907.0)
|   |   |   |   |   |   lbl2 = 1
|   |   |   |   |   |   |   obj3 <= 595
|   |   |   |   |   |   |   |   obj1 <= 803: 0 (256.0/126.0)
|   |   |   |   |   |   |   |   obj1 > 803
|   |   |   |   |   |   |   |   |   obj1 <= 805: 0 (35.0/1.0)
|   |   |   |   |   |   |   |   |   obj1 > 805
|   |   |   |   |   |   |   |   |   |   obj1 <= 817
|   |   |   |   |   |   |   |   |   |   |   obj2 <= 951: 1 (11.0/1.0)
|   |   |   |   |   |   |   |   |   |   |   obj2 > 951: 0 (2.0)
|   |   |   |   |   |   |   |   |   |   obj1 > 817: 0 (70.0/17.0)
|   |   |   |   |   |   |   obj3 > 595
|   |   |   |   |   |   |   |   obj1 <= 703
|   |   |   |   |   |   |   |   |   obj1 <= 677
|   |   |   |   |   |   |   |   |   |   obj1 <= 674: 1 (667.0/309.0)
|   |   |   |   |   |   |   |   |   |   obj1 > 674: 0 (58.0/8.0)
|   |   |   |   |   |   |   |   |   obj1 > 677
|   |   |   |   |   |   |   |   |   |   obj1 <= 682: 1 (41.0/3.0)
|   |   |   |   |   |   |   |   |   |   obj1 > 682
|   |   |   |   |   |   |   |   |   |   |   obj3 <= 684: 1 (65.0/11.0)
|   |   |   |   |   |   |   |   |   |   |   obj3 > 684
|   |   |   |   |   |   |   |   |   |   |   |   obj1 <= 688
|   |   |   |   |   |   |   |   |   |   |   |   |   obj2 <= 685: 1 (11.0/2.0)
|   |   |   |   |   |   |   |   |   |   |   |   |   obj2 > 685: 0 (32.0/10.0)
|   |   |   |   |   |   |   |   |   |   |   |   obj1 > 688
|   |   |   |   |   |   |   |   |   |   |   |   |   obj1 <= 702
|   |   |   |   |   |   |   |   |   |   |   |   |   |   obj1 <= 694: 1 (426.0/155.0)
|   |   |   |   |   |   |   |   |   |   |   |   |   |   obj1 > 694: 0 (57.0/25.0)
|   |   |   |   |   |   |   |   |   |   |   |   |   obj1 > 702: 1 (25.0/5.0)
|   |   |   |   |   |   |   |   obj1 > 703: 1 (5074.0/2452.0)
|   |   |   |   |   obj1 > 946
|   |   |   |   |   |   obj3 <= 757: 0 (56.0/23.0)
|   |   |   |   |   |   obj3 > 757: 1 (533.0/198.0)
|   |   |   |   obj1 > 947
|   |   |   |   |   obj1 <= 950
|   |   |   |   |   |   lbl2 = 0: 0 (841.0/180.0)
|   |   |   |   |   |   lbl2 = 1: 1 (109.0/45.0)
|   |   |   |   |   obj1 > 950
|   |   |   |   |   |   obj1 <= 975: 1 (1786.0/891.0)
|   |   |   |   |   |   obj1 > 975: 0 (33.0/10.0)
|   |   |   obj1 > 984
|   |   |   |   obj1 <= 995
|   |   |   |   |   obj1 <= 992
|   |   |   |   |   |   lbl2 = 0: 1 (80.0/28.0)
|   |   |   |   |   |   lbl2 = 1
|   |   |   |   |   |   |   obj3 <= 919
|   |   |   |   |   |   |   |   obj3 <= 824
|   |   |   |   |   |   |   |   |   obj3 <= 772
|   |   |   |   |   |   |   |   |   |   obj2 <= 512: 0 (3.0)
|   |   |   |   |   |   |   |   |   |   obj2 > 512: 1 (27.0/9.0)
|   |   |   |   |   |   |   |   |   obj3 > 772: 0 (12.0/3.0)
|   |   |   |   |   |   |   |   obj3 > 824: 1 (6.0/1.0)
|   |   |   |   |   |   |   obj3 > 919: 0 (7.0)
|   |   |   |   |   obj1 > 992: 1 (707.0/259.0)
|   |   |   |   obj1 > 995
|   |   |   |   |   lbl2 = 0
|   |   |   |   |   |   obj3 <= 897: 0 (185.0/70.0)
|   |   |   |   |   |   obj3 > 897: 1 (76.0/29.0)
|   |   |   |   |   lbl2 = 1: 1 (128.0/40.0)
|   |   lbl1 = 1
|   |   |   lbl2 = 0
|   |   |   |   obj1 <= 445
|   |   |   |   |   obj1 <= 362: 0 (115.0/52.0)
|   |   |   |   |   obj1 > 362: 1 (14.0/2.0)
|   |   |   |   obj1 > 445
|   |   |   |   |   obj1 <= 809: 0 (2706.0/846.0)
|   |   |   |   |   obj1 > 809
|   |   |   |   |   |   obj1 <= 822
|   |   |   |   |   |   |   obj1 <= 813: 0 (109.0/45.0)
|   |   |   |   |   |   |   obj1 > 813: 1 (71.0/28.0)
|   |   |   |   |   |   obj1 > 822
|   |   |   |   |   |   |   obj1 <= 831: 0 (117.0/27.0)
|   |   |   |   |   |   |   obj1 > 831
|   |   |   |   |   |   |   |   obj1 <= 863
|   |   |   |   |   |   |   |   |   obj2 <= 768
|   |   |   |   |   |   |   |   |   |   obj1 <= 850
|   |   |   |   |   |   |   |   |   |   |   obj2 <= 630
|   |   |   |   |   |   |   |   |   |   |   |   obj2 <= 541
|   |   |   |   |   |   |   |   |   |   |   |   |   obj2 <= 429: 1 (2.0)
|   |   |   |   |   |   |   |   |   |   |   |   |   obj2 > 429: 0 (2.0)
|   |   |   |   |   |   |   |   |   |   |   |   obj2 > 541: 1 (3.0)
|   |   |   |   |   |   |   |   |   |   |   obj2 > 630: 0 (56.0/10.0)
|   |   |   |   |   |   |   |   |   |   obj1 > 850: 1 (5.0)
|   |   |   |   |   |   |   |   |   obj2 > 768
|   |   |   |   |   |   |   |   |   |   obj2 <= 823: 1 (55.0/13.0)
|   |   |   |   |   |   |   |   |   |   obj2 > 823: 0 (27.0/10.0)
|   |   |   |   |   |   |   |   obj1 > 863: 0 (1085.0/294.0)
|   |   |   lbl2 = 1
|   |   |   |   obj1 <= 676
|   |   |   |   |   obj1 <= 598
|   |   |   |   |   |   obj1 <= 369
|   |   |   |   |   |   |   obj1 <= 365: 0 (1622.0/805.0)
|   |   |   |   |   |   |   obj1 > 365: 1 (96.0/27.0)
|   |   |   |   |   |   obj1 > 369
|   |   |   |   |   |   |   obj1 <= 595: 0 (1916.0/789.0)
|   |   |   |   |   |   |   obj1 > 595
|   |   |   |   |   |   |   |   obj2 <= 717: 1 (52.0/12.0)
|   |   |   |   |   |   |   |   obj2 > 717: 0 (6.0/1.0)
|   |   |   |   |   obj1 > 598
|   |   |   |   |   |   obj1 <= 613
|   |   |   |   |   |   |   obj2 <= 616: 0 (414.0/57.0)
|   |   |   |   |   |   |   obj2 > 616
|   |   |   |   |   |   |   |   obj2 <= 767
|   |   |   |   |   |   |   |   |   obj2 <= 707: 0 (72.0/24.0)
|   |   |   |   |   |   |   |   |   obj2 > 707: 1 (116.0/48.0)
|   |   |   |   |   |   |   |   obj2 > 767: 0 (71.0/20.0)
|   |   |   |   |   |   obj1 > 613: 0 (2835.0/997.0)
|   |   |   |   obj1 > 676
|   |   |   |   |   obj1 <= 694
|   |   |   |   |   |   obj2 <= 694: 1 (2034.0/863.0)
|   |   |   |   |   |   obj2 > 694
|   |   |   |   |   |   |   obj2 <= 697
|   |   |   |   |   |   |   |   obj1 <= 693: 1 (37.0/11.0)
|   |   |   |   |   |   |   |   obj1 > 693: 0 (363.0/142.0)
|   |   |   |   |   |   |   obj2 > 697: 1 (1267.0/615.0)
|   |   |   |   |   obj1 > 694
|   |   |   |   |   |   obj2 <= 893
|   |   |   |   |   |   |   obj1 <= 765: 0 (23000.0/10581.0)
|   |   |   |   |   |   |   obj1 > 765
|   |   |   |   |   |   |   |   obj1 <= 897: 0 (13479.0/5508.0)
|   |   |   |   |   |   |   |   obj1 > 897
|   |   |   |   |   |   |   |   |   obj1 <= 950
|   |   |   |   |   |   |   |   |   |   obj1 <= 947
|   |   |   |   |   |   |   |   |   |   |   obj1 <= 900: 1 (670.0/293.0)
|   |   |   |   |   |   |   |   |   |   |   obj1 > 900
|   |   |   |   |   |   |   |   |   |   |   |   obj1 <= 903
|   |   |   |   |   |   |   |   |   |   |   |   |   obj2 <= 345
|   |   |   |   |   |   |   |   |   |   |   |   |   |   obj2 <= 311
|   |   |   |   |   |   |   |   |   |   |   |   |   |   |   obj3 <= 846: 0 (6.0/2.0)
|   |   |   |   |   |   |   |   |   |   |   |   |   |   |   obj3 > 846: 1 (2.0)
|   |   |   |   |   |   |   |   |   |   |   |   |   |   obj2 > 311: 1 (4.0)
|   |   |   |   |   |   |   |   |   |   |   |   |   obj2 > 345: 0 (56.0/13.0)
|   |   |   |   |   |   |   |   |   |   |   |   obj1 > 903: 0 (747.0/361.0)
|   |   |   |   |   |   |   |   |   |   obj1 > 947: 1 (703.0/282.0)
|   |   |   |   |   |   |   |   |   obj1 > 950
|   |   |   |   |   |   |   |   |   |   obj2 <= 833
|   |   |   |   |   |   |   |   |   |   |   obj3 <= 677: 0 (420.0/149.0)
|   |   |   |   |   |   |   |   |   |   |   obj3 > 677
|   |   |   |   |   |   |   |   |   |   |   |   obj3 <= 735
|   |   |   |   |   |   |   |   |   |   |   |   |   obj3 <= 693: 1 (23.0/4.0)
|   |   |   |   |   |   |   |   |   |   |   |   |   obj3 > 693
|   |   |   |   |   |   |   |   |   |   |   |   |   |   obj2 <= 795: 0 (350.0/169.0)
|   |   |   |   |   |   |   |   |   |   |   |   |   |   obj2 > 795: 1 (48.0/13.0)
|   |   |   |   |   |   |   |   |   |   |   |   obj3 > 735: 0 (3865.0/1720.0)
|   |   |   |   |   |   |   |   |   |   obj2 > 833
|   |   |   |   |   |   |   |   |   |   |   obj1 <= 989: 0 (321.0/100.0)
|   |   |   |   |   |   |   |   |   |   |   obj1 > 989
|   |   |   |   |   |   |   |   |   |   |   |   obj1 <= 992
|   |   |   |   |   |   |   |   |   |   |   |   |   obj1 <= 991: 1 (10.0/1.0)
|   |   |   |   |   |   |   |   |   |   |   |   |   obj1 > 991: 0 (2.0)
|   |   |   |   |   |   |   |   |   |   |   |   obj1 > 992: 0 (214.0/89.0)
|   |   |   |   |   |   obj2 > 893
|   |   |   |   |   |   |   obj3 <= 574: 0 (162.0/50.0)
|   |   |   |   |   |   |   obj3 > 574
|   |   |   |   |   |   |   |   obj2 <= 949: 1 (2689.0/1270.0)
|   |   |   |   |   |   |   |   obj2 > 949
|   |   |   |   |   |   |   |   |   obj2 <= 954
|   |   |   |   |   |   |   |   |   |   obj2 <= 951
|   |   |   |   |   |   |   |   |   |   |   obj1 <= 823
|   |   |   |   |   |   |   |   |   |   |   |   obj1 <= 821: 0 (34.0/9.0)
|   |   |   |   |   |   |   |   |   |   |   |   obj1 > 821: 1 (4.0)
|   |   |   |   |   |   |   |   |   |   |   obj1 > 823: 0 (39.0/3.0)
|   |   |   |   |   |   |   |   |   |   obj2 > 951
|   |   |   |   |   |   |   |   |   |   |   obj2 <= 952: 1 (29.0/11.0)
|   |   |   |   |   |   |   |   |   |   |   obj2 > 952: 0 (2688.0/1158.0)
|   |   |   |   |   |   |   |   |   obj2 > 954
|   |   |   |   |   |   |   |   |   |   obj3 <= 954: 0 (5483.0/2619.0)
|   |   |   |   |   |   |   |   |   |   obj3 > 954: 1 (226.0/88.0)
lbl0 = 1
|   lbl1 = 0
|   |   obj1 <= 892
|   |   |   obj1 <= 702: 1 (4838.0/1550.0)
|   |   |   obj1 > 702
|   |   |   |   lbl2 = 0
|   |   |   |   |   obj3 <= 880
|   |   |   |   |   |   obj2 <= 850
|   |   |   |   |   |   |   obj3 <= 314: 1 (116.0/27.0)
|   |   |   |   |   |   |   obj3 > 314
|   |   |   |   |   |   |   |   obj1 <= 866
|   |   |   |   |   |   |   |   |   obj1 <= 841
|   |   |   |   |   |   |   |   |   |   obj2 <= 843
|   |   |   |   |   |   |   |   |   |   |   obj3 <= 843
|   |   |   |   |   |   |   |   |   |   |   |   obj1 <= 703
|   |   |   |   |   |   |   |   |   |   |   |   |   obj3 <= 704
|   |   |   |   |   |   |   |   |   |   |   |   |   |   obj2 <= 617: 1 (9.0)
|   |   |   |   |   |   |   |   |   |   |   |   |   |   obj2 > 617
|   |   |   |   |   |   |   |   |   |   |   |   |   |   |   obj3 <= 588: 0 (13.0/3.0)
|   |   |   |   |   |   |   |   |   |   |   |   |   |   |   obj3 > 588: 1 (67.0/28.0)
|   |   |   |   |   |   |   |   |   |   |   |   |   obj3 > 704: 0 (119.0/43.0)
|   |   |   |   |   |   |   |   |   |   |   |   obj1 > 703: 1 (4062.0/1748.0)
|   |   |   |   |   |   |   |   |   |   |   obj3 > 843
|   |   |   |   |   |   |   |   |   |   |   |   obj3 <= 845
|   |   |   |   |   |   |   |   |   |   |   |   |   obj1 <= 768
|   |   |   |   |   |   |   |   |   |   |   |   |   |   obj1 <= 737: 0 (3.0)
|   |   |   |   |   |   |   |   |   |   |   |   |   |   obj1 > 737
|   |   |   |   |   |   |   |   |   |   |   |   |   |   |   obj2 <= 634: 0 (5.0)
|   |   |   |   |   |   |   |   |   |   |   |   |   |   |   obj2 > 634: 1 (51.0/19.0)
|   |   |   |   |   |   |   |   |   |   |   |   |   obj1 > 768
|   |   |   |   |   |   |   |   |   |   |   |   |   |   obj2 <= 768
|   |   |   |   |   |   |   |   |   |   |   |   |   |   |   obj2 <= 738: 0 (10.0/2.0)
|   |   |   |   |   |   |   |   |   |   |   |   |   |   |   obj2 > 738: 1 (18.0/7.0)
|   |   |   |   |   |   |   |   |   |   |   |   |   |   obj2 > 768
|   |   |   |   |   |   |   |   |   |   |   |   |   |   |   obj2 <= 792: 0 (32.0/3.0)
|   |   |   |   |   |   |   |   |   |   |   |   |   |   |   obj2 > 792
|   |   |   |   |   |   |   |   |   |   |   |   |   |   |   |   obj2 <= 817: 1 (3.0)
|   |   |   |   |   |   |   |   |   |   |   |   |   |   |   |   obj2 > 817
|   |   |   |   |   |   |   |   |   |   |   |   |   |   |   |   |   obj2 <= 826: 0 (44.0/8.0)
|   |   |   |   |   |   |   |   |   |   |   |   |   |   |   |   |   obj2 > 826: 1 (3.0/1.0)
|   |   |   |   |   |   |   |   |   |   |   |   obj3 > 845: 1 (201.0/87.0)
|   |   |   |   |   |   |   |   |   |   obj2 > 843
|   |   |   |   |   |   |   |   |   |   |   obj1 <= 762
|   |   |   |   |   |   |   |   |   |   |   |   obj3 <= 822: 1 (58.0/22.0)
|   |   |   |   |   |   |   |   |   |   |   |   obj3 > 822: 0 (4.0)
|   |   |   |   |   |   |   |   |   |   |   obj1 > 762
|   |   |   |   |   |   |   |   |   |   |   |   obj1 <= 777: 0 (57.0/9.0)
|   |   |   |   |   |   |   |   |   |   |   |   obj1 > 777
|   |   |   |   |   |   |   |   |   |   |   |   |   obj3 <= 735: 1 (13.0/3.0)
|   |   |   |   |   |   |   |   |   |   |   |   |   obj3 > 735: 0 (102.0/38.0)
|   |   |   |   |   |   |   |   |   obj1 > 841
|   |   |   |   |   |   |   |   |   |   obj2 <= 699: 1 (44.0/17.0)
|   |   |   |   |   |   |   |   |   |   obj2 > 699: 0 (308.0/112.0)
|   |   |   |   |   |   |   |   obj1 > 866
|   |   |   |   |   |   |   |   |   obj1 <= 881: 1 (223.0/46.0)
|   |   |   |   |   |   |   |   |   obj1 > 881: 0 (164.0/78.0)
|   |   |   |   |   |   obj2 > 850
|   |   |   |   |   |   |   obj1 <= 884: 1 (1815.0/659.0)
|   |   |   |   |   |   |   obj1 > 884
|   |   |   |   |   |   |   |   obj2 <= 971: 1 (208.0/84.0)
|   |   |   |   |   |   |   |   obj2 > 971: 0 (265.0/120.0)
|   |   |   |   |   obj3 > 880
|   |   |   |   |   |   obj1 <= 878: 1 (2034.0/712.0)
|   |   |   |   |   |   obj1 > 878
|   |   |   |   |   |   |   obj3 <= 947: 1 (198.0/70.0)
|   |   |   |   |   |   |   obj3 > 947: 0 (326.0/154.0)
|   |   |   |   lbl2 = 1
|   |   |   |   |   obj1 <= 710: 1 (228.0/42.0)
|   |   |   |   |   obj1 > 710
|   |   |   |   |   |   obj2 <= 863
|   |   |   |   |   |   |   obj1 <= 880
|   |   |   |   |   |   |   |   obj1 <= 736
|   |   |   |   |   |   |   |   |   obj1 <= 713
|   |   |   |   |   |   |   |   |   |   obj2 <= 709: 0 (12.0/3.0)
|   |   |   |   |   |   |   |   |   |   obj2 > 709: 1 (4.0)
|   |   |   |   |   |   |   |   |   obj1 > 713: 1 (81.0/18.0)
|   |   |   |   |   |   |   |   obj1 > 736
|   |   |   |   |   |   |   |   |   obj1 <= 775
|   |   |   |   |   |   |   |   |   |   obj1 <= 769: 1 (1227.0/521.0)
|   |   |   |   |   |   |   |   |   |   obj1 > 769: 0 (95.0/31.0)
|   |   |   |   |   |   |   |   |   obj1 > 775: 1 (864.0/305.0)
|   |   |   |   |   |   |   obj1 > 880: 0 (74.0/27.0)
|   |   |   |   |   |   obj2 > 863: 1 (1008.0/292.0)
|   |   obj1 > 892
|   |   |   obj1 <= 998: 1 (5889.0/1720.0)
|   |   |   obj1 > 998
|   |   |   |   obj2 <= 867
|   |   |   |   |   obj3 <= 896: 0 (223.0/83.0)
|   |   |   |   |   obj3 > 896
|   |   |   |   |   |   obj3 <= 925: 1 (15.0/1.0)
|   |   |   |   |   |   obj3 > 925
|   |   |   |   |   |   |   obj3 <= 960: 0 (3.0)
|   |   |   |   |   |   |   obj3 > 960: 1 (6.0/1.0)
|   |   |   |   obj2 > 867: 1 (47.0/11.0)
|   lbl1 = 1
|   |   obj1 <= 694
|   |   |   lbl2 = 0: 0 (597.0/248.0)
|   |   |   lbl2 = 1
|   |   |   |   obj2 <= 703: 1 (318.0/128.0)
|   |   |   |   obj2 > 703
|   |   |   |   |   obj3 <= 826: 0 (218.0/80.0)
|   |   |   |   |   obj3 > 826: 1 (47.0/18.0)
|   |   obj1 > 694
|   |   |   lbl2 = 0
|   |   |   |   obj2 <= 726
|   |   |   |   |   obj1 <= 756: 0 (285.0/90.0)
|   |   |   |   |   obj1 > 756
|   |   |   |   |   |   obj1 <= 884: 1 (154.0/60.0)
|   |   |   |   |   |   obj1 > 884: 0 (144.0/53.0)
|   |   |   |   obj2 > 726: 0 (1900.0/628.0)
|   |   |   lbl2 = 1
|   |   |   |   obj1 <= 820
|   |   |   |   |   obj1 <= 812
|   |   |   |   |   |   obj1 <= 799
|   |   |   |   |   |   |   obj1 <= 790: 0 (1413.0/521.0)
|   |   |   |   |   |   |   obj1 > 790: 1 (24.0/7.0)
|   |   |   |   |   |   obj1 > 799: 0 (220.0/70.0)
|   |   |   |   |   obj1 > 812: 1 (33.0/7.0)
|   |   |   |   obj1 > 820: 0 (823.0/352.0)

Number of Leaves  : 	171

Size of the tree : 	341


meka.classifiers.multilabel.CC: Node #5

J48 pruned tree
------------------

lbl2 = 0
|   lbl1 = 0: 0 (41309.0/114.0)
|   lbl1 = 1
|   |   lbl0 = 0
|   |   |   lbl3 = 0
|   |   |   |   obj1 <= 767
|   |   |   |   |   obj2 <= 974
|   |   |   |   |   |   obj2 <= 951: 0 (1520.0/503.0)
|   |   |   |   |   |   obj2 > 951: 1 (116.0/42.0)
|   |   |   |   |   obj2 > 974: 0 (87.0/16.0)
|   |   |   |   obj1 > 767
|   |   |   |   |   obj2 <= 769
|   |   |   |   |   |   obj1 <= 868
|   |   |   |   |   |   |   obj1 <= 838
|   |   |   |   |   |   |   |   obj2 <= 756: 0 (225.0/68.0)
|   |   |   |   |   |   |   |   obj2 > 756
|   |   |   |   |   |   |   |   |   obj2 <= 763: 0 (14.0)
|   |   |   |   |   |   |   |   |   obj2 > 763: 1 (6.0/1.0)
|   |   |   |   |   |   |   obj1 > 838: 1 (50.0/15.0)
|   |   |   |   |   |   obj1 > 868: 0 (391.0/75.0)
|   |   |   |   |   obj2 > 769: 0 (744.0/136.0)
|   |   |   lbl3 = 1
|   |   |   |   obj1 <= 949: 0 (1379.0/175.0)
|   |   |   |   obj1 > 949
|   |   |   |   |   obj1 <= 953
|   |   |   |   |   |   obj1 <= 952: 0 (3.0/1.0)
|   |   |   |   |   |   obj1 > 952: 1 (15.0/4.0)
|   |   |   |   |   obj1 > 953: 0 (113.0/12.0)
|   |   lbl0 = 1: 0 (3080.0/115.0)
lbl2 = 1
|   lbl0 = 0
|   |   lbl1 = 0
|   |   |   lbl3 = 0
|   |   |   |   obj1 <= 946
|   |   |   |   |   obj2 <= 902
|   |   |   |   |   |   obj2 <= 856
|   |   |   |   |   |   |   obj2 <= 593
|   |   |   |   |   |   |   |   obj2 <= 582: 0 (380.0/173.0)
|   |   |   |   |   |   |   |   obj2 > 582: 1 (65.0/16.0)
|   |   |   |   |   |   |   obj2 > 593
|   |   |   |   |   |   |   |   obj2 <= 777: 0 (1482.0/540.0)
|   |   |   |   |   |   |   |   obj2 > 777
|   |   |   |   |   |   |   |   |   obj2 <= 805
|   |   |   |   |   |   |   |   |   |   obj2 <= 803
|   |   |   |   |   |   |   |   |   |   |   obj2 <= 798: 1 (65.0/28.0)
|   |   |   |   |   |   |   |   |   |   |   obj2 > 798
|   |   |   |   |   |   |   |   |   |   |   |   obj3 <= 831
|   |   |   |   |   |   |   |   |   |   |   |   |   obj3 <= 782: 0 (22.0/7.0)
|   |   |   |   |   |   |   |   |   |   |   |   |   obj3 > 782: 1 (3.0)
|   |   |   |   |   |   |   |   |   |   |   |   obj3 > 831: 0 (10.0)
|   |   |   |   |   |   |   |   |   |   obj2 > 803: 1 (36.0/6.0)
|   |   |   |   |   |   |   |   |   obj2 > 805
|   |   |   |   |   |   |   |   |   |   obj2 <= 843
|   |   |   |   |   |   |   |   |   |   |   obj2 <= 823
|   |   |   |   |   |   |   |   |   |   |   |   obj1 <= 674: 1 (25.0/7.0)
|   |   |   |   |   |   |   |   |   |   |   |   obj1 > 674: 0 (336.0/143.0)
|   |   |   |   |   |   |   |   |   |   |   obj2 > 823: 0 (112.0/32.0)
|   |   |   |   |   |   |   |   |   |   obj2 > 843
|   |   |   |   |   |   |   |   |   |   |   obj1 <= 760
|   |   |   |   |   |   |   |   |   |   |   |   obj1 <= 708
|   |   |   |   |   |   |   |   |   |   |   |   |   obj1 <= 633: 1 (3.0/1.0)
|   |   |   |   |   |   |   |   |   |   |   |   |   obj1 > 633: 0 (5.0)
|   |   |   |   |   |   |   |   |   |   |   |   obj1 > 708: 1 (124.0/50.0)
|   |   |   |   |   |   |   |   |   |   |   obj1 > 760
|   |   |   |   |   |   |   |   |   |   |   |   obj1 <= 844
|   |   |   |   |   |   |   |   |   |   |   |   |   obj1 <= 822: 0 (19.0/5.0)
|   |   |   |   |   |   |   |   |   |   |   |   |   obj1 > 822
|   |   |   |   |   |   |   |   |   |   |   |   |   |   obj3 <= 796
|   |   |   |   |   |   |   |   |   |   |   |   |   |   |   obj3 <= 757: 1 (2.0)
|   |   |   |   |   |   |   |   |   |   |   |   |   |   |   obj3 > 757: 0 (2.0)
|   |   |   |   |   |   |   |   |   |   |   |   |   |   obj3 > 796: 1 (3.0)
|   |   |   |   |   |   |   |   |   |   |   |   obj1 > 844: 0 (6.0)
|   |   |   |   |   |   obj2 > 856: 0 (307.0/81.0)
|   |   |   |   |   obj2 > 902
|   |   |   |   |   |   obj2 <= 903
|   |   |   |   |   |   |   obj1 <= 694: 0 (4.0)
|   |   |   |   |   |   |   obj1 > 694: 1 (33.0/2.0)
|   |   |   |   |   |   obj2 > 903: 1 (498.0/247.0)
|   |   |   |   obj1 > 946
|   |   |   |   |   obj1 <= 992
|   |   |   |   |   |   obj1 <= 954: 1 (212.0/59.0)
|   |   |   |   |   |   obj1 > 954
|   |   |   |   |   |   |   obj1 <= 965: 0 (32.0/10.0)
|   |   |   |   |   |   |   obj1 > 965: 1 (128.0/47.0)
|   |   |   |   |   obj1 > 992: 0 (91.0/31.0)
|   |   |   lbl3 = 1: 0 (4541.0/1125.0)
|   |   lbl1 = 1: 1 (70818.0/18144.0)
|   lbl0 = 1: 0 (8889.0/912.0)

Number of Leaves  : 	45

Size of the tree : 	89


meka.classifiers.multilabel.CC: Node #6

J48 pruned tree
------------------

lbl2 = 0
|   lbl4 = 0
|   |   lbl1 = 0
|   |   |   lbl3 = 0
|   |   |   |   obj1 <= 947: 0 (16046.0/3466.0)
|   |   |   |   obj1 > 947
|   |   |   |   |   obj1 <= 948
|   |   |   |   |   |   lbl0 = 0
|   |   |   |   |   |   |   obj2 <= 771
|   |   |   |   |   |   |   |   obj2 <= 752: 1 (149.0/24.0)
|   |   |   |   |   |   |   |   obj2 > 752
|   |   |   |   |   |   |   |   |   obj3 <= 682: 1 (10.0/1.0)
|   |   |   |   |   |   |   |   |   obj3 > 682
|   |   |   |   |   |   |   |   |   |   obj2 <= 760: 0 (41.0/15.0)
|   |   |   |   |   |   |   |   |   |   obj2 > 760
|   |   |   |   |   |   |   |   |   |   |   obj3 <= 792: 0 (3.0/1.0)
|   |   |   |   |   |   |   |   |   |   |   obj3 > 792: 1 (3.0)
|   |   |   |   |   |   |   obj2 > 771: 1 (477.0/50.0)
|   |   |   |   |   |   lbl0 = 1: 0 (185.0/24.0)
|   |   |   |   |   obj1 > 948: 0 (1754.0/401.0)
|   |   |   lbl3 = 1
|   |   |   |   lbl0 = 0
|   |   |   |   |   obj1 <= 844
|   |   |   |   |   |   obj1 <= 763
|   |   |   |   |   |   |   obj1 <= 752: 0 (3451.0/1292.0)
|   |   |   |   |   |   |   obj1 > 752: 1 (1762.0/835.0)
|   |   |   |   |   |   obj1 > 763
|   |   |   |   |   |   |   obj1 <= 770: 0 (293.0/81.0)
|   |   |   |   |   |   |   obj1 > 770
|   |   |   |   |   |   |   |   obj3 <= 844
|   |   |   |   |   |   |   |   |   obj3 <= 742: 0 (496.0/195.0)
|   |   |   |   |   |   |   |   |   obj3 > 742: 1 (627.0/303.0)
|   |   |   |   |   |   |   |   obj3 > 844
|   |   |   |   |   |   |   |   |   obj3 <= 922: 0 (293.0/88.0)
|   |   |   |   |   |   |   |   |   obj3 > 922
|   |   |   |   |   |   |   |   |   |   obj1 <= 815
|   |   |   |   |   |   |   |   |   |   |   obj1 <= 810: 0 (137.0/61.0)
|   |   |   |   |   |   |   |   |   |   |   obj1 > 810
|   |   |   |   |   |   |   |   |   |   |   |   obj1 <= 811: 1 (34.0/7.0)
|   |   |   |   |   |   |   |   |   |   |   |   obj1 > 811
|   |   |   |   |   |   |   |   |   |   |   |   |   obj1 <= 812: 0 (5.0/1.0)
|   |   |   |   |   |   |   |   |   |   |   |   |   obj1 > 812: 1 (5.0/1.0)
|   |   |   |   |   |   |   |   |   |   obj1 > 815: 0 (131.0/47.0)
|   |   |   |   |   obj1 > 844
|   |   |   |   |   |   obj1 <= 985: 0 (2592.0/850.0)
|   |   |   |   |   |   obj1 > 985
|   |   |   |   |   |   |   obj2 <= 851
|   |   |   |   |   |   |   |   obj3 <= 851
|   |   |   |   |   |   |   |   |   obj1 <= 994: 1 (174.0/44.0)
|   |   |   |   |   |   |   |   |   obj1 > 994
|   |   |   |   |   |   |   |   |   |   obj2 <= 638: 0 (7.0)
|   |   |   |   |   |   |   |   |   |   obj2 > 638: 1 (36.0/16.0)
|   |   |   |   |   |   |   |   obj3 > 851
|   |   |   |   |   |   |   |   |   obj3 <= 969: 0 (104.0/46.0)
|   |   |   |   |   |   |   |   |   obj3 > 969
|   |   |   |   |   |   |   |   |   |   obj1 <= 992: 0 (3.0/1.0)
|   |   |   |   |   |   |   |   |   |   obj1 > 992: 1 (12.0/1.0)
|   |   |   |   |   |   |   obj2 > 851: 0 (207.0/69.0)
|   |   |   |   lbl0 = 1
|   |   |   |   |   obj3 <= 703
|   |   |   |   |   |   obj1 <= 933
|   |   |   |   |   |   |   obj3 <= 200: 1 (38.0/12.0)
|   |   |   |   |   |   |   obj3 > 200: 0 (2717.0/901.0)
|   |   |   |   |   |   obj1 > 933
|   |   |   |   |   |   |   obj1 <= 949: 1 (280.0/117.0)
|   |   |   |   |   |   |   obj1 > 949: 0 (163.0/39.0)
|   |   |   |   |   obj3 > 703
|   |   |   |   |   |   obj2 <= 838
|   |   |   |   |   |   |   obj1 <= 931
|   |   |   |   |   |   |   |   obj1 <= 838
|   |   |   |   |   |   |   |   |   obj1 <= 810: 0 (3083.0/870.0)
|   |   |   |   |   |   |   |   |   obj1 > 810
|   |   |   |   |   |   |   |   |   |   obj1 <= 818
|   |   |   |   |   |   |   |   |   |   |   obj1 <= 812
|   |   |   |   |   |   |   |   |   |   |   |   obj2 <= 657: 1 (5.0)
|   |   |   |   |   |   |   |   |   |   |   |   obj2 > 657
|   |   |   |   |   |   |   |   |   |   |   |   |   obj3 <= 803: 0 (18.0/4.0)
|   |   |   |   |   |   |   |   |   |   |   |   |   obj3 > 803: 1 (31.0/4.0)
|   |   |   |   |   |   |   |   |   |   |   obj1 > 812
|   |   |   |   |   |   |   |   |   |   |   |   obj1 <= 813: 0 (82.0/36.0)
|   |   |   |   |   |   |   |   |   |   |   |   obj1 > 813
|   |   |   |   |   |   |   |   |   |   |   |   |   obj3 <= 864: 0 (2.0)
|   |   |   |   |   |   |   |   |   |   |   |   |   obj3 > 864: 1 (3.0)
|   |   |   |   |   |   |   |   |   |   obj1 > 818
|   |   |   |   |   |   |   |   |   |   |   obj1 <= 830: 0 (183.0/41.0)
|   |   |   |   |   |   |   |   |   |   |   obj1 > 830: 1 (19.0/7.0)
|   |   |   |   |   |   |   |   obj1 > 838: 0 (1212.0/258.0)
|   |   |   |   |   |   |   obj1 > 931
|   |   |   |   |   |   |   |   obj1 <= 963
|   |   |   |   |   |   |   |   |   obj2 <= 493: 1 (92.0/32.0)
|   |   |   |   |   |   |   |   |   obj2 > 493
|   |   |   |   |   |   |   |   |   |   obj2 <= 809: 0 (311.0/126.0)
|   |   |   |   |   |   |   |   |   |   obj2 > 809: 1 (100.0/38.0)
|   |   |   |   |   |   |   |   obj1 > 963
|   |   |   |   |   |   |   |   |   obj1 <= 974: 0 (83.0/11.0)
|   |   |   |   |   |   |   |   |   obj1 > 974
|   |   |   |   |   |   |   |   |   |   obj1 <= 991
|   |   |   |   |   |   |   |   |   |   |   obj1 <= 980
|   |   |   |   |   |   |   |   |   |   |   |   obj2 <= 797: 0 (19.0/5.0)
|   |   |   |   |   |   |   |   |   |   |   |   obj2 > 797: 1 (2.0)
|   |   |   |   |   |   |   |   |   |   |   obj1 > 980: 1 (11.0/1.0)
|   |   |   |   |   |   |   |   |   |   obj1 > 991: 0 (433.0/110.0)
|   |   |   |   |   |   obj2 > 838
|   |   |   |   |   |   |   obj1 <= 947
|   |   |   |   |   |   |   |   obj1 <= 819
|   |   |   |   |   |   |   |   |   obj1 <= 810
|   |   |   |   |   |   |   |   |   |   obj3 <= 998: 0 (1146.0/250.0)
|   |   |   |   |   |   |   |   |   |   obj3 > 998
|   |   |   |   |   |   |   |   |   |   |   obj1 <= 736: 1 (2.0)
|   |   |   |   |   |   |   |   |   |   |   obj1 > 736
|   |   |   |   |   |   |   |   |   |   |   |   obj2 <= 924: 1 (21.0/9.0)
|   |   |   |   |   |   |   |   |   |   |   |   obj2 > 924: 0 (4.0)
|   |   |   |   |   |   |   |   |   obj1 > 810
|   |   |   |   |   |   |   |   |   |   obj1 <= 812
|   |   |   |   |   |   |   |   |   |   |   obj2 <= 986: 1 (23.0/2.0)
|   |   |   |   |   |   |   |   |   |   |   obj2 > 986: 0 (3.0)
|   |   |   |   |   |   |   |   |   |   obj1 > 812: 0 (99.0/34.0)
|   |   |   |   |   |   |   |   obj1 > 819: 0 (1369.0/229.0)
|   |   |   |   |   |   |   obj1 > 947
|   |   |   |   |   |   |   |   obj1 <= 950: 1 (149.0/70.0)
|   |   |   |   |   |   |   |   obj1 > 950: 0 (455.0/74.0)
|   |   lbl1 = 1
|   |   |   lbl0 = 0
|   |   |   |   obj1 <= 873
|   |   |   |   |   lbl3 = 0: 1 (1604.0/473.0)
|   |   |   |   |   lbl3 = 1
|   |   |   |   |   |   obj3 <= 900
|   |   |   |   |   |   |   obj1 <= 739: 1 (337.0/45.0)
|   |   |   |   |   |   |   obj1 > 739
|   |   |   |   |   |   |   |   obj2 <= 939
|   |   |   |   |   |   |   |   |   obj2 <= 741
|   |   |   |   |   |   |   |   |   |   obj1 <= 765
|   |   |   |   |   |   |   |   |   |   |   obj2 <= 737
|   |   |   |   |   |   |   |   |   |   |   |   obj3 <= 784
|   |   |   |   |   |   |   |   |   |   |   |   |   obj2 <= 316: 1 (3.0)
|   |   |   |   |   |   |   |   |   |   |   |   |   obj2 > 316: 0 (44.0/16.0)
|   |   |   |   |   |   |   |   |   |   |   |   obj3 > 784: 1 (36.0/10.0)
|   |   |   |   |   |   |   |   |   |   |   obj2 > 737: 1 (6.0)
|   |   |   |   |   |   |   |   |   |   obj1 > 765
|   |   |   |   |   |   |   |   |   |   |   obj2 <= 731
|   |   |   |   |   |   |   |   |   |   |   |   obj1 <= 803
|   |   |   |   |   |   |   |   |   |   |   |   |   obj1 <= 779: 0 (6.0/1.0)
|   |   |   |   |   |   |   |   |   |   |   |   |   obj1 > 779
|   |   |   |   |   |   |   |   |   |   |   |   |   |   obj3 <= 778
|   |   |   |   |   |   |   |   |   |   |   |   |   |   |   obj3 <= 610
|   |   |   |   |   |   |   |   |   |   |   |   |   |   |   |   obj2 <= 555: 1 (3.0)
|   |   |   |   |   |   |   |   |   |   |   |   |   |   |   |   obj2 > 555: 0 (4.0/1.0)
|   |   |   |   |   |   |   |   |   |   |   |   |   |   |   obj3 > 610: 0 (8.0)
|   |   |   |   |   |   |   |   |   |   |   |   |   |   obj3 > 778: 1 (6.0/1.0)
|   |   |   |   |   |   |   |   |   |   |   |   obj1 > 803: 1 (25.0/3.0)
|   |   |   |   |   |   |   |   |   |   |   obj2 > 731: 0 (7.0/1.0)
|   |   |   |   |   |   |   |   |   obj2 > 741
|   |   |   |   |   |   |   |   |   |   obj1 <= 817
|   |   |   |   |   |   |   |   |   |   |   obj1 <= 774
|   |   |   |   |   |   |   |   |   |   |   |   obj2 <= 822: 0 (149.0/45.0)
|   |   |   |   |   |   |   |   |   |   |   |   obj2 > 822: 1 (70.0/30.0)
|   |   |   |   |   |   |   |   |   |   |   obj1 > 774: 1 (72.0/26.0)
|   |   |   |   |   |   |   |   |   |   obj1 > 817
|   |   |   |   |   |   |   |   |   |   |   obj3 <= 699: 1 (10.0/3.0)
|   |   |   |   |   |   |   |   |   |   |   obj3 > 699
|   |   |   |   |   |   |   |   |   |   |   |   obj1 <= 822: 0 (29.0/2.0)
|   |   |   |   |   |   |   |   |   |   |   |   obj1 > 822
|   |   |   |   |   |   |   |   |   |   |   |   |   obj1 <= 841
|   |   |   |   |   |   |   |   |   |   |   |   |   |   obj3 <= 762: 0 (4.0)
|   |   |   |   |   |   |   |   |   |   |   |   |   |   obj3 > 762: 1 (8.0/1.0)
|   |   |   |   |   |   |   |   |   |   |   |   |   obj1 > 841: 0 (48.0/7.0)
|   |   |   |   |   |   |   |   obj2 > 939
|   |   |   |   |   |   |   |   |   obj2 <= 997: 1 (39.0/4.0)
|   |   |   |   |   |   |   |   |   obj2 > 997
|   |   |   |   |   |   |   |   |   |   obj1 <= 788
|   |   |   |   |   |   |   |   |   |   |   obj3 <= 809: 0 (6.0/1.0)
|   |   |   |   |   |   |   |   |   |   |   obj3 > 809: 1 (7.0/2.0)
|   |   |   |   |   |   |   |   |   |   obj1 > 788: 0 (3.0)
|   |   |   |   |   |   obj3 > 900
|   |   |   |   |   |   |   obj3 <= 997
|   |   |   |   |   |   |   |   obj1 <= 800: 1 (68.0/3.0)
|   |   |   |   |   |   |   |   obj1 > 800
|   |   |   |   |   |   |   |   |   obj3 <= 954
|   |   |   |   |   |   |   |   |   |   obj2 <= 926
|   |   |   |   |   |   |   |   |   |   |   obj2 <= 820: 1 (12.0/3.0)
|   |   |   |   |   |   |   |   |   |   |   obj2 > 820: 0 (6.0)
|   |   |   |   |   |   |   |   |   |   obj2 > 926: 1 (5.0)
|   |   |   |   |   |   |   |   |   obj3 > 954: 1 (12.0)
|   |   |   |   |   |   |   obj3 > 997
|   |   |   |   |   |   |   |   obj1 <= 746: 0 (3.0/1.0)
|   |   |   |   |   |   |   |   obj1 > 746
|   |   |   |   |   |   |   |   |   obj2 <= 683: 0 (3.0)
|   |   |   |   |   |   |   |   |   obj2 > 683: 1 (14.0/4.0)
|   |   |   |   obj1 > 873
|   |   |   |   |   obj1 <= 995: 1 (834.0/119.0)
|   |   |   |   |   obj1 > 995
|   |   |   |   |   |   lbl3 = 0: 1 (46.0/13.0)
|   |   |   |   |   |   lbl3 = 1
|   |   |   |   |   |   |   obj2 <= 961: 0 (13.0/2.0)
|   |   |   |   |   |   |   obj2 > 961: 1 (2.0)
|   |   |   lbl0 = 1
|   |   |   |   lbl3 = 0
|   |   |   |   |   obj1 <= 947
|   |   |   |   |   |   obj1 <= 882: 0 (1322.0/528.0)
|   |   |   |   |   |   obj1 > 882
|   |   |   |   |   |   |   obj1 <= 906: 1 (207.0/78.0)
|   |   |   |   |   |   |   obj1 > 906
|   |   |   |   |   |   |   |   obj1 <= 932: 0 (33.0/10.0)
|   |   |   |   |   |   |   |   obj1 > 932
|   |   |   |   |   |   |   |   |   obj2 <= 822: 1 (7.0)
|   |   |   |   |   |   |   |   |   obj2 > 822: 0 (4.0/1.0)
|   |   |   |   |   obj1 > 947: 0 (333.0/77.0)
|   |   |   |   lbl3 = 1
|   |   |   |   |   obj1 <= 288: 0 (26.0/6.0)
|   |   |   |   |   obj1 > 288
|   |   |   |   |   |   obj1 <= 879: 1 (737.0/247.0)
|   |   |   |   |   |   obj1 > 879
|   |   |   |   |   |   |   obj1 <= 935: 0 (125.0/50.0)
|   |   |   |   |   |   |   obj1 > 935: 1 (171.0/64.0)
|   lbl4 = 1
|   |   lbl1 = 0
|   |   |   lbl0 = 0
|   |   |   |   obj1 <= 682
|   |   |   |   |   obj1 <= 568
|   |   |   |   |   |   obj1 <= 368: 1 (8.0/1.0)
|   |   |   |   |   |   obj1 > 368: 0 (3.0)
|   |   |   |   |   obj1 > 568: 1 (7.0)
|   |   |   |   obj1 > 682: 0 (57.0/22.0)
|   |   |   lbl0 = 1: 1 (39.0)
|   |   lbl1 = 1: 1 (1226.0)
lbl2 = 1
|   lbl0 = 0: 1 (79364.0/1932.0)
|   lbl0 = 1
|   |   lbl4 = 0
|   |   |   lbl1 = 0
|   |   |   |   lbl3 = 0: 1 (1705.0/529.0)
|   |   |   |   lbl3 = 1
|   |   |   |   |   obj1 <= 768: 1 (1946.0/753.0)
|   |   |   |   |   obj1 > 768
|   |   |   |   |   |   obj2 <= 992
|   |   |   |   |   |   |   obj1 <= 882
|   |   |   |   |   |   |   |   obj1 <= 843
|   |   |   |   |   |   |   |   |   obj2 <= 757
|   |   |   |   |   |   |   |   |   |   obj2 <= 711: 1 (89.0/27.0)
|   |   |   |   |   |   |   |   |   |   obj2 > 711
|   |   |   |   |   |   |   |   |   |   |   obj2 <= 722: 0 (26.0/3.0)
|   |   |   |   |   |   |   |   |   |   |   obj2 > 722: 1 (96.0/44.0)
|   |   |   |   |   |   |   |   |   obj2 > 757
|   |   |   |   |   |   |   |   |   |   obj2 <= 811: 1 (94.0/13.0)
|   |   |   |   |   |   |   |   |   |   obj2 > 811
|   |   |   |   |   |   |   |   |   |   |   obj1 <= 812: 1 (134.0/30.0)
|   |   |   |   |   |   |   |   |   |   |   obj1 > 812
|   |   |   |   |   |   |   |   |   |   |   |   obj2 <= 851
|   |   |   |   |   |   |   |   |   |   |   |   |   obj1 <= 834: 0 (57.0/23.0)
|   |   |   |   |   |   |   |   |   |   |   |   |   obj1 > 834: 1 (3.0)
|   |   |   |   |   |   |   |   |   |   |   |   obj2 > 851
|   |   |   |   |   |   |   |   |   |   |   |   |   obj3 <= 757: 1 (29.0/7.0)
|   |   |   |   |   |   |   |   |   |   |   |   |   obj3 > 757
|   |   |   |   |   |   |   |   |   |   |   |   |   |   obj3 <= 771: 0 (4.0)
|   |   |   |   |   |   |   |   |   |   |   |   |   |   obj3 > 771
|   |   |   |   |   |   |   |   |   |   |   |   |   |   |   obj1 <= 815: 0 (6.0/1.0)
|   |   |   |   |   |   |   |   |   |   |   |   |   |   |   obj1 > 815: 1 (30.0/6.0)
|   |   |   |   |   |   |   |   obj1 > 843
|   |   |   |   |   |   |   |   |   obj2 <= 827
|   |   |   |   |   |   |   |   |   |   obj1 <= 862
|   |   |   |   |   |   |   |   |   |   |   obj1 <= 856
|   |   |   |   |   |   |   |   |   |   |   |   obj3 <= 848: 0 (63.0/24.0)
|   |   |   |   |   |   |   |   |   |   |   |   obj3 > 848: 1 (13.0/4.0)
|   |   |   |   |   |   |   |   |   |   |   obj1 > 856: 1 (7.0/1.0)
|   |   |   |   |   |   |   |   |   |   obj1 > 862: 0 (61.0/18.0)
|   |   |   |   |   |   |   |   |   obj2 > 827
|   |   |   |   |   |   |   |   |   |   obj3 <= 946
|   |   |   |   |   |   |   |   |   |   |   obj2 <= 939: 1 (22.0/3.0)
|   |   |   |   |   |   |   |   |   |   |   obj2 > 939
|   |   |   |   |   |   |   |   |   |   |   |   obj1 <= 861: 1 (6.0/1.0)
|   |   |   |   |   |   |   |   |   |   |   |   obj1 > 861: 0 (10.0/3.0)
|   |   |   |   |   |   |   |   |   |   obj3 > 946: 0 (6.0/1.0)
|   |   |   |   |   |   |   obj1 > 882
|   |   |   |   |   |   |   |   obj1 <= 980: 1 (604.0/150.0)
|   |   |   |   |   |   |   |   obj1 > 980
|   |   |   |   |   |   |   |   |   obj2 <= 875: 1 (113.0/37.0)
|   |   |   |   |   |   |   |   |   obj2 > 875
|   |   |   |   |   |   |   |   |   |   obj2 <= 892: 0 (87.0/19.0)
|   |   |   |   |   |   |   |   |   |   obj2 > 892
|   |   |   |   |   |   |   |   |   |   |   obj2 <= 974: 1 (12.0/2.0)
|   |   |   |   |   |   |   |   |   |   |   obj2 > 974: 0 (2.0)
|   |   |   |   |   |   obj2 > 992
|   |   |   |   |   |   |   obj1 <= 988
|   |   |   |   |   |   |   |   obj1 <= 817: 1 (9.0/1.0)
|   |   |   |   |   |   |   |   obj1 > 817
|   |   |   |   |   |   |   |   |   obj1 <= 892: 0 (51.0/18.0)
|   |   |   |   |   |   |   |   |   obj1 > 892
|   |   |   |   |   |   |   |   |   |   obj2 <= 996: 1 (11.0/1.0)
|   |   |   |   |   |   |   |   |   |   obj2 > 996
|   |   |   |   |   |   |   |   |   |   |   obj1 <= 934: 0 (2.0)
|   |   |   |   |   |   |   |   |   |   |   obj1 > 934: 1 (7.0/3.0)
|   |   |   |   |   |   |   obj1 > 988: 0 (23.0/1.0)
|   |   |   lbl1 = 1
|   |   |   |   lbl3 = 0
|   |   |   |   |   obj1 <= 770: 1 (953.0/230.0)
|   |   |   |   |   obj1 > 770
|   |   |   |   |   |   obj3 <= 881
|   |   |   |   |   |   |   obj3 <= 821
|   |   |   |   |   |   |   |   obj1 <= 846
|   |   |   |   |   |   |   |   |   obj1 <= 811: 1 (132.0/49.0)
|   |   |   |   |   |   |   |   |   obj1 > 811: 0 (91.0/37.0)
|   |   |   |   |   |   |   |   obj1 > 846
|   |   |   |   |   |   |   |   |   obj1 <= 997: 1 (154.0/32.0)
|   |   |   |   |   |   |   |   |   obj1 > 997
|   |   |   |   |   |   |   |   |   |   obj3 <= 747: 0 (14.0/1.0)
|   |   |   |   |   |   |   |   |   |   obj3 > 747: 1 (18.0/8.0)
|   |   |   |   |   |   |   obj3 > 821
|   |   |   |   |   |   |   |   obj3 <= 822: 0 (49.0/6.0)
|   |   |   |   |   |   |   |   obj3 > 822
|   |   |   |   |   |   |   |   |   obj3 <= 841: 1 (32.0/10.0)
|   |   |   |   |   |   |   |   |   obj3 > 841
|   |   |   |   |   |   |   |   |   |   obj3 <= 855
|   |   |   |   |   |   |   |   |   |   |   obj2 <= 713: 1 (4.0/1.0)
|   |   |   |   |   |   |   |   |   |   |   obj2 > 713: 0 (28.0/3.0)
|   |   |   |   |   |   |   |   |   |   obj3 > 855
|   |   |   |   |   |   |   |   |   |   |   obj3 <= 878: 1 (13.0/3.0)
|   |   |   |   |   |   |   |   |   |   |   obj3 > 878: 0 (2.0)
|   |   |   |   |   |   obj3 > 881: 1 (133.0/20.0)
|   |   |   |   lbl3 = 1: 1 (1026.0/96.0)
|   |   lbl4 = 1: 1 (912.0)

Number of Leaves  : 	161

Size of the tree : 	321


meka.classifiers.multilabel.CC: Node #7

J48 pruned tree
------------------

lbl2 = 0
|   lbl0 = 0
|   |   lbl4 = 0
|   |   |   lbl1 = 0
|   |   |   |   lbl3 = 0
|   |   |   |   |   obj1 <= 844
|   |   |   |   |   |   obj1 <= 730
|   |   |   |   |   |   |   obj1 <= 695
|   |   |   |   |   |   |   |   obj2 <= 728
|   |   |   |   |   |   |   |   |   lbl5 = 0: 1 (956.0/427.0)
|   |   |   |   |   |   |   |   |   lbl5 = 1
|   |   |   |   |   |   |   |   |   |   obj2 <= 695
|   |   |   |   |   |   |   |   |   |   |   obj1 <= 678
|   |   |   |   |   |   |   |   |   |   |   |   obj2 <= 538: 1 (53.0/20.0)
|   |   |   |   |   |   |   |   |   |   |   |   obj2 > 538: 0 (88.0/31.0)
|   |   |   |   |   |   |   |   |   |   |   obj1 > 678: 1 (123.0/39.0)
|   |   |   |   |   |   |   |   |   |   obj2 > 695
|   |   |   |   |   |   |   |   |   |   |   obj2 <= 704: 0 (68.0/18.0)
|   |   |   |   |   |   |   |   |   |   |   obj2 > 704
|   |   |   |   |   |   |   |   |   |   |   |   obj2 <= 726
|   |   |   |   |   |   |   |   |   |   |   |   |   obj2 <= 722
|   |   |   |   |   |   |   |   |   |   |   |   |   |   obj2 <= 705: 1 (9.0/1.0)
|   |   |   |   |   |   |   |   |   |   |   |   |   |   obj2 > 705: 0 (52.0/21.0)
|   |   |   |   |   |   |   |   |   |   |   |   |   obj2 > 722: 1 (5.0)
|   |   |   |   |   |   |   |   |   |   |   |   obj2 > 726: 0 (7.0)
|   |   |   |   |   |   |   |   obj2 > 728
|   |   |   |   |   |   |   |   |   obj2 <= 758
|   |   |   |   |   |   |   |   |   |   lbl5 = 0
|   |   |   |   |   |   |   |   |   |   |   obj2 <= 753
|   |   |   |   |   |   |   |   |   |   |   |   obj2 <= 749
|   |   |   |   |   |   |   |   |   |   |   |   |   obj1 <= 570: 1 (9.0)
|   |   |   |   |   |   |   |   |   |   |   |   |   obj1 > 570
|   |   |   |   |   |   |   |   |   |   |   |   |   |   obj1 <= 694
|   |   |   |   |   |   |   |   |   |   |   |   |   |   |   obj3 <= 684: 1 (3.0/1.0)
|   |   |   |   |   |   |   |   |   |   |   |   |   |   |   obj3 > 684: 0 (5.0)
|   |   |   |   |   |   |   |   |   |   |   |   |   |   obj1 > 694: 1 (4.0)
|   |   |   |   |   |   |   |   |   |   |   |   obj2 > 749: 0 (4.0)
|   |   |   |   |   |   |   |   |   |   |   obj2 > 753: 1 (88.0/15.0)
|   |   |   |   |   |   |   |   |   |   lbl5 = 1
|   |   |   |   |   |   |   |   |   |   |   obj1 <= 673: 1 (31.0/5.0)
|   |   |   |   |   |   |   |   |   |   |   obj1 > 673: 0 (6.0/2.0)
|   |   |   |   |   |   |   |   |   obj2 > 758
|   |   |   |   |   |   |   |   |   |   lbl5 = 0: 1 (319.0/130.0)
|   |   |   |   |   |   |   |   |   |   lbl5 = 1
|   |   |   |   |   |   |   |   |   |   |   obj2 <= 764: 0 (8.0/1.0)
|   |   |   |   |   |   |   |   |   |   |   obj2 > 764: 1 (110.0/38.0)
|   |   |   |   |   |   |   obj1 > 695
|   |   |   |   |   |   |   |   obj1 <= 704
|   |   |   |   |   |   |   |   |   lbl5 = 0: 0 (497.0/152.0)
|   |   |   |   |   |   |   |   |   lbl5 = 1
|   |   |   |   |   |   |   |   |   |   obj1 <= 703: 0 (35.0/6.0)
|   |   |   |   |   |   |   |   |   |   obj1 > 703
|   |   |   |   |   |   |   |   |   |   |   obj2 <= 707: 0 (59.0/13.0)
|   |   |   |   |   |   |   |   |   |   |   obj2 > 707
|   |   |   |   |   |   |   |   |   |   |   |   obj3 <= 698: 0 (6.0)
|   |   |   |   |   |   |   |   |   |   |   |   obj3 > 698
|   |   |   |   |   |   |   |   |   |   |   |   |   obj3 <= 847: 1 (23.0/4.0)
|   |   |   |   |   |   |   |   |   |   |   |   |   obj3 > 847
|   |   |   |   |   |   |   |   |   |   |   |   |   |   obj2 <= 760: 1 (2.0)
|   |   |   |   |   |   |   |   |   |   |   |   |   |   obj2 > 760: 0 (7.0/1.0)
|   |   |   |   |   |   |   |   obj1 > 704
|   |   |   |   |   |   |   |   |   obj1 <= 726
|   |   |   |   |   |   |   |   |   |   obj3 <= 685: 1 (80.0/19.0)
|   |   |   |   |   |   |   |   |   |   obj3 > 685
|   |   |   |   |   |   |   |   |   |   |   lbl5 = 0
|   |   |   |   |   |   |   |   |   |   |   |   obj1 <= 707
|   |   |   |   |   |   |   |   |   |   |   |   |   obj1 <= 706
|   |   |   |   |   |   |   |   |   |   |   |   |   |   obj1 <= 705: 1 (46.0/19.0)
|   |   |   |   |   |   |   |   |   |   |   |   |   |   obj1 > 705
|   |   |   |   |   |   |   |   |   |   |   |   |   |   |   obj3 <= 884: 0 (24.0/2.0)
|   |   |   |   |   |   |   |   |   |   |   |   |   |   |   obj3 > 884: 1 (3.0/1.0)
|   |   |   |   |   |   |   |   |   |   |   |   |   obj1 > 706
|   |   |   |   |   |   |   |   |   |   |   |   |   |   obj3 <= 731
|   |   |   |   |   |   |   |   |   |   |   |   |   |   |   obj2 <= 768: 0 (13.0/5.0)
|   |   |   |   |   |   |   |   |   |   |   |   |   |   |   obj2 > 768: 1 (4.0)
|   |   |   |   |   |   |   |   |   |   |   |   |   |   obj3 > 731: 1 (28.0/2.0)
|   |   |   |   |   |   |   |   |   |   |   |   obj1 > 707: 0 (117.0/40.0)
|   |   |   |   |   |   |   |   |   |   |   lbl5 = 1: 0 (83.0/28.0)
|   |   |   |   |   |   |   |   |   obj1 > 726
|   |   |   |   |   |   |   |   |   |   lbl5 = 0
|   |   |   |   |   |   |   |   |   |   |   obj1 <= 729
|   |   |   |   |   |   |   |   |   |   |   |   obj1 <= 728: 0 (16.0/6.0)
|   |   |   |   |   |   |   |   |   |   |   |   obj1 > 728
|   |   |   |   |   |   |   |   |   |   |   |   |   obj3 <= 798: 1 (13.0/3.0)
|   |   |   |   |   |   |   |   |   |   |   |   |   obj3 > 798: 0 (3.0)
|   |   |   |   |   |   |   |   |   |   |   obj1 > 729: 0 (6.0)
|   |   |   |   |   |   |   |   |   |   lbl5 = 1: 0 (39.0/2.0)
|   |   |   |   |   |   obj1 > 730
|   |   |   |   |   |   |   obj1 <= 755
|   |   |   |   |   |   |   |   obj1 <= 753
|   |   |   |   |   |   |   |   |   obj1 <= 746
|   |   |   |   |   |   |   |   |   |   obj1 <= 735: 1 (243.0/31.0)
|   |   |   |   |   |   |   |   |   |   obj1 > 735
|   |   |   |   |   |   |   |   |   |   |   obj1 <= 738
|   |   |   |   |   |   |   |   |   |   |   |   obj1 <= 736
|   |   |   |   |   |   |   |   |   |   |   |   |   obj2 <= 742: 0 (5.0)
|   |   |   |   |   |   |   |   |   |   |   |   |   obj2 > 742
|   |   |   |   |   |   |   |   |   |   |   |   |   |   obj3 <= 866
|   |   |   |   |   |   |   |   |   |   |   |   |   |   |   obj2 <= 861: 1 (6.0)
|   |   |   |   |   |   |   |   |   |   |   |   |   |   |   obj2 > 861
|   |   |   |   |   |   |   |   |   |   |   |   |   |   |   |   obj2 <= 937: 0 (2.0)
|   |   |   |   |   |   |   |   |   |   |   |   |   |   |   |   obj2 > 937: 1 (2.0)
|   |   |   |   |   |   |   |   |   |   |   |   |   |   obj3 > 866: 0 (2.0)
|   |   |   |   |   |   |   |   |   |   |   |   obj1 > 736
|   |   |   |   |   |   |   |   |   |   |   |   |   obj2 <= 916: 1 (49.0/13.0)
|   |   |   |   |   |   |   |   |   |   |   |   |   obj2 > 916: 0 (3.0)
|   |   |   |   |   |   |   |   |   |   |   obj1 > 738: 1 (165.0/33.0)
|   |   |   |   |   |   |   |   |   obj1 > 746: 0 (40.0/11.0)
|   |   |   |   |   |   |   |   obj1 > 753: 1 (1884.0/321.0)
|   |   |   |   |   |   |   obj1 > 755
|   |   |   |   |   |   |   |   obj1 <= 769
|   |   |   |   |   |   |   |   |   obj2 <= 865
|   |   |   |   |   |   |   |   |   |   obj2 <= 751
|   |   |   |   |   |   |   |   |   |   |   obj1 <= 767
|   |   |   |   |   |   |   |   |   |   |   |   lbl5 = 0
|   |   |   |   |   |   |   |   |   |   |   |   |   obj2 <= 699: 1 (16.0/4.0)
|   |   |   |   |   |   |   |   |   |   |   |   |   obj2 > 699: 0 (12.0/3.0)
|   |   |   |   |   |   |   |   |   |   |   |   lbl5 = 1
|   |   |   |   |   |   |   |   |   |   |   |   |   obj1 <= 765: 0 (3.0)
|   |   |   |   |   |   |   |   |   |   |   |   |   obj1 > 765
|   |   |   |   |   |   |   |   |   |   |   |   |   |   obj3 <= 792: 1 (4.0)
|   |   |   |   |   |   |   |   |   |   |   |   |   |   obj3 > 792: 0 (3.0/1.0)
|   |   |   |   |   |   |   |   |   |   |   obj1 > 767
|   |   |   |   |   |   |   |   |   |   |   |   obj3 <= 936: 0 (56.0/7.0)
|   |   |   |   |   |   |   |   |   |   |   |   obj3 > 936: 1 (19.0/7.0)
|   |   |   |   |   |   |   |   |   |   obj2 > 751
|   |   |   |   |   |   |   |   |   |   |   lbl5 = 0
|   |   |   |   |   |   |   |   |   |   |   |   obj2 <= 805
|   |   |   |   |   |   |   |   |   |   |   |   |   obj3 <= 669: 0 (7.0/2.0)
|   |   |   |   |   |   |   |   |   |   |   |   |   obj3 > 669: 1 (41.0/5.0)
|   |   |   |   |   |   |   |   |   |   |   |   obj2 > 805
|   |   |   |   |   |   |   |   |   |   |   |   |   obj2 <= 826: 0 (16.0/3.0)
|   |   |   |   |   |   |   |   |   |   |   |   |   obj2 > 826: 1 (15.0/5.0)
|   |   |   |   |   |   |   |   |   |   |   lbl5 = 1: 0 (25.0/11.0)
|   |   |   |   |   |   |   |   |   obj2 > 865
|   |   |   |   |   |   |   |   |   |   obj2 <= 873: 0 (67.0/3.0)
|   |   |   |   |   |   |   |   |   |   obj2 > 873
|   |   |   |   |   |   |   |   |   |   |   lbl5 = 0
|   |   |   |   |   |   |   |   |   |   |   |   obj1 <= 763
|   |   |   |   |   |   |   |   |   |   |   |   |   obj2 <= 949: 1 (4.0)
|   |   |   |   |   |   |   |   |   |   |   |   |   obj2 > 949: 0 (4.0/1.0)
|   |   |   |   |   |   |   |   |   |   |   |   obj1 > 763
|   |   |   |   |   |   |   |   |   |   |   |   |   obj3 <= 635: 1 (5.0/1.0)
|   |   |   |   |   |   |   |   |   |   |   |   |   obj3 > 635
|   |   |   |   |   |   |   |   |   |   |   |   |   |   obj2 <= 987: 0 (73.0/15.0)
|   |   |   |   |   |   |   |   |   |   |   |   |   |   obj2 > 987
|   |   |   |   |   |   |   |   |   |   |   |   |   |   |   obj3 <= 792: 1 (9.0/2.0)
|   |   |   |   |   |   |   |   |   |   |   |   |   |   |   obj3 > 792: 0 (8.0)
|   |   |   |   |   |   |   |   |   |   |   lbl5 = 1
|   |   |   |   |   |   |   |   |   |   |   |   obj3 <= 933: 0 (12.0/3.0)
|   |   |   |   |   |   |   |   |   |   |   |   obj3 > 933: 1 (3.0/1.0)
|   |   |   |   |   |   |   |   obj1 > 769
|   |   |   |   |   |   |   |   |   obj1 <= 771: 1 (144.0/12.0)
|   |   |   |   |   |   |   |   |   obj1 > 771
|   |   |   |   |   |   |   |   |   |   obj1 <= 829
|   |   |   |   |   |   |   |   |   |   |   lbl5 = 0
|   |   |   |   |   |   |   |   |   |   |   |   obj3 <= 851
|   |   |   |   |   |   |   |   |   |   |   |   |   obj3 <= 732
|   |   |   |   |   |   |   |   |   |   |   |   |   |   obj2 <= 748
|   |   |   |   |   |   |   |   |   |   |   |   |   |   |   obj1 <= 805
|   |   |   |   |   |   |   |   |   |   |   |   |   |   |   |   obj1 <= 798
|   |   |   |   |   |   |   |   |   |   |   |   |   |   |   |   |   obj3 <= 682: 0 (4.0)
|   |   |   |   |   |   |   |   |   |   |   |   |   |   |   |   |   obj3 > 682: 1 (7.0/2.0)
|   |   |   |   |   |   |   |   |   |   |   |   |   |   |   |   obj1 > 798: 0 (91.0/35.0)
|   |   |   |   |   |   |   |   |   |   |   |   |   |   |   obj1 > 805
|   |   |   |   |   |   |   |   |   |   |   |   |   |   |   |   obj1 <= 816: 1 (11.0)
|   |   |   |   |   |   |   |   |   |   |   |   |   |   |   |   obj1 > 816: 0 (4.0)
|   |   |   |   |   |   |   |   |   |   |   |   |   |   obj2 > 748: 1 (157.0/56.0)
|   |   |   |   |   |   |   |   |   |   |   |   |   obj3 > 732: 1 (531.0/168.0)
|   |   |   |   |   |   |   |   |   |   |   |   obj3 > 851
|   |   |   |   |   |   |   |   |   |   |   |   |   obj3 <= 918
|   |   |   |   |   |   |   |   |   |   |   |   |   |   obj2 <= 842
|   |   |   |   |   |   |   |   |   |   |   |   |   |   |   obj2 <= 753: 0 (27.0/6.0)
|   |   |   |   |   |   |   |   |   |   |   |   |   |   |   obj2 > 753: 1 (44.0/16.0)
|   |   |   |   |   |   |   |   |   |   |   |   |   |   obj2 > 842: 0 (46.0/10.0)
|   |   |   |   |   |   |   |   |   |   |   |   |   obj3 > 918: 1 (200.0/78.0)
|   |   |   |   |   |   |   |   |   |   |   lbl5 = 1
|   |   |   |   |   |   |   |   |   |   |   |   obj3 <= 850: 1 (231.0/52.0)
|   |   |   |   |   |   |   |   |   |   |   |   obj3 > 850
|   |   |   |   |   |   |   |   |   |   |   |   |   obj3 <= 860: 0 (5.0)
|   |   |   |   |   |   |   |   |   |   |   |   |   obj3 > 860: 1 (110.0/39.0)
|   |   |   |   |   |   |   |   |   |   obj1 > 829
|   |   |   |   |   |   |   |   |   |   |   lbl5 = 0: 1 (362.0/81.0)
|   |   |   |   |   |   |   |   |   |   |   lbl5 = 1
|   |   |   |   |   |   |   |   |   |   |   |   obj1 <= 833
|   |   |   |   |   |   |   |   |   |   |   |   |   obj2 <= 703: 0 (6.0)
|   |   |   |   |   |   |   |   |   |   |   |   |   obj2 > 703
|   |   |   |   |   |   |   |   |   |   |   |   |   |   obj2 <= 868
|   |   |   |   |   |   |   |   |   |   |   |   |   |   |   obj2 <= 744
|   |   |   |   |   |   |   |   |   |   |   |   |   |   |   |   obj2 <= 719: 1 (3.0)
|   |   |   |   |   |   |   |   |   |   |   |   |   |   |   |   obj2 > 719: 0 (2.0)
|   |   |   |   |   |   |   |   |   |   |   |   |   |   |   obj2 > 744: 1 (15.0)
|   |   |   |   |   |   |   |   |   |   |   |   |   |   obj2 > 868
|   |   |   |   |   |   |   |   |   |   |   |   |   |   |   obj3 <= 835: 1 (14.0/5.0)
|   |   |   |   |   |   |   |   |   |   |   |   |   |   |   obj3 > 835: 0 (6.0/1.0)
|   |   |   |   |   |   |   |   |   |   |   |   obj1 > 833: 1 (58.0/12.0)
|   |   |   |   |   obj1 > 844
|   |   |   |   |   |   obj1 <= 950
|   |   |   |   |   |   |   obj1 <= 947
|   |   |   |   |   |   |   |   obj1 <= 932
|   |   |   |   |   |   |   |   |   obj2 <= 755
|   |   |   |   |   |   |   |   |   |   obj2 <= 732: 0 (237.0/92.0)
|   |   |   |   |   |   |   |   |   |   obj2 > 732: 1 (337.0/82.0)
|   |   |   |   |   |   |   |   |   obj2 > 755
|   |   |   |   |   |   |   |   |   |   lbl5 = 0
|   |   |   |   |   |   |   |   |   |   |   obj3 <= 756
|   |   |   |   |   |   |   |   |   |   |   |   obj3 <= 715
|   |   |   |   |   |   |   |   |   |   |   |   |   obj1 <= 926: 0 (113.0/34.0)
|   |   |   |   |   |   |   |   |   |   |   |   |   obj1 > 926: 1 (5.0)
|   |   |   |   |   |   |   |   |   |   |   |   obj3 > 715
|   |   |   |   |   |   |   |   |   |   |   |   |   obj2 <= 812: 0 (21.0/5.0)
|   |   |   |   |   |   |   |   |   |   |   |   |   obj2 > 812: 1 (139.0/45.0)
|   |   |   |   |   |   |   |   |   |   |   obj3 > 756: 0 (501.0/185.0)
|   |   |   |   |   |   |   |   |   |   lbl5 = 1
|   |   |   |   |   |   |   |   |   |   |   obj2 <= 987
|   |   |   |   |   |   |   |   |   |   |   |   obj2 <= 919
|   |   |   |   |   |   |   |   |   |   |   |   |   obj1 <= 860: 0 (10.0/1.0)
|   |   |   |   |   |   |   |   |   |   |   |   |   obj1 > 860: 1 (113.0/40.0)
|   |   |   |   |   |   |   |   |   |   |   |   obj2 > 919: 0 (47.0/15.0)
|   |   |   |   |   |   |   |   |   |   |   obj2 > 987: 1 (15.0/1.0)
|   |   |   |   |   |   |   |   obj1 > 932: 0 (247.0/77.0)
|   |   |   |   |   |   |   obj1 > 947
|   |   |   |   |   |   |   |   lbl5 = 0
|   |   |   |   |   |   |   |   |   obj2 <= 750: 0 (27.0/6.0)
|   |   |   |   |   |   |   |   |   obj2 > 750: 1 (80.0/30.0)
|   |   |   |   |   |   |   |   lbl5 = 1: 0 (580.0/17.0)
|   |   |   |   |   |   obj1 > 950
|   |   |   |   |   |   |   lbl5 = 0
|   |   |   |   |   |   |   |   obj2 <= 612: 0 (40.0/17.0)
|   |   |   |   |   |   |   |   obj2 > 612
|   |   |   |   |   |   |   |   |   obj1 <= 954: 1 (213.0/45.0)
|   |   |   |   |   |   |   |   |   obj1 > 954
|   |   |   |   |   |   |   |   |   |   obj1 <= 966: 0 (38.0/12.0)
|   |   |   |   |   |   |   |   |   |   obj1 > 966: 1 (612.0/186.0)
|   |   |   |   |   |   |   lbl5 = 1
|   |   |   |   |   |   |   |   obj1 <= 992
|   |   |   |   |   |   |   |   |   obj1 <= 986: 1 (77.0/15.0)
|   |   |   |   |   |   |   |   |   obj1 > 986
|   |   |   |   |   |   |   |   |   |   obj2 <= 517: 1 (2.0)
|   |   |   |   |   |   |   |   |   |   obj2 > 517: 0 (8.0/1.0)
|   |   |   |   |   |   |   |   obj1 > 992: 1 (74.0/4.0)
|   |   |   |   lbl3 = 1
|   |   |   |   |   lbl5 = 0
|   |   |   |   |   |   obj1 <= 733: 0 (1938.0/357.0)
|   |   |   |   |   |   obj1 > 733
|   |   |   |   |   |   |   obj1 <= 754
|   |   |   |   |   |   |   |   obj1 <= 734: 1 (107.0/42.0)
|   |   |   |   |   |   |   |   obj1 > 734
|   |   |   |   |   |   |   |   |   obj2 <= 735
|   |   |   |   |   |   |   |   |   |   obj2 <= 685: 0 (74.0/28.0)
|   |   |   |   |   |   |   |   |   |   obj2 > 685: 1 (119.0/46.0)
|   |   |   |   |   |   |   |   |   obj2 > 735: 0 (738.0/292.0)
|   |   |   |   |   |   |   obj1 > 754
|   |   |   |   |   |   |   |   obj1 <= 982: 0 (2931.0/665.0)
|   |   |   |   |   |   |   |   obj1 > 982
|   |   |   |   |   |   |   |   |   obj1 <= 988: 1 (23.0/2.0)
|   |   |   |   |   |   |   |   |   obj1 > 988: 0 (265.0/57.0)
|   |   |   |   |   lbl5 = 1
|   |   |   |   |   |   obj1 <= 992
|   |   |   |   |   |   |   obj1 <= 730
|   |   |   |   |   |   |   |   obj1 <= 694: 1 (787.0/252.0)
|   |   |   |   |   |   |   |   obj1 > 694
|   |   |   |   |   |   |   |   |   obj1 <= 728
|   |   |   |   |   |   |   |   |   |   obj2 <= 708
|   |   |   |   |   |   |   |   |   |   |   obj2 <= 602
|   |   |   |   |   |   |   |   |   |   |   |   obj1 <= 725
|   |   |   |   |   |   |   |   |   |   |   |   |   obj1 <= 702
|   |   |   |   |   |   |   |   |   |   |   |   |   |   obj3 <= 803: 0 (9.0/3.0)
|   |   |   |   |   |   |   |   |   |   |   |   |   |   obj3 > 803: 1 (2.0)
|   |   |   |   |   |   |   |   |   |   |   |   |   obj1 > 702: 1 (29.0/4.0)
|   |   |   |   |   |   |   |   |   |   |   |   obj1 > 725: 0 (7.0/1.0)
|   |   |   |   |   |   |   |   |   |   |   obj2 > 602: 0 (153.0/62.0)
|   |   |   |   |   |   |   |   |   |   obj2 > 708: 1 (124.0/42.0)
|   |   |   |   |   |   |   |   |   obj1 > 728: 0 (22.0/3.0)
|   |   |   |   |   |   |   obj1 > 730: 1 (2784.0/843.0)
|   |   |   |   |   |   obj1 > 992
|   |   |   |   |   |   |   obj1 <= 994: 0 (212.0/79.0)
|   |   |   |   |   |   |   obj1 > 994
|   |   |   |   |   |   |   |   obj1 <= 997
|   |   |   |   |   |   |   |   |   obj3 <= 965: 1 (15.0/5.0)
|   |   |   |   |   |   |   |   |   obj3 > 965: 0 (3.0)
|   |   |   |   |   |   |   |   obj1 > 997: 1 (27.0/7.0)
|   |   |   lbl1 = 1
|   |   |   |   lbl5 = 0
|   |   |   |   |   lbl3 = 0
|   |   |   |   |   |   obj2 <= 752: 0 (222.0/64.0)
|   |   |   |   |   |   obj2 > 752
|   |   |   |   |   |   |   obj2 <= 851: 1 (235.0/86.0)
|   |   |   |   |   |   |   obj2 > 851: 0 (106.0/31.0)
|   |   |   |   |   lbl3 = 1: 1 (433.0)
|   |   |   |   lbl5 = 1: 1 (2556.0/234.0)
|   |   lbl4 = 1: 1 (1186.0)
|   lbl0 = 1
|   |   lbl1 = 0
|   |   |   lbl3 = 0
|   |   |   |   obj1 <= 735: 0 (2031.0/249.0)
|   |   |   |   obj1 > 735
|   |   |   |   |   obj1 <= 864
|   |   |   |   |   |   obj1 <= 843
|   |   |   |   |   |   |   obj2 <= 998
|   |   |   |   |   |   |   |   obj2 <= 866
|   |   |   |   |   |   |   |   |   obj2 <= 833: 0 (1767.0/602.0)
|   |   |   |   |   |   |   |   |   obj2 > 833: 1 (208.0/98.0)
|   |   |   |   |   |   |   |   obj2 > 866: 0 (627.0/164.0)
|   |   |   |   |   |   |   obj2 > 998
|   |   |   |   |   |   |   |   obj1 <= 816
|   |   |   |   |   |   |   |   |   obj3 <= 858: 1 (56.0/16.0)
|   |   |   |   |   |   |   |   |   obj3 > 858: 0 (14.0/5.0)
|   |   |   |   |   |   |   |   obj1 > 816: 0 (5.0)
|   |   |   |   |   |   obj1 > 843
|   |   |   |   |   |   |   obj1 <= 845: 1 (198.0/61.0)
|   |   |   |   |   |   |   obj1 > 845: 0 (63.0/24.0)
|   |   |   |   |   obj1 > 864
|   |   |   |   |   |   obj1 <= 997: 0 (2134.0/257.0)
|   |   |   |   |   |   obj1 > 997
|   |   |   |   |   |   |   obj2 <= 750
|   |   |   |   |   |   |   |   obj2 <= 408: 1 (3.0)
|   |   |   |   |   |   |   |   obj2 > 408: 0 (25.0/7.0)
|   |   |   |   |   |   |   obj2 > 750
|   |   |   |   |   |   |   |   obj2 <= 864: 1 (83.0/26.0)
|   |   |   |   |   |   |   |   obj2 > 864: 0 (9.0/3.0)
|   |   |   lbl3 = 1
|   |   |   |   lbl5 = 0: 0 (8686.0/380.0)
|   |   |   |   lbl5 = 1
|   |   |   |   |   obj1 <= 972
|   |   |   |   |   |   obj2 <= 931: 0 (2926.0/597.0)
|   |   |   |   |   |   obj2 > 931
|   |   |   |   |   |   |   obj2 <= 947: 1 (41.0/19.0)
|   |   |   |   |   |   |   obj2 > 947
|   |   |   |   |   |   |   |   obj2 <= 994
|   |   |   |   |   |   |   |   |   obj1 <= 879
|   |   |   |   |   |   |   |   |   |   obj2 <= 981: 0 (87.0/23.0)
|   |   |   |   |   |   |   |   |   |   obj2 > 981
|   |   |   |   |   |   |   |   |   |   |   obj2 <= 988: 1 (9.0)
|   |   |   |   |   |   |   |   |   |   |   obj2 > 988
|   |   |   |   |   |   |   |   |   |   |   |   obj1 <= 748: 0 (8.0/2.0)
|   |   |   |   |   |   |   |   |   |   |   |   obj1 > 748: 1 (27.0/10.0)
|   |   |   |   |   |   |   |   |   obj1 > 879: 0 (91.0/21.0)
|   |   |   |   |   |   |   |   obj2 > 994: 0 (74.0/9.0)
|   |   |   |   |   obj1 > 972
|   |   |   |   |   |   obj1 <= 994
|   |   |   |   |   |   |   obj2 <= 875
|   |   |   |   |   |   |   |   obj1 <= 984
|   |   |   |   |   |   |   |   |   obj1 <= 978
|   |   |   |   |   |   |   |   |   |   obj1 <= 974: 0 (11.0/4.0)
|   |   |   |   |   |   |   |   |   |   obj1 > 974: 1 (10.0/3.0)
|   |   |   |   |   |   |   |   |   obj1 > 978: 0 (5.0)
|   |   |   |   |   |   |   |   obj1 > 984
|   |   |   |   |   |   |   |   |   obj1 <= 992: 1 (8.0)
|   |   |   |   |   |   |   |   |   obj1 > 992
|   |   |   |   |   |   |   |   |   |   obj3 <= 729: 0 (15.0/5.0)
|   |   |   |   |   |   |   |   |   |   obj3 > 729
|   |   |   |   |   |   |   |   |   |   |   obj3 <= 851: 1 (45.0/10.0)
|   |   |   |   |   |   |   |   |   |   |   obj3 > 851
|   |   |   |   |   |   |   |   |   |   |   |   obj2 <= 780: 1 (37.0/13.0)
|   |   |   |   |   |   |   |   |   |   |   |   obj2 > 780: 0 (3.0)
|   |   |   |   |   |   |   obj2 > 875: 0 (52.0/19.0)
|   |   |   |   |   |   obj1 > 994
|   |   |   |   |   |   |   obj3 <= 735
|   |   |   |   |   |   |   |   obj3 <= 683: 0 (3.0)
|   |   |   |   |   |   |   |   obj3 > 683: 1 (2.0)
|   |   |   |   |   |   |   obj3 > 735: 0 (33.0/2.0)
|   |   lbl1 = 1
|   |   |   lbl4 = 0
|   |   |   |   lbl5 = 0
|   |   |   |   |   lbl3 = 0
|   |   |   |   |   |   obj1 <= 923
|   |   |   |   |   |   |   obj2 <= 821: 0 (583.0/166.0)
|   |   |   |   |   |   |   obj2 > 821
|   |   |   |   |   |   |   |   obj2 <= 872
|   |   |   |   |   |   |   |   |   obj2 <= 842
|   |   |   |   |   |   |   |   |   |   obj2 <= 822: 1 (39.0/12.0)
|   |   |   |   |   |   |   |   |   |   obj2 > 822
|   |   |   |   |   |   |   |   |   |   |   obj2 <= 832: 0 (17.0/2.0)
|   |   |   |   |   |   |   |   |   |   |   obj2 > 832
|   |   |   |   |   |   |   |   |   |   |   |   obj1 <= 805: 1 (6.0/2.0)
|   |   |   |   |   |   |   |   |   |   |   |   obj1 > 805: 0 (2.0)
|   |   |   |   |   |   |   |   |   obj2 > 842: 1 (39.0/10.0)
|   |   |   |   |   |   |   |   obj2 > 872
|   |   |   |   |   |   |   |   |   obj2 <= 994: 0 (172.0/41.0)
|   |   |   |   |   |   |   |   |   obj2 > 994: 1 (27.0/11.0)
|   |   |   |   |   |   obj1 > 923: 0 (269.0/29.0)
|   |   |   |   |   lbl3 = 1: 0 (406.0)
|   |   |   |   lbl5 = 1
|   |   |   |   |   obj1 <= 710
|   |   |   |   |   |   lbl3 = 0
|   |   |   |   |   |   |   obj1 <= 694
|   |   |   |   |   |   |   |   obj2 <= 509
|   |   |   |   |   |   |   |   |   obj2 <= 314
|   |   |   |   |   |   |   |   |   |   obj3 <= 485: 1 (2.0)
|   |   |   |   |   |   |   |   |   |   obj3 > 485: 0 (7.0/2.0)
|   |   |   |   |   |   |   |   |   obj2 > 314: 1 (12.0/1.0)
|   |   |   |   |   |   |   |   obj2 > 509
|   |   |   |   |   |   |   |   |   obj2 <= 719: 0 (88.0/18.0)
|   |   |   |   |   |   |   |   |   obj2 > 719
|   |   |   |   |   |   |   |   |   |   obj2 <= 894: 1 (32.0/10.0)
|   |   |   |   |   |   |   |   |   |   obj2 > 894
|   |   |   |   |   |   |   |   |   |   |   obj3 <= 835: 0 (7.0)
|   |   |   |   |   |   |   |   |   |   |   obj3 > 835: 1 (3.0/1.0)
|   |   |   |   |   |   |   obj1 > 694: 0 (63.0/7.0)
|   |   |   |   |   |   lbl3 = 1: 1 (193.0/86.0)
|   |   |   |   |   obj1 > 710
|   |   |   |   |   |   obj1 <= 771: 1 (327.0/79.0)
|   |   |   |   |   |   obj1 > 771
|   |   |   |   |   |   |   obj2 <= 989
|   |   |   |   |   |   |   |   obj1 <= 997
|   |   |   |   |   |   |   |   |   obj1 <= 974: 1 (535.0/201.0)
|   |   |   |   |   |   |   |   |   obj1 > 974
|   |   |   |   |   |   |   |   |   |   lbl3 = 0: 0 (35.0/9.0)
|   |   |   |   |   |   |   |   |   |   lbl3 = 1: 1 (30.0/12.0)
|   |   |   |   |   |   |   |   obj1 > 997: 1 (27.0/2.0)
|   |   |   |   |   |   |   obj2 > 989
|   |   |   |   |   |   |   |   lbl3 = 0
|   |   |   |   |   |   |   |   |   obj1 <= 892: 0 (25.0/1.0)
|   |   |   |   |   |   |   |   |   obj1 > 892: 1 (4.0/1.0)
|   |   |   |   |   |   |   |   lbl3 = 1
|   |   |   |   |   |   |   |   |   obj2 <= 994: 1 (9.0/3.0)
|   |   |   |   |   |   |   |   |   obj2 > 994: 0 (6.0)
|   |   |   lbl4 = 1: 1 (115.0)
lbl2 = 1
|   lbl5 = 0
|   |   lbl4 = 0
|   |   |   lbl0 = 0
|   |   |   |   lbl1 = 0
|   |   |   |   |   lbl3 = 0
|   |   |   |   |   |   obj1 <= 874
|   |   |   |   |   |   |   obj3 <= 725
|   |   |   |   |   |   |   |   obj1 <= 363: 0 (8.0/1.0)
|   |   |   |   |   |   |   |   obj1 > 363: 1 (118.0/40.0)
|   |   |   |   |   |   |   obj3 > 725
|   |   |   |   |   |   |   |   obj2 <= 861
|   |   |   |   |   |   |   |   |   obj2 <= 836
|   |   |   |   |   |   |   |   |   |   obj3 <= 735
|   |   |   |   |   |   |   |   |   |   |   obj1 <= 818: 0 (29.0/3.0)
|   |   |   |   |   |   |   |   |   |   |   obj1 > 818: 1 (2.0)
