== Model info

Model                          
meka.classifiers.multilabel.CT: Node #1

J48 pruned tree
------------------

obj1 <= 862: 0 (105967.0/21595.0)
obj1 > 862
|   obj1 <= 950
|   |   obj2 <= 992
|   |   |   obj1 <= 884
|   |   |   |   obj3 <= 992: 0 (2885.0/768.0)
|   |   |   |   obj3 > 992
|   |   |   |   |   obj3 <= 996: 1 (119.0/49.0)
|   |   |   |   |   obj3 > 996: 0 (14.0/2.0)
|   |   |   obj1 > 884
|   |   |   |   obj1 <= 900
|   |   |   |   |   obj2 <= 812
|   |   |   |   |   |   obj1 <= 899
|   |   |   |   |   |   |   obj1 <= 886
|   |   |   |   |   |   |   |   obj2 <= 738: 1 (250.0/116.0)
|   |   |   |   |   |   |   |   obj2 > 738
|   |   |   |   |   |   |   |   |   obj3 <= 875: 0 (383.0/106.0)
|   |   |   |   |   |   |   |   |   obj3 > 875
|   |   |   |   |   |   |   |   |   |   obj2 <= 741: 1 (12.0/2.0)
|   |   |   |   |   |   |   |   |   |   obj2 > 741
|   |   |   |   |   |   |   |   |   |   |   obj2 <= 760: 0 (182.0/76.0)
|   |   |   |   |   |   |   |   |   |   |   obj2 > 760: 1 (46.0/17.0)
|   |   |   |   |   |   |   obj1 > 886: 0 (410.0/88.0)
|   |   |   |   |   |   obj1 > 899
|   |   |   |   |   |   |   obj2 <= 732: 1 (197.0/90.0)
|   |   |   |   |   |   |   obj2 > 732: 0 (1729.0/690.0)
|   |   |   |   |   obj2 > 812
|   |   |   |   |   |   obj3 <= 865
|   |   |   |   |   |   |   obj2 <= 926
|   |   |   |   |   |   |   |   obj2 <= 884
|   |   |   |   |   |   |   |   |   obj2 <= 817: 1 (424.0/195.0)
|   |   |   |   |   |   |   |   |   obj2 > 817: 0 (764.0/321.0)
|   |   |   |   |   |   |   |   obj2 > 884
|   |   |   |   |   |   |   |   |   obj1 <= 899
|   |   |   |   |   |   |   |   |   |   obj1 <= 887: 1 (184.0/74.0)
|   |   |   |   |   |   |   |   |   |   obj1 > 887
|   |   |   |   |   |   |   |   |   |   |   obj2 <= 894: 1 (5.0/1.0)
|   |   |   |   |   |   |   |   |   |   |   obj2 > 894: 0 (29.0/6.0)
|   |   |   |   |   |   |   |   |   obj1 > 899: 1 (307.0/111.0)
|   |   |   |   |   |   |   obj2 > 926
|   |   |   |   |   |   |   |   obj2 <= 970
|   |   |   |   |   |   |   |   |   obj2 <= 959: 0 (290.0/105.0)
|   |   |   |   |   |   |   |   |   obj2 > 959: 1 (23.0/7.0)
|   |   |   |   |   |   |   |   obj2 > 970: 0 (84.0/20.0)
|   |   |   |   |   |   obj3 > 865
|   |   |   |   |   |   |   obj1 <= 886: 1 (530.0/171.0)
|   |   |   |   |   |   |   obj1 > 886
|   |   |   |   |   |   |   |   obj1 <= 893: 0 (50.0/6.0)
|   |   |   |   |   |   |   |   obj1 > 893
|   |   |   |   |   |   |   |   |   obj1 <= 899
|   |   |   |   |   |   |   |   |   |   obj1 <= 896: 1 (15.0/3.0)
|   |   |   |   |   |   |   |   |   |   obj1 > 896: 0 (12.0/1.0)
|   |   |   |   |   |   |   |   |   obj1 > 899
|   |   |   |   |   |   |   |   |   |   obj2 <= 878
|   |   |   |   |   |   |   |   |   |   |   obj2 <= 816: 1 (163.0/58.0)
|   |   |   |   |   |   |   |   |   |   |   obj2 > 816: 0 (301.0/138.0)
|   |   |   |   |   |   |   |   |   |   obj2 > 878
|   |   |   |   |   |   |   |   |   |   |   obj2 <= 965: 1 (317.0/116.0)
|   |   |   |   |   |   |   |   |   |   |   obj2 > 965: 0 (19.0/6.0)
|   |   |   |   obj1 > 900
|   |   |   |   |   obj1 <= 947: 0 (3173.0/827.0)
|   |   |   |   |   obj1 > 947
|   |   |   |   |   |   obj3 <= 508
|   |   |   |   |   |   |   obj3 <= 468: 0 (192.0/94.0)
|   |   |   |   |   |   |   obj3 > 468: 1 (147.0/47.0)
|   |   |   |   |   |   obj3 > 508
|   |   |   |   |   |   |   obj2 <= 703
|   |   |   |   |   |   |   |   obj2 <= 325
|   |   |   |   |   |   |   |   |   obj2 <= 313
|   |   |   |   |   |   |   |   |   |   obj2 <= 308: 0 (11.0/1.0)
|   |   |   |   |   |   |   |   |   |   obj2 > 308: 1 (17.0/5.0)
|   |   |   |   |   |   |   |   |   obj2 > 313: 0 (22.0/2.0)
|   |   |   |   |   |   |   |   obj2 > 325
|   |   |   |   |   |   |   |   |   obj2 <= 496
|   |   |   |   |   |   |   |   |   |   obj2 <= 328: 1 (41.0/8.0)
|   |   |   |   |   |   |   |   |   |   obj2 > 328
|   |   |   |   |   |   |   |   |   |   |   obj3 <= 771
|   |   |   |   |   |   |   |   |   |   |   |   obj3 <= 760
|   |   |   |   |   |   |   |   |   |   |   |   |   obj3 <= 740
|   |   |   |   |   |   |   |   |   |   |   |   |   |   obj3 <= 606: 0 (2.0)
|   |   |   |   |   |   |   |   |   |   |   |   |   |   obj3 > 606: 1 (24.0/7.0)
|   |   |   |   |   |   |   |   |   |   |   |   |   obj3 > 740: 0 (7.0/1.0)
|   |   |   |   |   |   |   |   |   |   |   |   obj3 > 760: 1 (34.0/3.0)
|   |   |   |   |   |   |   |   |   |   |   obj3 > 771
|   |   |   |   |   |   |   |   |   |   |   |   obj3 <= 783: 0 (14.0/2.0)
|   |   |   |   |   |   |   |   |   |   |   |   obj3 > 783: 1 (86.0/39.0)
|   |   |   |   |   |   |   |   |   obj2 > 496: 0 (310.0/139.0)
|   |   |   |   |   |   |   obj2 > 703: 0 (2277.0/809.0)
|   |   obj2 > 992
|   |   |   obj2 <= 993: 1 (825.0/221.0)
|   |   |   obj2 > 993
|   |   |   |   obj2 <= 998: 0 (150.0/22.0)
|   |   |   |   obj2 > 998: 1 (199.0/85.0)
|   obj1 > 950
|   |   obj1 <= 974: 0 (7592.0/914.0)
|   |   obj1 > 974
|   |   |   obj2 <= 762: 0 (3178.0/688.0)
|   |   |   obj2 > 762
|   |   |   |   obj1 <= 992: 0 (529.0/126.0)
|   |   |   |   obj1 > 992
|   |   |   |   |   obj1 <= 994
|   |   |   |   |   |   obj3 <= 760
|   |   |   |   |   |   |   obj3 <= 590: 1 (43.0/15.0)
|   |   |   |   |   |   |   obj3 > 590: 0 (788.0/331.0)
|   |   |   |   |   |   obj3 > 760
|   |   |   |   |   |   |   obj2 <= 881
|   |   |   |   |   |   |   |   obj2 <= 818
|   |   |   |   |   |   |   |   |   obj2 <= 812
|   |   |   |   |   |   |   |   |   |   obj3 <= 809: 0 (166.0/70.0)
|   |   |   |   |   |   |   |   |   |   obj3 > 809
|   |   |   |   |   |   |   |   |   |   |   obj3 <= 932
|   |   |   |   |   |   |   |   |   |   |   |   obj3 <= 875
|   |   |   |   |   |   |   |   |   |   |   |   |   obj2 <= 787
|   |   |   |   |   |   |   |   |   |   |   |   |   |   obj3 <= 821: 1 (30.0/11.0)
|   |   |   |   |   |   |   |   |   |   |   |   |   |   obj3 > 821: 0 (141.0/64.0)
|   |   |   |   |   |   |   |   |   |   |   |   |   obj2 > 787: 1 (38.0/14.0)
|   |   |   |   |   |   |   |   |   |   |   |   obj3 > 875: 1 (143.0/52.0)
|   |   |   |   |   |   |   |   |   |   |   obj3 > 932
|   |   |   |   |   |   |   |   |   |   |   |   obj3 <= 960: 0 (15.0/1.0)
|   |   |   |   |   |   |   |   |   |   |   |   obj3 > 960
|   |   |   |   |   |   |   |   |   |   |   |   |   obj2 <= 769: 1 (17.0/4.0)
|   |   |   |   |   |   |   |   |   |   |   |   |   obj2 > 769: 0 (9.0/1.0)
|   |   |   |   |   |   |   |   |   obj2 > 812: 1 (35.0/11.0)
|   |   |   |   |   |   |   |   obj2 > 818: 0 (159.0/60.0)
|   |   |   |   |   |   |   obj2 > 881
|   |   |   |   |   |   |   |   obj2 <= 935: 1 (503.0/158.0)
|   |   |   |   |   |   |   |   obj2 > 935: 0 (89.0/33.0)
|   |   |   |   |   obj1 > 994: 0 (588.0/168.0)

Number of Leaves  : 	65

Size of the tree : 	129


meka.classifiers.multilabel.CT: Node #2

J48 pruned tree
------------------

lbl0 = 0
|   obj1 <= 844
|   |   obj1 <= 734
|   |   |   obj1 <= 701
|   |   |   |   obj1 <= 673
|   |   |   |   |   obj1 <= 670
|   |   |   |   |   |   obj1 <= 664
|   |   |   |   |   |   |   obj1 <= 658: 1 (9228.0/2640.0)
|   |   |   |   |   |   |   obj1 > 658
|   |   |   |   |   |   |   |   obj1 <= 660: 0 (40.0/12.0)
|   |   |   |   |   |   |   |   obj1 > 660
|   |   |   |   |   |   |   |   |   obj2 <= 760
|   |   |   |   |   |   |   |   |   |   obj2 <= 703: 1 (194.0/50.0)
|   |   |   |   |   |   |   |   |   |   obj2 > 703
|   |   |   |   |   |   |   |   |   |   |   obj2 <= 706
|   |   |   |   |   |   |   |   |   |   |   |   obj3 <= 787: 0 (32.0/4.0)
|   |   |   |   |   |   |   |   |   |   |   |   obj3 > 787: 1 (6.0/1.0)
|   |   |   |   |   |   |   |   |   |   |   obj2 > 706
|   |   |   |   |   |   |   |   |   |   |   |   obj1 <= 663
|   |   |   |   |   |   |   |   |   |   |   |   |   obj3 <= 818: 1 (65.0/21.0)
|   |   |   |   |   |   |   |   |   |   |   |   |   obj3 > 818
|   |   |   |   |   |   |   |   |   |   |   |   |   |   obj2 <= 716: 1 (3.0/1.0)
|   |   |   |   |   |   |   |   |   |   |   |   |   |   obj2 > 716: 0 (7.0)
|   |   |   |   |   |   |   |   |   |   |   |   obj1 > 663: 1 (7.0/1.0)
|   |   |   |   |   |   |   |   |   obj2 > 760: 1 (136.0/20.0)
|   |   |   |   |   |   obj1 > 664
|   |   |   |   |   |   |   obj1 <= 669
|   |   |   |   |   |   |   |   obj2 <= 785
|   |   |   |   |   |   |   |   |   obj2 <= 703: 1 (55.0/21.0)
|   |   |   |   |   |   |   |   |   obj2 > 703: 0 (87.0/21.0)
|   |   |   |   |   |   |   |   obj2 > 785
|   |   |   |   |   |   |   |   |   obj3 <= 695: 1 (20.0/4.0)
|   |   |   |   |   |   |   |   |   obj3 > 695: 0 (41.0/16.0)
|   |   |   |   |   |   |   obj1 > 669
|   |   |   |   |   |   |   |   obj3 <= 882
|   |   |   |   |   |   |   |   |   obj2 <= 899: 1 (39.0/5.0)
|   |   |   |   |   |   |   |   |   obj2 > 899: 0 (4.0/1.0)
|   |   |   |   |   |   |   |   obj3 > 882
|   |   |   |   |   |   |   |   |   obj2 <= 804: 0 (8.0/1.0)
|   |   |   |   |   |   |   |   |   obj2 > 804
|   |   |   |   |   |   |   |   |   |   obj2 <= 855: 1 (4.0/1.0)
|   |   |   |   |   |   |   |   |   |   obj2 > 855: 0 (3.0)
|   |   |   |   |   obj1 > 670: 1 (1670.0/170.0)
|   |   |   |   obj1 > 673
|   |   |   |   |   obj1 <= 675
|   |   |   |   |   |   obj1 <= 674
|   |   |   |   |   |   |   obj2 <= 978: 1 (42.0/17.0)
|   |   |   |   |   |   |   obj2 > 978: 0 (5.0)
|   |   |   |   |   |   obj1 > 674: 0 (74.0/19.0)
|   |   |   |   |   obj1 > 675
|   |   |   |   |   |   obj1 <= 685: 1 (923.0/294.0)
|   |   |   |   |   |   obj1 > 685
|   |   |   |   |   |   |   obj1 <= 687: 0 (348.0/161.0)
|   |   |   |   |   |   |   obj1 > 687: 1 (7528.0/2356.0)
|   |   |   obj1 > 701
|   |   |   |   obj1 <= 706
|   |   |   |   |   obj1 <= 702: 1 (62.0/25.0)
|   |   |   |   |   obj1 > 702
|   |   |   |   |   |   obj2 <= 695
|   |   |   |   |   |   |   obj2 <= 694: 0 (670.0/226.0)
|   |   |   |   |   |   |   obj2 > 694: 1 (25.0/8.0)
|   |   |   |   |   |   obj2 > 695: 0 (1749.0/533.0)
|   |   |   |   obj1 > 706
|   |   |   |   |   obj1 <= 711
|   |   |   |   |   |   obj1 <= 707: 1 (338.0/121.0)
|   |   |   |   |   |   obj1 > 707
|   |   |   |   |   |   |   obj1 <= 708: 0 (154.0/48.0)
|   |   |   |   |   |   |   obj1 > 708
|   |   |   |   |   |   |   |   obj1 <= 709: 1 (92.0/32.0)
|   |   |   |   |   |   |   |   obj1 > 709
|   |   |   |   |   |   |   |   |   obj1 <= 710
|   |   |   |   |   |   |   |   |   |   obj2 <= 708
|   |   |   |   |   |   |   |   |   |   |   obj2 <= 702: 1 (169.0/73.0)
|   |   |   |   |   |   |   |   |   |   |   obj2 > 702: 0 (160.0/66.0)
|   |   |   |   |   |   |   |   |   |   obj2 > 708: 1 (71.0/22.0)
|   |   |   |   |   |   |   |   |   obj1 > 710: 0 (64.0/25.0)
|   |   |   |   |   obj1 > 711
|   |   |   |   |   |   obj1 <= 720
|   |   |   |   |   |   |   obj2 <= 895: 1 (388.0/92.0)
|   |   |   |   |   |   |   obj2 > 895
|   |   |   |   |   |   |   |   obj2 <= 978: 0 (33.0/11.0)
|   |   |   |   |   |   |   |   obj2 > 978: 1 (9.0/1.0)
|   |   |   |   |   |   obj1 > 720
|   |   |   |   |   |   |   obj1 <= 729
|   |   |   |   |   |   |   |   obj1 <= 728
|   |   |   |   |   |   |   |   |   obj1 <= 726: 1 (202.0/74.0)
|   |   |   |   |   |   |   |   |   obj1 > 726
|   |   |   |   |   |   |   |   |   |   obj3 <= 707: 1 (74.0/33.0)
|   |   |   |   |   |   |   |   |   |   obj3 > 707: 0 (30.0/6.0)
|   |   |   |   |   |   |   |   obj1 > 728: 0 (96.0/20.0)
|   |   |   |   |   |   |   obj1 > 729
|   |   |   |   |   |   |   |   obj2 <= 822
|   |   |   |   |   |   |   |   |   obj2 <= 777
|   |   |   |   |   |   |   |   |   |   obj3 <= 854: 1 (627.0/211.0)
|   |   |   |   |   |   |   |   |   |   obj3 > 854
|   |   |   |   |   |   |   |   |   |   |   obj2 <= 717
|   |   |   |   |   |   |   |   |   |   |   |   obj2 <= 320: 0 (4.0/1.0)
|   |   |   |   |   |   |   |   |   |   |   |   obj2 > 320: 1 (32.0/5.0)
|   |   |   |   |   |   |   |   |   |   |   obj2 > 717
|   |   |   |   |   |   |   |   |   |   |   |   obj3 <= 997: 0 (127.0/53.0)
|   |   |   |   |   |   |   |   |   |   |   |   obj3 > 997: 1 (24.0/5.0)
|   |   |   |   |   |   |   |   |   obj2 > 777: 1 (403.0/102.0)
|   |   |   |   |   |   |   |   obj2 > 822
|   |   |   |   |   |   |   |   |   obj1 <= 733: 1 (26.0/6.0)
|   |   |   |   |   |   |   |   |   obj1 > 733
|   |   |   |   |   |   |   |   |   |   obj2 <= 983: 0 (294.0/136.0)
|   |   |   |   |   |   |   |   |   |   obj2 > 983: 1 (22.0/4.0)
|   |   obj1 > 734
|   |   |   obj1 <= 761
|   |   |   |   obj1 <= 752
|   |   |   |   |   obj1 <= 739: 1 (1047.0/194.0)
|   |   |   |   |   obj1 > 739
|   |   |   |   |   |   obj1 <= 740
|   |   |   |   |   |   |   obj3 <= 674: 1 (15.0/2.0)
|   |   |   |   |   |   |   obj3 > 674: 0 (199.0/80.0)
|   |   |   |   |   |   obj1 > 740
|   |   |   |   |   |   |   obj1 <= 747: 1 (792.0/210.0)
|   |   |   |   |   |   |   obj1 > 747
|   |   |   |   |   |   |   |   obj2 <= 563: 1 (24.0/4.0)
|   |   |   |   |   |   |   |   obj2 > 563: 0 (171.0/77.0)
|   |   |   |   obj1 > 752: 1 (33481.0/6142.0)
|   |   |   obj1 > 761
|   |   |   |   obj2 <= 850
|   |   |   |   |   obj2 <= 735
|   |   |   |   |   |   obj2 <= 694
|   |   |   |   |   |   |   obj1 <= 805
|   |   |   |   |   |   |   |   obj1 <= 803: 1 (1827.0/587.0)
|   |   |   |   |   |   |   |   obj1 > 803
|   |   |   |   |   |   |   |   |   obj3 <= 766: 1 (97.0/47.0)
|   |   |   |   |   |   |   |   |   obj3 > 766: 0 (29.0/5.0)
|   |   |   |   |   |   |   obj1 > 805: 1 (953.0/234.0)
|   |   |   |   |   |   obj2 > 694
|   |   |   |   |   |   |   obj2 <= 704
|   |   |   |   |   |   |   |   obj1 <= 766: 1 (66.0/24.0)
|   |   |   |   |   |   |   |   obj1 > 766: 0 (389.0/149.0)
|   |   |   |   |   |   |   obj2 > 704
|   |   |   |   |   |   |   |   obj3 <= 746
|   |   |   |   |   |   |   |   |   obj3 <= 714
|   |   |   |   |   |   |   |   |   |   obj2 <= 726: 1 (140.0/50.0)
|   |   |   |   |   |   |   |   |   |   obj2 > 726
|   |   |   |   |   |   |   |   |   |   |   obj2 <= 731: 0 (52.0/13.0)
|   |   |   |   |   |   |   |   |   |   |   obj2 > 731: 1 (24.0/8.0)
|   |   |   |   |   |   |   |   |   obj3 > 714: 0 (89.0/28.0)
|   |   |   |   |   |   |   |   obj3 > 746: 1 (576.0/177.0)
|   |   |   |   |   obj2 > 735
|   |   |   |   |   |   obj1 <= 793
|   |   |   |   |   |   |   obj1 <= 778
|   |   |   |   |   |   |   |   obj3 <= 974
|   |   |   |   |   |   |   |   |   obj1 <= 767: 1 (654.0/131.0)
|   |   |   |   |   |   |   |   |   obj1 > 767
|   |   |   |   |   |   |   |   |   |   obj1 <= 769
|   |   |   |   |   |   |   |   |   |   |   obj2 <= 778: 1 (77.0/35.0)
|   |   |   |   |   |   |   |   |   |   |   obj2 > 778: 0 (70.0/23.0)
|   |   |   |   |   |   |   |   |   |   obj1 > 769: 1 (978.0/224.0)
|   |   |   |   |   |   |   |   obj3 > 974
|   |   |   |   |   |   |   |   |   obj1 <= 769
|   |   |   |   |   |   |   |   |   |   obj1 <= 766: 1 (9.0/2.0)
|   |   |   |   |   |   |   |   |   |   obj1 > 766
|   |   |   |   |   |   |   |   |   |   |   obj3 <= 978
|   |   |   |   |   |   |   |   |   |   |   |   obj2 <= 760: 1 (5.0/1.0)
|   |   |   |   |   |   |   |   |   |   |   |   obj2 > 760: 0 (7.0/2.0)
|   |   |   |   |   |   |   |   |   |   |   obj3 > 978: 0 (18.0/2.0)
|   |   |   |   |   |   |   |   |   obj1 > 769: 1 (13.0/3.0)
|   |   |   |   |   |   |   obj1 > 778
|   |   |   |   |   |   |   |   obj2 <= 790
|   |   |   |   |   |   |   |   |   obj2 <= 773: 1 (141.0/59.0)
|   |   |   |   |   |   |   |   |   obj2 > 773: 0 (48.0/18.0)
|   |   |   |   |   |   |   |   obj2 > 790: 1 (233.0/76.0)
|   |   |   |   |   |   obj1 > 793: 1 (10003.0/2034.0)
|   |   |   |   obj2 > 850
|   |   |   |   |   obj1 <= 768
|   |   |   |   |   |   obj1 <= 766
|   |   |   |   |   |   |   obj1 <= 764
|   |   |   |   |   |   |   |   obj2 <= 881: 1 (2.0)
|   |   |   |   |   |   |   |   obj2 > 881
|   |   |   |   |   |   |   |   |   obj3 <= 726
|   |   |   |   |   |   |   |   |   |   obj2 <= 909: 0 (3.0/1.0)
|   |   |   |   |   |   |   |   |   |   obj2 > 909: 1 (3.0)
|   |   |   |   |   |   |   |   |   obj3 > 726: 0 (5.0)
|   |   |   |   |   |   |   obj1 > 764
|   |   |   |   |   |   |   |   obj2 <= 883
|   |   |   |   |   |   |   |   |   obj3 <= 949
|   |   |   |   |   |   |   |   |   |   obj3 <= 915
|   |   |   |   |   |   |   |   |   |   |   obj3 <= 430: 0 (4.0)
|   |   |   |   |   |   |   |   |   |   |   obj3 > 430: 1 (32.0/13.0)
|   |   |   |   |   |   |   |   |   |   obj3 > 915: 0 (6.0)
|   |   |   |   |   |   |   |   |   obj3 > 949: 1 (5.0)
|   |   |   |   |   |   |   |   obj2 > 883: 1 (183.0/43.0)
|   |   |   |   |   |   obj1 > 766: 0 (387.0/94.0)
|   |   |   |   |   obj1 > 768
|   |   |   |   |   |   obj1 <= 829
|   |   |   |   |   |   |   obj2 <= 948
|   |   |   |   |   |   |   |   obj3 <= 962
|   |   |   |   |   |   |   |   |   obj2 <= 931
|   |   |   |   |   |   |   |   |   |   obj2 <= 900: 1 (987.0/326.0)
|   |   |   |   |   |   |   |   |   |   obj2 > 900
|   |   |   |   |   |   |   |   |   |   |   obj1 <= 800
|   |   |   |   |   |   |   |   |   |   |   |   obj1 <= 789
|   |   |   |   |   |   |   |   |   |   |   |   |   obj3 <= 879: 1 (58.0/16.0)
|   |   |   |   |   |   |   |   |   |   |   |   |   obj3 > 879: 0 (20.0/7.0)
|   |   |   |   |   |   |   |   |   |   |   |   obj1 > 789: 1 (11.0)
|   |   |   |   |   |   |   |   |   |   |   obj1 > 800
|   |   |   |   |   |   |   |   |   |   |   |   obj1 <= 809: 0 (233.0/88.0)
|   |   |   |   |   |   |   |   |   |   |   |   obj1 > 809: 1 (30.0/7.0)
|   |   |   |   |   |   |   |   |   obj2 > 931
|   |   |   |   |   |   |   |   |   |   obj1 <= 805: 1 (89.0/18.0)
|   |   |   |   |   |   |   |   |   |   obj1 > 805
|   |   |   |   |   |   |   |   |   |   |   obj2 <= 946
|   |   |   |   |   |   |   |   |   |   |   |   obj1 <= 819: 1 (16.0/5.0)
|   |   |   |   |   |   |   |   |   |   |   |   obj1 > 819: 0 (26.0/8.0)
|   |   |   |   |   |   |   |   |   |   |   obj2 > 946
|   |   |   |   |   |   |   |   |   |   |   |   obj2 <= 947: 1 (324.0/103.0)
|   |   |   |   |   |   |   |   |   |   |   |   obj2 > 947
|   |   |   |   |   |   |   |   |   |   |   |   |   obj3 <= 799: 1 (38.0/14.0)
|   |   |   |   |   |   |   |   |   |   |   |   |   obj3 > 799: 0 (11.0/1.0)
|   |   |   |   |   |   |   |   obj3 > 962: 0 (137.0/61.0)
|   |   |   |   |   |   |   obj2 > 948: 1 (1671.0/512.0)
|   |   |   |   |   |   obj1 > 829
|   |   |   |   |   |   |   obj1 <= 830: 0 (416.0/186.0)
|   |   |   |   |   |   |   obj1 > 830: 1 (456.0/119.0)
|   obj1 > 844
|   |   obj1 <= 948
|   |   |   obj1 <= 899
|   |   |   |   obj1 <= 873
|   |   |   |   |   obj1 <= 854: 1 (118.0/39.0)
|   |   |   |   |   obj1 > 854
|   |   |   |   |   |   obj3 <= 981
|   |   |   |   |   |   |   obj2 <= 983: 1 (1772.0/789.0)
|   |   |   |   |   |   |   obj2 > 983: 0 (85.0/30.0)
|   |   |   |   |   |   obj3 > 981: 0 (90.0/30.0)
|   |   |   |   obj1 > 873
|   |   |   |   |   obj1 <= 890
|   |   |   |   |   |   obj1 <= 886: 1 (1686.0/595.0)
|   |   |   |   |   |   obj1 > 886
|   |   |   |   |   |   |   obj1 <= 887: 0 (16.0/3.0)
|   |   |   |   |   |   |   obj1 > 887
|   |   |   |   |   |   |   |   obj2 <= 708
|   |   |   |   |   |   |   |   |   obj1 <= 889
|   |   |   |   |   |   |   |   |   |   obj3 <= 705: 1 (2.0)
|   |   |   |   |   |   |   |   |   |   obj3 > 705: 0 (2.0)
|   |   |   |   |   |   |   |   |   obj1 > 889: 0 (3.0)
|   |   |   |   |   |   |   |   obj2 > 708: 1 (32.0/11.0)
|   |   |   |   |   obj1 > 890
|   |   |   |   |   |   obj1 <= 892: 1 (294.0/53.0)
|   |   |   |   |   |   obj1 > 892
|   |   |   |   |   |   |   obj1 <= 895
|   |   |   |   |   |   |   |   obj1 <= 893
|   |   |   |   |   |   |   |   |   obj2 <= 787
|   |   |   |   |   |   |   |   |   |   obj2 <= 614: 0 (2.0)
|   |   |   |   |   |   |   |   |   |   obj2 > 614
|   |   |   |   |   |   |   |   |   |   |   obj2 <= 704: 1 (3.0)
|   |   |   |   |   |   |   |   |   |   |   obj2 > 704: 0 (3.0/1.0)
|   |   |   |   |   |   |   |   |   obj2 > 787: 1 (7.0)
|   |   |   |   |   |   |   |   obj1 > 893
|   |   |   |   |   |   |   |   |   obj1 <= 894
|   |   |   |   |   |   |   |   |   |   obj2 <= 809
|   |   |   |   |   |   |   |   |   |   |   obj3 <= 705: 0 (3.0/1.0)
|   |   |   |   |   |   |   |   |   |   |   obj3 > 705: 1 (11.0/1.0)
|   |   |   |   |   |   |   |   |   |   obj2 > 809: 0 (31.0/10.0)
|   |   |   |   |   |   |   |   |   obj1 > 894: 0 (17.0/8.0)
|   |   |   |   |   |   |   obj1 > 895
|   |   |   |   |   |   |   |   obj1 <= 897: 1 (32.0/5.0)
|   |   |   |   |   |   |   |   obj1 > 897
|   |   |   |   |   |   |   |   |   obj3 <= 318: 0 (7.0/1.0)
|   |   |   |   |   |   |   |   |   obj3 > 318: 1 (87.0/24.0)
|   |   |   obj1 > 899
|   |   |   |   obj2 <= 803
|   |   |   |   |   obj1 <= 901: 0 (1068.0/457.0)
|   |   |   |   |   obj1 > 901
|   |   |   |   |   |   obj1 <= 919: 1 (367.0/111.0)
|   |   |   |   |   |   obj1 > 919
|   |   |   |   |   |   |   obj3 <= 855
|   |   |   |   |   |   |   |   obj1 <= 947
|   |   |   |   |   |   |   |   |   obj1 <= 945: 1 (377.0/159.0)
|   |   |   |   |   |   |   |   |   obj1 > 945
|   |   |   |   |   |   |   |   |   |   obj3 <= 841
|   |   |   |   |   |   |   |   |   |   |   obj1 <= 946
|   |   |   |   |   |   |   |   |   |   |   |   obj3 <= 793
|   |   |   |   |   |   |   |   |   |   |   |   |   obj3 <= 670: 0 (3.0/1.0)
|   |   |   |   |   |   |   |   |   |   |   |   |   obj3 > 670: 1 (4.0)
|   |   |   |   |   |   |   |   |   |   |   |   obj3 > 793: 0 (9.0/1.0)
|   |   |   |   |   |   |   |   |   |   |   obj1 > 946: 0 (56.0/20.0)
|   |   |   |   |   |   |   |   |   |   obj3 > 841: 1 (10.0/2.0)
|   |   |   |   |   |   |   |   obj1 > 947
|   |   |   |   |   |   |   |   |   obj2 <= 673: 1 (231.0/88.0)
|   |   |   |   |   |   |   |   |   obj2 > 673
|   |   |   |   |   |   |   |   |   |   obj2 <= 732
|   |   |   |   |   |   |   |   |   |   |   obj2 <= 691: 0 (8.0/1.0)
|   |   |   |   |   |   |   |   |   |   |   obj2 > 691
|   |   |   |   |   |   |   |   |   |   |   |   obj3 <= 760: 1 (59.0/23.0)
|   |   |   |   |   |   |   |   |   |   |   |   obj3 > 760: 0 (28.0/8.0)
|   |   |   |   |   |   |   |   |   |   obj2 > 732: 1 (453.0/153.0)
|   |   |   |   |   |   |   obj3 > 855
|   |   |   |   |   |   |   |   obj3 <= 859: 0 (25.0/5.0)
|   |   |   |   |   |   |   |   obj3 > 859
|   |   |   |   |   |   |   |   |   obj2 <= 697: 0 (115.0/44.0)
|   |   |   |   |   |   |   |   |   obj2 > 697: 1 (274.0/123.0)
|   |   |   |   obj2 > 803
|   |   |   |   |   obj3 <= 805
|   |   |   |   |   |   obj1 <= 901: 0 (510.0/202.0)
|   |   |   |   |   |   obj1 > 901
|   |   |   |   |   |   |   obj1 <= 946
|   |   |   |   |   |   |   |   obj1 <= 932
|   |   |   |   |   |   |   |   |   obj1 <= 919
|   |   |   |   |   |   |   |   |   |   obj2 <= 840: 0 (31.0/14.0)
|   |   |   |   |   |   |   |   |   |   obj2 > 840: 1 (96.0/20.0)
|   |   |   |   |   |   |   |   |   obj1 > 919: 0 (168.0/82.0)
|   |   |   |   |   |   |   |   obj1 > 932: 1 (70.0/17.0)
|   |   |   |   |   |   |   obj1 > 946
|   |   |   |   |   |   |   |   obj2 <= 809: 0 (68.0/16.0)
|   |   |   |   |   |   |   |   obj2 > 809
|   |   |   |   |   |   |   |   |   obj1 <= 947: 0 (134.0/47.0)
|   |   |   |   |   |   |   |   |   obj1 > 947
|   |   |   |   |   |   |   |   |   |   obj2 <= 836: 1 (178.0/65.0)
|   |   |   |   |   |   |   |   |   |   obj2 > 836
|   |   |   |   |   |   |   |   |   |   |   obj2 <= 996: 0 (163.0/62.0)
|   |   |   |   |   |   |   |   |   |   |   obj2 > 996: 1 (53.0/17.0)
|   |   |   |   |   obj3 > 805
|   |   |   |   |   |   obj3 <= 996
|   |   |   |   |   |   |   obj2 <= 806: 0 (104.0/20.0)
|   |   |   |   |   |   |   obj2 > 806
|   |   |   |   |   |   |   |   obj2 <= 812
|   |   |   |   |   |   |   |   |   obj1 <= 900: 0 (3.0)
|   |   |   |   |   |   |   |   |   obj1 > 900: 1 (37.0/11.0)
|   |   |   |   |   |   |   |   obj2 > 812
|   |   |   |   |   |   |   |   |   obj1 <= 901: 0 (666.0/184.0)
|   |   |   |   |   |   |   |   |   obj1 > 901
|   |   |   |   |   |   |   |   |   |   obj1 <= 946
|   |   |   |   |   |   |   |   |   |   |   obj3 <= 922
|   |   |   |   |   |   |   |   |   |   |   |   obj1 <= 911: 1 (28.0/7.0)
|   |   |   |   |   |   |   |   |   |   |   |   obj1 > 911
|   |   |   |   |   |   |   |   |   |   |   |   |   obj1 <= 916: 0 (8.0)
|   |   |   |   |   |   |   |   |   |   |   |   |   obj1 > 916
|   |   |   |   |   |   |   |   |   |   |   |   |   |   obj3 <= 884: 1 (115.0/50.0)
|   |   |   |   |   |   |   |   |   |   |   |   |   |   obj3 > 884: 0 (34.0/10.0)
|   |   |   |   |   |   |   |   |   |   |   obj3 > 922: 1 (81.0/33.0)
|   |   |   |   |   |   |   |   |   |   obj1 > 946
|   |   |   |   |   |   |   |   |   |   |   obj2 <= 896
|   |   |   |   |   |   |   |   |   |   |   |   obj1 <= 947: 0 (452.0/138.0)
|   |   |   |   |   |   |   |   |   |   |   |   obj1 > 947
|   |   |   |   |   |   |   |   |   |   |   |   |   obj3 <= 809: 0 (29.0/5.0)
|   |   |   |   |   |   |   |   |   |   |   |   |   obj3 > 809
|   |   |   |   |   |   |   |   |   |   |   |   |   |   obj3 <= 826: 1 (19.0/5.0)
|   |   |   |   |   |   |   |   |   |   |   |   |   |   obj3 > 826: 0 (194.0/56.0)
|   |   |   |   |   |   |   |   |   |   |   obj2 > 896
|   |   |   |   |   |   |   |   |   |   |   |   obj2 <= 996: 0 (285.0/54.0)
|   |   |   |   |   |   |   |   |   |   |   |   obj2 > 996: 1 (13.0/3.0)
|   |   |   |   |   |   obj3 > 996: 1 (33.0/9.0)
|   |   obj1 > 948
|   |   |   obj1 <= 998
|   |   |   |   obj1 <= 974: 1 (6699.0/1747.0)
|   |   |   |   obj1 > 974
|   |   |   |   |   obj1 <= 995
|   |   |   |   |   |   obj1 <= 984
|   |   |   |   |   |   |   obj2 <= 986: 1 (332.0/126.0)
|   |   |   |   |   |   |   obj2 > 986
|   |   |   |   |   |   |   |   obj3 <= 795: 0 (13.0/5.0)
|   |   |   |   |   |   |   |   obj3 > 795
|   |   |   |   |   |   |   |   |   obj3 <= 839: 1 (3.0)
|   |   |   |   |   |   |   |   |   obj3 > 839: 0 (6.0/1.0)
|   |   |   |   |   |   obj1 > 984
|   |   |   |   |   |   |   obj1 <= 986: 0 (36.0/9.0)
|   |   |   |   |   |   |   obj1 > 986
|   |   |   |   |   |   |   |   obj1 <= 994
|   |   |   |   |   |   |   |   |   obj1 <= 992: 1 (335.0/118.0)
|   |   |   |   |   |   |   |   |   obj1 > 992
|   |   |   |   |   |   |   |   |   |   obj2 <= 826
|   |   |   |   |   |   |   |   |   |   |   obj2 <= 603: 0 (46.0/19.0)
|   |   |   |   |   |   |   |   |   |   |   obj2 > 603: 1 (1075.0/406.0)
|   |   |   |   |   |   |   |   |   |   obj2 > 826
|   |   |   |   |   |   |   |   |   |   |   obj3 <= 760: 1 (287.0/115.0)
|   |   |   |   |   |   |   |   |   |   |   obj3 > 760
|   |   |   |   |   |   |   |   |   |   |   |   obj2 <= 950: 0 (258.0/112.0)
|   |   |   |   |   |   |   |   |   |   |   |   obj2 > 950: 1 (52.0/17.0)
|   |   |   |   |   |   |   |   obj1 > 994: 1 (47.0/11.0)
|   |   |   |   |   obj1 > 995
|   |   |   |   |   |   obj1 <= 996: 0 (173.0/38.0)
|   |   |   |   |   |   obj1 > 996
|   |   |   |   |   |   |   obj1 <= 997: 1 (28.0/11.0)
|   |   |   |   |   |   |   obj1 > 997
|   |   |   |   |   |   |   |   obj2 <= 906: 0 (6.0/1.0)
|   |   |   |   |   |   |   |   obj2 > 906: 1 (3.0)
|   |   |   obj1 > 998: 1 (1685.0/250.0)
lbl0 = 1: 0 (31365.0/6176.0)

Number of Leaves  : 	193

Size of the tree : 	385


meka.classifiers.multilabel.CT: Node #3

J48 pruned tree
------------------

lbl1 = 0
|   obj1 <= 862
|   |   obj1 <= 753
|   |   |   obj1 <= 694
|   |   |   |   obj2 <= 504
|   |   |   |   |   obj2 <= 346
|   |   |   |   |   |   obj1 <= 590: 0 (850.0/181.0)
|   |   |   |   |   |   obj1 > 590
|   |   |   |   |   |   |   obj2 <= 314
|   |   |   |   |   |   |   |   obj2 <= 260
|   |   |   |   |   |   |   |   |   obj3 <= 606: 1 (33.0/13.0)
|   |   |   |   |   |   |   |   |   obj3 > 606
|   |   |   |   |   |   |   |   |   |   obj3 <= 723: 0 (74.0/18.0)
|   |   |   |   |   |   |   |   |   |   obj3 > 723: 1 (16.0/5.0)
|   |   |   |   |   |   |   |   obj2 > 260: 0 (232.0/53.0)
|   |   |   |   |   |   |   obj2 > 314
|   |   |   |   |   |   |   |   obj3 <= 726
|   |   |   |   |   |   |   |   |   obj3 <= 319
|   |   |   |   |   |   |   |   |   |   obj2 <= 324: 0 (133.0/64.0)
|   |   |   |   |   |   |   |   |   |   obj2 > 324: 1 (8.0/1.0)
|   |   |   |   |   |   |   |   |   obj3 > 319: 0 (375.0/129.0)
|   |   |   |   |   |   |   |   obj3 > 726: 1 (100.0/45.0)
|   |   |   |   |   obj2 > 346
|   |   |   |   |   |   obj2 <= 369: 1 (164.0/62.0)
|   |   |   |   |   |   obj2 > 369: 0 (85.0/29.0)
|   |   |   |   obj2 > 504
|   |   |   |   |   obj2 <= 753: 0 (5256.0/1315.0)
|   |   |   |   |   obj2 > 753
|   |   |   |   |   |   obj1 <= 673
|   |   |   |   |   |   |   obj1 <= 600
|   |   |   |   |   |   |   |   obj1 <= 592: 0 (1476.0/411.0)
|   |   |   |   |   |   |   |   obj1 > 592
|   |   |   |   |   |   |   |   |   obj2 <= 809
|   |   |   |   |   |   |   |   |   |   obj3 <= 288: 0 (3.0/1.0)
|   |   |   |   |   |   |   |   |   |   obj3 > 288: 1 (18.0/1.0)
|   |   |   |   |   |   |   |   |   obj2 > 809: 0 (28.0/9.0)
|   |   |   |   |   |   |   obj1 > 600: 0 (787.0/202.0)
|   |   |   |   |   |   obj1 > 673
|   |   |   |   |   |   |   obj1 <= 675
|   |   |   |   |   |   |   |   obj1 <= 674
|   |   |   |   |   |   |   |   |   obj3 <= 792: 1 (11.0/2.0)
|   |   |   |   |   |   |   |   |   obj3 > 792
|   |   |   |   |   |   |   |   |   |   obj2 <= 821: 0 (4.0)
|   |   |   |   |   |   |   |   |   |   obj2 > 821
|   |   |   |   |   |   |   |   |   |   |   obj2 <= 971: 1 (2.0)
|   |   |   |   |   |   |   |   |   |   |   obj2 > 971: 0 (2.0)
|   |   |   |   |   |   |   |   obj1 > 674: 1 (38.0/6.0)
|   |   |   |   |   |   |   obj1 > 675: 0 (510.0/190.0)
|   |   |   obj1 > 694: 0 (7256.0/1346.0)
|   |   obj1 > 753
|   |   |   obj1 <= 761
|   |   |   |   obj1 <= 760
|   |   |   |   |   obj2 <= 854
|   |   |   |   |   |   obj2 <= 842: 0 (6072.0/2341.0)
|   |   |   |   |   |   obj2 > 842: 1 (591.0/195.0)
|   |   |   |   |   obj2 > 854
|   |   |   |   |   |   obj2 <= 951: 0 (1873.0/589.0)
|   |   |   |   |   |   obj2 > 951
|   |   |   |   |   |   |   obj2 <= 955: 1 (407.0/191.0)
|   |   |   |   |   |   |   obj2 > 955
|   |   |   |   |   |   |   |   obj2 <= 974
|   |   |   |   |   |   |   |   |   obj3 <= 837: 0 (171.0/47.0)
|   |   |   |   |   |   |   |   |   obj3 > 837
|   |   |   |   |   |   |   |   |   |   obj3 <= 854: 1 (32.0/8.0)
|   |   |   |   |   |   |   |   |   |   obj3 > 854
|   |   |   |   |   |   |   |   |   |   |   obj3 <= 996: 0 (126.0/56.0)
|   |   |   |   |   |   |   |   |   |   |   obj3 > 996: 1 (7.0/1.0)
|   |   |   |   |   |   |   |   obj2 > 974: 0 (744.0/315.0)
|   |   |   |   obj1 > 760: 1 (98.0/47.0)
|   |   |   obj1 > 761
|   |   |   |   obj1 <= 843
|   |   |   |   |   obj1 <= 803
|   |   |   |   |   |   obj1 <= 795: 0 (2870.0/647.0)
|   |   |   |   |   |   obj1 > 795
|   |   |   |   |   |   |   obj1 <= 799
|   |   |   |   |   |   |   |   obj3 <= 888
|   |   |   |   |   |   |   |   |   obj3 <= 529: 0 (13.0/5.0)
|   |   |   |   |   |   |   |   |   obj3 > 529: 1 (53.0/11.0)
|   |   |   |   |   |   |   |   obj3 > 888: 0 (27.0/11.0)
|   |   |   |   |   |   |   obj1 > 799: 0 (2004.0/412.0)
|   |   |   |   |   obj1 > 803
|   |   |   |   |   |   obj1 <= 804: 1 (130.0/31.0)
|   |   |   |   |   |   obj1 > 804: 0 (5322.0/1347.0)
|   |   |   |   obj1 > 843
|   |   |   |   |   obj2 <= 770
|   |   |   |   |   |   obj2 <= 753: 0 (121.0/37.0)
|   |   |   |   |   |   obj2 > 753: 1 (183.0/84.0)
|   |   |   |   |   obj2 > 770
|   |   |   |   |   |   obj3 <= 765
|   |   |   |   |   |   |   obj3 <= 673: 0 (58.0/15.0)
|   |   |   |   |   |   |   obj3 > 673: 1 (156.0/74.0)
|   |   |   |   |   |   obj3 > 765: 0 (589.0/172.0)
|   obj1 > 862
|   |   obj1 <= 950: 0 (10928.0/1743.0)
|   |   obj1 > 950
|   |   |   obj1 <= 955
|   |   |   |   obj1 <= 954
|   |   |   |   |   obj1 <= 951: 0 (28.0/7.0)
|   |   |   |   |   obj1 > 951
|   |   |   |   |   |   obj1 <= 952
|   |   |   |   |   |   |   obj2 <= 870: 0 (22.0/4.0)
|   |   |   |   |   |   |   obj2 > 870
|   |   |   |   |   |   |   |   obj2 <= 954: 1 (7.0)
|   |   |   |   |   |   |   |   obj2 > 954: 0 (4.0)
|   |   |   |   |   |   obj1 > 952: 0 (920.0/340.0)
|   |   |   |   obj1 > 954: 1 (113.0/40.0)
|   |   |   obj1 > 955
|   |   |   |   obj1 <= 998
|   |   |   |   |   obj3 <= 998
|   |   |   |   |   |   obj1 <= 992
|   |   |   |   |   |   |   obj1 <= 989: 0 (1650.0/347.0)
|   |   |   |   |   |   |   obj1 > 989
|   |   |   |   |   |   |   |   obj1 <= 990
|   |   |   |   |   |   |   |   |   obj3 <= 692: 1 (35.0/10.0)
|   |   |   |   |   |   |   |   |   obj3 > 692: 0 (14.0/4.0)
|   |   |   |   |   |   |   |   obj1 > 990: 0 (94.0/28.0)
|   |   |   |   |   |   obj1 > 992: 0 (2125.0/324.0)
|   |   |   |   |   obj3 > 998
|   |   |   |   |   |   obj1 <= 974: 0 (4.0)
|   |   |   |   |   |   obj1 > 974: 1 (52.0/24.0)
|   |   |   |   obj1 > 998
|   |   |   |   |   obj2 <= 965: 0 (516.0/178.0)
|   |   |   |   |   obj2 > 965
|   |   |   |   |   |   obj3 <= 750: 0 (3.0)
|   |   |   |   |   |   obj3 > 750: 1 (25.0/6.0)
lbl1 = 1: 1 (81657.0/7743.0)

Number of Leaves  : 	64

Size of the tree : 	127


meka.classifiers.multilabel.CT: Node #4

J48 pruned tree
------------------

lbl0 = 0
|   obj3 <= 368
|   |   obj3 <= 359
|   |   |   obj2 <= 733
|   |   |   |   obj1 <= 693: 1 (1270.0/521.0)
|   |   |   |   obj1 > 693
|   |   |   |   |   obj3 <= 321: 1 (2473.0/1169.0)
|   |   |   |   |   obj3 > 321: 0 (293.0/124.0)
|   |   |   obj2 > 733: 0 (2808.0/1290.0)
|   |   obj3 > 359
|   |   |   obj1 <= 363
|   |   |   |   obj1 <= 316: 1 (14.0/1.0)
|   |   |   |   obj1 > 316
|   |   |   |   |   obj3 <= 360: 1 (5.0)
|   |   |   |   |   obj3 > 360
|   |   |   |   |   |   obj2 <= 359: 0 (8.0/1.0)
|   |   |   |   |   |   obj2 > 359: 1 (21.0/7.0)
|   |   |   obj1 > 363: 1 (298.0/65.0)
|   obj3 > 368
|   |   obj1 <= 676
|   |   |   obj1 <= 598
|   |   |   |   obj1 <= 369
|   |   |   |   |   obj1 <= 365: 0 (2633.0/1299.0)
|   |   |   |   |   obj1 > 365: 1 (133.0/32.0)
|   |   |   |   obj1 > 369
|   |   |   |   |   obj1 <= 595: 0 (2894.0/1258.0)
|   |   |   |   |   obj1 > 595
|   |   |   |   |   |   obj2 <= 716: 1 (70.0/14.0)
|   |   |   |   |   |   obj2 > 716: 0 (12.0/3.0)
|   |   |   obj1 > 598: 0 (4472.0/1552.0)
|   |   obj1 > 676
|   |   |   obj1 <= 686: 1 (614.0/154.0)
|   |   |   obj1 > 686
|   |   |   |   obj1 <= 694
|   |   |   |   |   obj1 <= 688
|   |   |   |   |   |   obj3 <= 904
|   |   |   |   |   |   |   obj2 <= 701: 1 (143.0/67.0)
|   |   |   |   |   |   |   obj2 > 701: 0 (102.0/36.0)
|   |   |   |   |   |   obj3 > 904: 0 (17.0/2.0)
|   |   |   |   |   obj1 > 688
|   |   |   |   |   |   obj2 <= 694: 1 (2518.0/1133.0)
|   |   |   |   |   |   obj2 > 694
|   |   |   |   |   |   |   obj2 <= 704: 0 (1152.0/518.0)
|   |   |   |   |   |   |   obj2 > 704: 1 (1317.0/608.0)
|   |   |   |   obj1 > 694
|   |   |   |   |   obj2 <= 894
|   |   |   |   |   |   obj1 <= 765
|   |   |   |   |   |   |   obj2 <= 842
|   |   |   |   |   |   |   |   obj1 <= 747: 0 (6927.0/3039.0)
|   |   |   |   |   |   |   |   obj1 > 747
|   |   |   |   |   |   |   |   |   obj2 <= 617
|   |   |   |   |   |   |   |   |   |   obj2 <= 566: 0 (973.0/435.0)
|   |   |   |   |   |   |   |   |   |   obj2 > 566: 1 (1305.0/608.0)
|   |   |   |   |   |   |   |   |   obj2 > 617
|   |   |   |   |   |   |   |   |   |   obj2 <= 675
|   |   |   |   |   |   |   |   |   |   |   obj2 <= 619
|   |   |   |   |   |   |   |   |   |   |   |   obj3 <= 763: 1 (114.0/49.0)
|   |   |   |   |   |   |   |   |   |   |   |   obj3 > 763: 0 (57.0/20.0)
|   |   |   |   |   |   |   |   |   |   |   obj2 > 619: 0 (471.0/177.0)
|   |   |   |   |   |   |   |   |   |   obj2 > 675: 0 (15299.0/7300.0)
|   |   |   |   |   |   |   obj2 > 842
|   |   |   |   |   |   |   |   obj1 <= 704: 1 (166.0/66.0)
|   |   |   |   |   |   |   |   obj1 > 704: 0 (6507.0/2784.0)
|   |   |   |   |   |   obj1 > 765
|   |   |   |   |   |   |   obj1 <= 897
|   |   |   |   |   |   |   |   obj3 <= 954: 0 (18226.0/7564.0)
|   |   |   |   |   |   |   |   obj3 > 954
|   |   |   |   |   |   |   |   |   obj3 <= 955: 1 (350.0/155.0)
|   |   |   |   |   |   |   |   |   obj3 > 955: 0 (1535.0/652.0)
|   |   |   |   |   |   |   obj1 > 897
|   |   |   |   |   |   |   |   obj3 <= 994
|   |   |   |   |   |   |   |   |   obj1 <= 947
|   |   |   |   |   |   |   |   |   |   obj1 <= 946: 0 (3036.0/1457.0)
|   |   |   |   |   |   |   |   |   |   obj1 > 946: 1 (537.0/239.0)
|   |   |   |   |   |   |   |   |   obj1 > 947
|   |   |   |   |   |   |   |   |   |   obj1 <= 953: 0 (3258.0/1327.0)
|   |   |   |   |   |   |   |   |   |   obj1 > 953
|   |   |   |   |   |   |   |   |   |   |   obj1 <= 955: 1 (449.0/196.0)
|   |   |   |   |   |   |   |   |   |   |   obj1 > 955: 0 (5617.0/2606.0)
|   |   |   |   |   |   |   |   obj3 > 994
|   |   |   |   |   |   |   |   |   obj3 <= 998: 1 (177.0/63.0)
|   |   |   |   |   |   |   |   |   obj3 > 998
|   |   |   |   |   |   |   |   |   |   obj1 <= 967
|   |   |   |   |   |   |   |   |   |   |   obj1 <= 902
|   |   |   |   |   |   |   |   |   |   |   |   obj2 <= 821: 1 (28.0/13.0)
|   |   |   |   |   |   |   |   |   |   |   |   obj2 > 821: 0 (4.0)
|   |   |   |   |   |   |   |   |   |   |   obj1 > 902: 1 (75.0/27.0)
|   |   |   |   |   |   |   |   |   |   obj1 > 967: 0 (45.0/18.0)
|   |   |   |   |   obj2 > 894
|   |   |   |   |   |   obj3 <= 483: 0 (66.0/17.0)
|   |   |   |   |   |   obj3 > 483
|   |   |   |   |   |   |   obj2 <= 900
|   |   |   |   |   |   |   |   obj1 <= 947: 1 (2343.0/1104.0)
|   |   |   |   |   |   |   |   obj1 > 947
|   |   |   |   |   |   |   |   |   obj1 <= 958
|   |   |   |   |   |   |   |   |   |   obj3 <= 799: 1 (46.0/22.0)
|   |   |   |   |   |   |   |   |   |   obj3 > 799: 0 (147.0/22.0)
|   |   |   |   |   |   |   |   |   obj1 > 958
|   |   |   |   |   |   |   |   |   |   obj2 <= 898: 0 (6.0/1.0)
|   |   |   |   |   |   |   |   |   |   obj2 > 898: 1 (62.0/24.0)
|   |   |   |   |   |   |   obj2 > 900
|   |   |   |   |   |   |   |   obj2 <= 984
|   |   |   |   |   |   |   |   |   obj2 <= 954: 0 (6448.0/2918.0)
|   |   |   |   |   |   |   |   |   obj2 > 954
|   |   |   |   |   |   |   |   |   |   obj2 <= 955: 1 (590.0/275.0)
|   |   |   |   |   |   |   |   |   |   obj2 > 955: 0 (4407.0/2038.0)
|   |   |   |   |   |   |   |   obj2 > 984
|   |   |   |   |   |   |   |   |   obj2 <= 989
|   |   |   |   |   |   |   |   |   |   obj2 <= 988
|   |   |   |   |   |   |   |   |   |   |   obj1 <= 827: 0 (4.0)
|   |   |   |   |   |   |   |   |   |   |   obj1 > 827: 1 (22.0/4.0)
|   |   |   |   |   |   |   |   |   |   obj2 > 988: 1 (5.0)
|   |   |   |   |   |   |   |   |   obj2 > 989
|   |   |   |   |   |   |   |   |   |   obj3 <= 893: 0 (2882.0/1410.0)
|   |   |   |   |   |   |   |   |   |   obj3 > 893: 1 (489.0/210.0)
lbl0 = 1
|   obj1 <= 892
|   |   obj1 <= 702: 1 (6117.0/2244.0)
|   |   obj1 > 702
|   |   |   obj2 <= 863
|   |   |   |   obj3 <= 893
|   |   |   |   |   obj1 <= 864
|   |   |   |   |   |   obj1 <= 843
|   |   |   |   |   |   |   obj2 <= 843
|   |   |   |   |   |   |   |   obj3 <= 843: 1 (7409.0/3455.0)
|   |   |   |   |   |   |   |   obj3 > 843
|   |   |   |   |   |   |   |   |   obj3 <= 845
|   |   |   |   |   |   |   |   |   |   obj1 <= 822: 0 (365.0/133.0)
|   |   |   |   |   |   |   |   |   |   obj1 > 822
|   |   |   |   |   |   |   |   |   |   |   obj2 <= 792
|   |   |   |   |   |   |   |   |   |   |   |   obj1 <= 829
|   |   |   |   |   |   |   |   |   |   |   |   |   obj2 <= 757: 0 (3.0/1.0)
|   |   |   |   |   |   |   |   |   |   |   |   |   obj2 > 757: 1 (2.0)
|   |   |   |   |   |   |   |   |   |   |   |   obj1 > 829: 0 (2.0)
|   |   |   |   |   |   |   |   |   |   |   obj2 > 792: 1 (5.0)
|   |   |   |   |   |   |   |   |   obj3 > 845
|   |   |   |   |   |   |   |   |   |   obj3 <= 873: 1 (264.0/109.0)
|   |   |   |   |   |   |   |   |   |   obj3 > 873: 0 (231.0/98.0)
|   |   |   |   |   |   |   obj2 > 843: 0 (634.0/260.0)
|   |   |   |   |   |   obj1 > 843
|   |   |   |   |   |   |   obj2 <= 763: 1 (170.0/80.0)
|   |   |   |   |   |   |   obj2 > 763
|   |   |   |   |   |   |   |   obj2 <= 777: 0 (106.0/26.0)
|   |   |   |   |   |   |   |   obj2 > 777
|   |   |   |   |   |   |   |   |   obj2 <= 821: 1 (22.0/6.0)
|   |   |   |   |   |   |   |   |   obj2 > 821: 0 (354.0/128.0)
|   |   |   |   |   obj1 > 864
|   |   |   |   |   |   obj1 <= 880: 1 (347.0/77.0)
|   |   |   |   |   |   obj1 > 880: 0 (281.0/120.0)
|   |   |   |   obj3 > 893
|   |   |   |   |   obj3 <= 998: 1 (2097.0/817.0)
|   |   |   |   |   obj3 > 998
|   |   |   |   |   |   obj1 <= 826: 1 (238.0/115.0)
|   |   |   |   |   |   obj1 > 826: 0 (15.0/1.0)
|   |   |   obj2 > 863
|   |   |   |   obj1 <= 884
|   |   |   |   |   obj2 <= 997: 1 (3860.0/1456.0)
|   |   |   |   |   obj2 > 997: 0 (403.0/194.0)
|   |   |   |   obj1 > 884
|   |   |   |   |   obj2 <= 875: 0 (181.0/75.0)
|   |   |   |   |   obj2 > 875: 1 (852.0/401.0)
|   obj1 > 892
|   |   obj1 <= 998: 1 (6994.0/2386.0)
|   |   obj1 > 998
|   |   |   obj2 <= 963
|   |   |   |   obj3 <= 896: 0 (353.0/138.0)
|   |   |   |   obj3 > 896
|   |   |   |   |   obj3 <= 910: 1 (17.0/1.0)
|   |   |   |   |   obj3 > 910
|   |   |   |   |   |   obj3 <= 960: 0 (9.0/2.0)
|   |   |   |   |   |   obj3 > 960: 1 (10.0/3.0)
|   |   |   obj2 > 963: 1 (24.0/3.0)

Number of Leaves  : 	87

Size of the tree : 	173


meka.classifiers.multilabel.CT: Node #5

J48 pruned tree
------------------

lbl1 = 0: 0 (55648.0/3460.0)
lbl1 = 1
|   obj3 <= 949
|   |   obj1 <= 884
|   |   |   obj1 <= 830
|   |   |   |   obj1 <= 766
|   |   |   |   |   obj2 <= 822
|   |   |   |   |   |   obj2 <= 686: 1 (9785.0/3088.0)
|   |   |   |   |   |   obj2 > 686
|   |   |   |   |   |   |   obj2 <= 711
|   |   |   |   |   |   |   |   obj1 <= 711
|   |   |   |   |   |   |   |   |   obj1 <= 686
|   |   |   |   |   |   |   |   |   |   obj2 <= 708: 1 (1110.0/406.0)
|   |   |   |   |   |   |   |   |   |   obj2 > 708
|   |   |   |   |   |   |   |   |   |   |   lbl3 = 0
|   |   |   |   |   |   |   |   |   |   |   |   obj2 <= 710: 0 (28.0/12.0)
|   |   |   |   |   |   |   |   |   |   |   |   obj2 > 710
|   |   |   |   |   |   |   |   |   |   |   |   |   obj1 <= 361: 0 (4.0)
|   |   |   |   |   |   |   |   |   |   |   |   |   obj1 > 361: 1 (5.0/1.0)
|   |   |   |   |   |   |   |   |   |   |   lbl3 = 1
|   |   |   |   |   |   |   |   |   |   |   |   obj1 <= 307: 1 (7.0/1.0)
|   |   |   |   |   |   |   |   |   |   |   |   obj1 > 307
|   |   |   |   |   |   |   |   |   |   |   |   |   obj3 <= 877
|   |   |   |   |   |   |   |   |   |   |   |   |   |   obj3 <= 657
|   |   |   |   |   |   |   |   |   |   |   |   |   |   |   obj3 <= 440: 0 (2.0)
|   |   |   |   |   |   |   |   |   |   |   |   |   |   |   obj3 > 440: 1 (2.0)
|   |   |   |   |   |   |   |   |   |   |   |   |   |   obj3 > 657: 0 (11.0)
|   |   |   |   |   |   |   |   |   |   |   |   |   obj3 > 877: 1 (2.0)
|   |   |   |   |   |   |   |   |   obj1 > 686
|   |   |   |   |   |   |   |   |   |   lbl3 = 0
|   |   |   |   |   |   |   |   |   |   |   obj1 <= 694
|   |   |   |   |   |   |   |   |   |   |   |   obj1 <= 688
|   |   |   |   |   |   |   |   |   |   |   |   |   obj2 <= 694: 1 (25.0/10.0)
|   |   |   |   |   |   |   |   |   |   |   |   |   obj2 > 694: 0 (30.0/9.0)
|   |   |   |   |   |   |   |   |   |   |   |   obj1 > 688: 1 (975.0/386.0)
|   |   |   |   |   |   |   |   |   |   |   obj1 > 694
|   |   |   |   |   |   |   |   |   |   |   |   obj1 <= 703: 0 (281.0/121.0)
|   |   |   |   |   |   |   |   |   |   |   |   obj1 > 703
|   |   |   |   |   |   |   |   |   |   |   |   |   obj1 <= 709: 1 (314.0/133.0)
|   |   |   |   |   |   |   |   |   |   |   |   |   obj1 > 709
|   |   |   |   |   |   |   |   |   |   |   |   |   |   obj1 <= 710: 0 (99.0/44.0)
|   |   |   |   |   |   |   |   |   |   |   |   |   |   obj1 > 710
|   |   |   |   |   |   |   |   |   |   |   |   |   |   |   obj3 <= 701: 0 (4.0/1.0)
|   |   |   |   |   |   |   |   |   |   |   |   |   |   |   obj3 > 701: 1 (3.0)
|   |   |   |   |   |   |   |   |   |   lbl3 = 1
|   |   |   |   |   |   |   |   |   |   |   obj2 <= 694: 1 (485.0/218.0)
|   |   |   |   |   |   |   |   |   |   |   obj2 > 694
|   |   |   |   |   |   |   |   |   |   |   |   obj1 <= 705
|   |   |   |   |   |   |   |   |   |   |   |   |   obj3 <= 688
|   |   |   |   |   |   |   |   |   |   |   |   |   |   obj1 <= 694
|   |   |   |   |   |   |   |   |   |   |   |   |   |   |   obj1 <= 693
|   |   |   |   |   |   |   |   |   |   |   |   |   |   |   |   obj3 <= 308: 0 (3.0)
|   |   |   |   |   |   |   |   |   |   |   |   |   |   |   |   obj3 > 308: 1 (9.0/2.0)
|   |   |   |   |   |   |   |   |   |   |   |   |   |   |   obj1 > 693: 1 (218.0/99.0)
|   |   |   |   |   |   |   |   |   |   |   |   |   |   obj1 > 694: 0 (22.0/7.0)
|   |   |   |   |   |   |   |   |   |   |   |   |   obj3 > 688: 0 (491.0/200.0)
|   |   |   |   |   |   |   |   |   |   |   |   obj1 > 705
|   |   |   |   |   |   |   |   |   |   |   |   |   obj2 <= 709: 1 (110.0/43.0)
|   |   |   |   |   |   |   |   |   |   |   |   |   obj2 > 709
|   |   |   |   |   |   |   |   |   |   |   |   |   |   obj1 <= 708: 0 (17.0/4.0)
|   |   |   |   |   |   |   |   |   |   |   |   |   |   obj1 > 708
|   |   |   |   |   |   |   |   |   |   |   |   |   |   |   obj2 <= 710: 1 (6.0/2.0)
|   |   |   |   |   |   |   |   |   |   |   |   |   |   |   obj2 > 710
|   |   |   |   |   |   |   |   |   |   |   |   |   |   |   |   obj3 <= 707: 1 (4.0/1.0)
|   |   |   |   |   |   |   |   |   |   |   |   |   |   |   |   obj3 > 707: 0 (2.0)
|   |   |   |   |   |   |   |   obj1 > 711: 1 (1308.0/419.0)
|   |   |   |   |   |   |   obj2 > 711
|   |   |   |   |   |   |   |   obj2 <= 819: 1 (15002.0/5117.0)
|   |   |   |   |   |   |   |   obj2 > 819
|   |   |   |   |   |   |   |   |   lbl3 = 0
|   |   |   |   |   |   |   |   |   |   obj3 <= 812: 0 (69.0/32.0)
|   |   |   |   |   |   |   |   |   |   obj3 > 812: 1 (69.0/14.0)
|   |   |   |   |   |   |   |   |   lbl3 = 1
|   |   |   |   |   |   |   |   |   |   obj1 <= 736: 0 (23.0/6.0)
|   |   |   |   |   |   |   |   |   |   obj1 > 736: 1 (99.0/42.0)
|   |   |   |   |   obj2 > 822
|   |   |   |   |   |   obj2 <= 949
|   |   |   |   |   |   |   lbl3 = 0: 1 (4486.0/1152.0)
|   |   |   |   |   |   |   lbl3 = 1
|   |   |   |   |   |   |   |   obj2 <= 919: 1 (3333.0/982.0)
|   |   |   |   |   |   |   |   obj2 > 919
|   |   |   |   |   |   |   |   |   obj2 <= 932: 0 (85.0/30.0)
|   |   |   |   |   |   |   |   |   obj2 > 932
|   |   |   |   |   |   |   |   |   |   obj2 <= 936
|   |   |   |   |   |   |   |   |   |   |   obj3 <= 756
|   |   |   |   |   |   |   |   |   |   |   |   obj1 <= 692: 1 (15.0)
|   |   |   |   |   |   |   |   |   |   |   |   obj1 > 692
|   |   |   |   |   |   |   |   |   |   |   |   |   obj3 <= 527: 0 (3.0)
|   |   |   |   |   |   |   |   |   |   |   |   |   obj3 > 527: 1 (7.0)
|   |   |   |   |   |   |   |   |   |   |   obj3 > 756: 0 (5.0)
|   |   |   |   |   |   |   |   |   |   obj2 > 936
|   |   |   |   |   |   |   |   |   |   |   obj3 <= 695: 0 (51.0/16.0)
|   |   |   |   |   |   |   |   |   |   |   obj3 > 695: 1 (163.0/69.0)
|   |   |   |   |   |   obj2 > 949
|   |   |   |   |   |   |   obj2 <= 974: 1 (2516.0/505.0)
|   |   |   |   |   |   |   obj2 > 974
|   |   |   |   |   |   |   |   obj1 <= 737
|   |   |   |   |   |   |   |   |   obj2 <= 984: 1 (78.0/23.0)
|   |   |   |   |   |   |   |   |   obj2 > 984
|   |   |   |   |   |   |   |   |   |   lbl3 = 0
|   |   |   |   |   |   |   |   |   |   |   obj2 <= 992: 1 (62.0/24.0)
|   |   |   |   |   |   |   |   |   |   |   obj2 > 992: 0 (91.0/40.0)
|   |   |   |   |   |   |   |   |   |   lbl3 = 1
|   |   |   |   |   |   |   |   |   |   |   obj1 <= 605: 1 (28.0/7.0)
|   |   |   |   |   |   |   |   |   |   |   obj1 > 605: 0 (121.0/54.0)
|   |   |   |   |   |   |   |   obj1 > 737
|   |   |   |   |   |   |   |   |   obj2 <= 976: 0 (25.0/11.0)
|   |   |   |   |   |   |   |   |   obj2 > 976: 1 (2038.0/678.0)
|   |   |   |   obj1 > 766
|   |   |   |   |   obj1 <= 773
|   |   |   |   |   |   lbl3 = 0
|   |   |   |   |   |   |   obj1 <= 770: 1 (144.0/63.0)
|   |   |   |   |   |   |   obj1 > 770
|   |   |   |   |   |   |   |   obj3 <= 826: 0 (557.0/232.0)
|   |   |   |   |   |   |   |   obj3 > 826: 1 (177.0/82.0)
|   |   |   |   |   |   lbl3 = 1
|   |   |   |   |   |   |   obj3 <= 672
|   |   |   |   |   |   |   |   obj2 <= 847: 1 (111.0/26.0)
|   |   |   |   |   |   |   |   obj2 > 847: 0 (10.0/3.0)
|   |   |   |   |   |   |   obj3 > 672
|   |   |   |   |   |   |   |   obj1 <= 768
|   |   |   |   |   |   |   |   |   obj2 <= 600: 0 (4.0)
|   |   |   |   |   |   |   |   |   obj2 > 600: 1 (72.0/20.0)
|   |   |   |   |   |   |   |   obj1 > 768
|   |   |   |   |   |   |   |   |   obj2 <= 685: 1 (79.0/29.0)
|   |   |   |   |   |   |   |   |   obj2 > 685: 0 (226.0/95.0)
|   |   |   |   |   obj1 > 773
|   |   |   |   |   |   lbl3 = 0
|   |   |   |   |   |   |   obj3 <= 892
|   |   |   |   |   |   |   |   obj1 <= 801: 1 (695.0/174.0)
|   |   |   |   |   |   |   |   obj1 > 801
|   |   |   |   |   |   |   |   |   obj2 <= 703
|   |   |   |   |   |   |   |   |   |   obj1 <= 805
|   |   |   |   |   |   |   |   |   |   |   obj3 <= 589
|   |   |   |   |   |   |   |   |   |   |   |   obj1 <= 803
|   |   |   |   |   |   |   |   |   |   |   |   |   obj2 <= 507: 1 (18.0/7.0)
|   |   |   |   |   |   |   |   |   |   |   |   |   obj2 > 507: 0 (48.0/13.0)
|   |   |   |   |   |   |   |   |   |   |   |   obj1 > 803
|   |   |   |   |   |   |   |   |   |   |   |   |   obj2 <= 278: 1 (2.0)
|   |   |   |   |   |   |   |   |   |   |   |   |   obj2 > 278
|   |   |   |   |   |   |   |   |   |   |   |   |   |   obj2 <= 440: 0 (5.0)
|   |   |   |   |   |   |   |   |   |   |   |   |   |   obj2 > 440: 1 (5.0/2.0)
|   |   |   |   |   |   |   |   |   |   |   obj3 > 589
|   |   |   |   |   |   |   |   |   |   |   |   obj1 <= 803: 1 (212.0/89.0)
|   |   |   |   |   |   |   |   |   |   |   |   obj1 > 803
|   |   |   |   |   |   |   |   |   |   |   |   |   obj3 <= 694
|   |   |   |   |   |   |   |   |   |   |   |   |   |   obj2 <= 694: 1 (7.0/1.0)
|   |   |   |   |   |   |   |   |   |   |   |   |   |   obj2 > 694: 0 (2.0)
|   |   |   |   |   |   |   |   |   |   |   |   |   obj3 > 694: 0 (4.0/1.0)
|   |   |   |   |   |   |   |   |   |   obj1 > 805: 1 (268.0/91.0)
|   |   |   |   |   |   |   |   |   obj2 > 703: 1 (3598.0/1223.0)
|   |   |   |   |   |   |   obj3 > 892
|   |   |   |   |   |   |   |   obj2 <= 894: 1 (452.0/191.0)
|   |   |   |   |   |   |   |   obj2 > 894: 0 (68.0/24.0)
|   |   |   |   |   |   lbl3 = 1
|   |   |   |   |   |   |   obj1 <= 808
|   |   |   |   |   |   |   |   obj3 <= 898: 1 (2152.0/832.0)
|   |   |   |   |   |   |   |   obj3 > 898: 0 (193.0/93.0)
|   |   |   |   |   |   |   obj1 > 808
|   |   |   |   |   |   |   |   obj1 <= 811: 0 (248.0/93.0)
|   |   |   |   |   |   |   |   obj1 > 811: 1 (1616.0/685.0)
|   |   |   obj1 > 830
|   |   |   |   obj2 <= 770: 1 (1977.0/424.0)
|   |   |   |   obj2 > 770
|   |   |   |   |   obj2 <= 773
|   |   |   |   |   |   obj3 <= 804: 1 (74.0/31.0)
|   |   |   |   |   |   obj3 > 804: 0 (84.0/29.0)
|   |   |   |   |   obj2 > 773: 1 (2182.0/668.0)
|   |   obj1 > 884
|   |   |   obj1 <= 948
|   |   |   |   obj1 <= 947
|   |   |   |   |   obj1 <= 900
|   |   |   |   |   |   obj1 <= 899
|   |   |   |   |   |   |   obj1 <= 890
|   |   |   |   |   |   |   |   obj2 <= 892
|   |   |   |   |   |   |   |   |   lbl3 = 0
|   |   |   |   |   |   |   |   |   |   obj3 <= 580: 1 (16.0/1.0)
|   |   |   |   |   |   |   |   |   |   obj3 > 580: 0 (285.0/125.0)
|   |   |   |   |   |   |   |   |   lbl3 = 1
|   |   |   |   |   |   |   |   |   |   obj1 <= 885: 1 (166.0/71.0)
|   |   |   |   |   |   |   |   |   |   obj1 > 885: 0 (13.0/3.0)
|   |   |   |   |   |   |   |   obj2 > 892
|   |   |   |   |   |   |   |   |   obj1 <= 886: 0 (260.0/67.0)
|   |   |   |   |   |   |   |   |   obj1 > 886
|   |   |   |   |   |   |   |   |   |   obj1 <= 889: 1 (5.0/1.0)
|   |   |   |   |   |   |   |   |   |   obj1 > 889: 0 (2.0)
|   |   |   |   |   |   |   obj1 > 890
|   |   |   |   |   |   |   |   lbl3 = 0: 1 (188.0/41.0)
|   |   |   |   |   |   |   |   lbl3 = 1
|   |   |   |   |   |   |   |   |   obj2 <= 842
|   |   |   |   |   |   |   |   |   |   obj2 <= 666: 0 (27.0/11.0)
|   |   |   |   |   |   |   |   |   |   obj2 > 666: 1 (75.0/12.0)
|   |   |   |   |   |   |   |   |   obj2 > 842
|   |   |   |   |   |   |   |   |   |   obj3 <= 758: 1 (15.0/5.0)
|   |   |   |   |   |   |   |   |   |   obj3 > 758
|   |   |   |   |   |   |   |   |   |   |   obj2 <= 930
|   |   |   |   |   |   |   |   |   |   |   |   obj3 <= 794: 0 (5.0)
|   |   |   |   |   |   |   |   |   |   |   |   obj3 > 794
|   |   |   |   |   |   |   |   |   |   |   |   |   obj1 <= 897
|   |   |   |   |   |   |   |   |   |   |   |   |   |   obj1 <= 893: 1 (5.0/2.0)
|   |   |   |   |   |   |   |   |   |   |   |   |   |   obj1 > 893: 0 (2.0)
|   |   |   |   |   |   |   |   |   |   |   |   |   obj1 > 897: 1 (3.0)
|   |   |   |   |   |   |   |   |   |   |   obj2 > 930: 0 (10.0)
|   |   |   |   |   |   obj1 > 899: 0 (1012.0/385.0)
|   |   |   |   |   obj1 > 900
|   |   |   |   |   |   lbl3 = 0: 1 (649.0/203.0)
|   |   |   |   |   |   lbl3 = 1
|   |   |   |   |   |   |   obj1 <= 919: 1 (174.0/52.0)
|   |   |   |   |   |   |   obj1 > 919
|   |   |   |   |   |   |   |   obj1 <= 946: 0 (259.0/122.0)
|   |   |   |   |   |   |   |   obj1 > 946
|   |   |   |   |   |   |   |   |   obj2 <= 816: 0 (20.0/8.0)
|   |   |   |   |   |   |   |   |   obj2 > 816: 1 (88.0/29.0)
|   |   |   |   obj1 > 947
|   |   |   |   |   obj2 <= 767
|   |   |   |   |   |   obj2 <= 752: 0 (344.0/113.0)
|   |   |   |   |   |   obj2 > 752
|   |   |   |   |   |   |   obj2 <= 760
|   |   |   |   |   |   |   |   obj3 <= 892: 1 (184.0/83.0)
|   |   |   |   |   |   |   |   obj3 > 892: 0 (20.0/5.0)
|   |   |   |   |   |   |   obj2 > 760
|   |   |   |   |   |   |   |   obj3 <= 751: 0 (6.0/1.0)
|   |   |   |   |   |   |   |   obj3 > 751: 1 (10.0/4.0)
|   |   |   |   |   obj2 > 767: 0 (584.0/206.0)
|   |   |   obj1 > 948
|   |   |   |   obj1 <= 974: 1 (3913.0/979.0)
|   |   |   |   obj1 > 974
|   |   |   |   |   obj2 <= 868
|   |   |   |   |   |   obj3 <= 873
|   |   |   |   |   |   |   obj3 <= 830
|   |   |   |   |   |   |   |   obj3 <= 828
|   |   |   |   |   |   |   |   |   lbl3 = 0
|   |   |   |   |   |   |   |   |   |   obj1 <= 977
|   |   |   |   |   |   |   |   |   |   |   obj1 <= 975
|   |   |   |   |   |   |   |   |   |   |   |   obj2 <= 747: 1 (11.0/4.0)
|   |   |   |   |   |   |   |   |   |   |   |   obj2 > 747: 0 (23.0/5.0)
|   |   |   |   |   |   |   |   |   |   |   obj1 > 975: 0 (3.0)
|   |   |   |   |   |   |   |   |   |   obj1 > 977: 1 (1094.0/433.0)
|   |   |   |   |   |   |   |   |   lbl3 = 1: 1 (840.0/358.0)
|   |   |   |   |   |   |   |   obj3 > 828: 0 (69.0/24.0)
|   |   |   |   |   |   |   obj3 > 830: 1 (294.0/91.0)
|   |   |   |   |   |   obj3 > 873
|   |   |   |   |   |   |   lbl3 = 0
|   |   |   |   |   |   |   |   obj3 <= 941: 0 (110.0/51.0)
|   |   |   |   |   |   |   |   obj3 > 941: 1 (28.0/7.0)
|   |   |   |   |   |   |   lbl3 = 1: 0 (124.0/53.0)
|   |   |   |   |   obj2 > 868
|   |   |   |   |   |   obj2 <= 923: 0 (320.0/124.0)
|   |   |   |   |   |   obj2 > 923
|   |   |   |   |   |   |   lbl3 = 0: 1 (106.0/43.0)
|   |   |   |   |   |   |   lbl3 = 1
|   |   |   |   |   |   |   |   obj3 <= 851: 1 (56.0/23.0)
|   |   |   |   |   |   |   |   obj3 > 851: 0 (20.0/4.0)
|   obj3 > 949
|   |   obj3 <= 974: 1 (7695.0/1707.0)
|   |   obj3 > 974
|   |   |   obj1 <= 873: 1 (2973.0/892.0)
|   |   |   obj1 > 873
|   |   |   |   obj1 <= 908
|   |   |   |   |   obj1 <= 884
|   |   |   |   |   |   lbl3 = 0: 1 (18.0/6.0)
|   |   |   |   |   |   lbl3 = 1
|   |   |   |   |   |   |   obj1 <= 875: 0 (11.0/4.0)
|   |   |   |   |   |   |   obj1 > 875: 1 (6.0/1.0)
|   |   |   |   |   obj1 > 884
|   |   |   |   |   |   obj2 <= 875
|   |   |   |   |   |   |   lbl3 = 0: 0 (85.0/35.0)
|   |   |   |   |   |   |   lbl3 = 1
|   |   |   |   |   |   |   |   obj1 <= 899: 1 (32.0/13.0)
|   |   |   |   |   |   |   |   obj1 > 899: 0 (18.0/5.0)
|   |   |   |   |   |   obj2 > 875: 0 (44.0/8.0)
|   |   |   |   obj1 > 908
|   |   |   |   |   lbl3 = 0
|   |   |   |   |   |   obj3 <= 992: 1 (65.0/16.0)
|   |   |   |   |   |   obj3 > 992
|   |   |   |   |   |   |   obj1 <= 947
|   |   |   |   |   |   |   |   obj2 <= 763: 0 (2.0)
|   |   |   |   |   |   |   |   obj2 > 763: 1 (19.0/2.0)
|   |   |   |   |   |   |   obj1 > 947
|   |   |   |   |   |   |   |   obj1 <= 971
|   |   |   |   |   |   |   |   |   obj1 <= 950: 0 (31.0/10.0)
|   |   |   |   |   |   |   |   |   obj1 > 950
|   |   |   |   |   |   |   |   |   |   obj3 <= 994: 1 (6.0/1.0)
|   |   |   |   |   |   |   |   |   |   obj3 > 994: 0 (7.0/1.0)
|   |   |   |   |   |   |   |   obj1 > 971
|   |   |   |   |   |   |   |   |   obj1 <= 996: 1 (32.0/7.0)
|   |   |   |   |   |   |   |   |   obj1 > 996: 0 (9.0/3.0)
|   |   |   |   |   lbl3 = 1: 1 (145.0/65.0)

Number of Leaves  : 	145

Size of the tree : 	289


meka.classifiers.multilabel.CT: Node #6

J48 pruned tree
------------------

lbl2 = 0
|   lbl4 = 0
|   |   obj1 <= 947
|   |   |   obj1 <= 810
|   |   |   |   obj1 <= 702
|   |   |   |   |   obj3 <= 256: 1 (207.0/92.0)
|   |   |   |   |   obj3 > 256
|   |   |   |   |   |   obj1 <= 678: 0 (4948.0/1731.0)
|   |   |   |   |   |   obj1 > 678
|   |   |   |   |   |   |   obj3 <= 952: 0 (3966.0/1643.0)
|   |   |   |   |   |   |   obj3 > 952
|   |   |   |   |   |   |   |   obj1 <= 686: 0 (5.0/1.0)
|   |   |   |   |   |   |   |   obj1 > 686
|   |   |   |   |   |   |   |   |   obj1 <= 694: 1 (57.0/17.0)
|   |   |   |   |   |   |   |   |   obj1 > 694: 0 (9.0/3.0)
|   |   |   |   obj1 > 702
|   |   |   |   |   obj1 <= 767
|   |   |   |   |   |   obj1 <= 763
|   |   |   |   |   |   |   obj1 <= 760: 0 (13243.0/4316.0)
|   |   |   |   |   |   |   obj1 > 760
|   |   |   |   |   |   |   |   obj2 <= 551: 0 (6.0)
|   |   |   |   |   |   |   |   obj2 > 551
|   |   |   |   |   |   |   |   |   obj1 <= 761: 1 (61.0/21.0)
|   |   |   |   |   |   |   |   |   obj1 > 761
|   |   |   |   |   |   |   |   |   |   obj2 <= 690: 1 (3.0)
|   |   |   |   |   |   |   |   |   |   obj2 > 690: 0 (15.0/6.0)
|   |   |   |   |   |   obj1 > 763: 0 (485.0/158.0)
|   |   |   |   |   obj1 > 767
|   |   |   |   |   |   obj1 <= 802
|   |   |   |   |   |   |   obj1 <= 795
|   |   |   |   |   |   |   |   obj1 <= 771
|   |   |   |   |   |   |   |   |   obj2 <= 672
|   |   |   |   |   |   |   |   |   |   obj3 <= 672
|   |   |   |   |   |   |   |   |   |   |   obj3 <= 666
|   |   |   |   |   |   |   |   |   |   |   |   obj2 <= 638: 1 (5.0/2.0)
|   |   |   |   |   |   |   |   |   |   |   |   obj2 > 638
|   |   |   |   |   |   |   |   |   |   |   |   |   obj2 <= 670: 0 (2.0)
|   |   |   |   |   |   |   |   |   |   |   |   |   obj2 > 670
|   |   |   |   |   |   |   |   |   |   |   |   |   |   obj2 <= 671: 1 (2.0)
|   |   |   |   |   |   |   |   |   |   |   |   |   |   obj2 > 671: 0 (6.0/1.0)
|   |   |   |   |   |   |   |   |   |   |   obj3 > 666: 1 (13.0/2.0)
|   |   |   |   |   |   |   |   |   |   obj3 > 672: 0 (111.0/33.0)
|   |   |   |   |   |   |   |   |   obj2 > 672: 0 (1033.0/212.0)
|   |   |   |   |   |   |   |   obj1 > 771
|   |   |   |   |   |   |   |   |   obj1 <= 777
|   |   |   |   |   |   |   |   |   |   obj1 <= 776
|   |   |   |   |   |   |   |   |   |   |   obj1 <= 773
|   |   |   |   |   |   |   |   |   |   |   |   obj2 <= 815: 1 (6.0)
|   |   |   |   |   |   |   |   |   |   |   |   obj2 > 815: 0 (14.0/5.0)
|   |   |   |   |   |   |   |   |   |   |   obj1 > 773: 0 (154.0/56.0)
|   |   |   |   |   |   |   |   |   |   obj1 > 776: 1 (114.0/31.0)
|   |   |   |   |   |   |   |   |   obj1 > 777: 0 (576.0/173.0)
|   |   |   |   |   |   |   obj1 > 795
|   |   |   |   |   |   |   |   obj1 <= 798: 1 (46.0/1.0)
|   |   |   |   |   |   |   |   obj1 > 798
|   |   |   |   |   |   |   |   |   obj2 <= 877: 1 (16.0/6.0)
|   |   |   |   |   |   |   |   |   obj2 > 877: 0 (5.0)
|   |   |   |   |   |   obj1 > 802
|   |   |   |   |   |   |   obj1 <= 805
|   |   |   |   |   |   |   |   obj1 <= 803: 0 (1847.0/533.0)
|   |   |   |   |   |   |   |   obj1 > 803: 1 (41.0/15.0)
|   |   |   |   |   |   |   obj1 > 805: 0 (1140.0/288.0)
|   |   |   obj1 > 810
|   |   |   |   obj1 <= 811: 1 (308.0/43.0)
|   |   |   |   obj1 > 811: 0 (12142.0/3307.0)
|   |   obj1 > 947
|   |   |   obj1 <= 948
|   |   |   |   obj2 <= 808
|   |   |   |   |   obj2 <= 581
|   |   |   |   |   |   obj2 <= 350
|   |   |   |   |   |   |   obj2 <= 328: 1 (85.0/28.0)
|   |   |   |   |   |   |   obj2 > 328
|   |   |   |   |   |   |   |   obj3 <= 702: 1 (3.0)
|   |   |   |   |   |   |   |   obj3 > 702
|   |   |   |   |   |   |   |   |   obj3 <= 811: 0 (7.0)
|   |   |   |   |   |   |   |   |   obj3 > 811: 1 (7.0/3.0)
|   |   |   |   |   |   obj2 > 350: 1 (140.0/46.0)
|   |   |   |   |   obj2 > 581
|   |   |   |   |   |   obj3 <= 739: 1 (389.0/175.0)
|   |   |   |   |   |   obj3 > 739
|   |   |   |   |   |   |   obj3 <= 797: 0 (216.0/71.0)
|   |   |   |   |   |   |   obj3 > 797: 1 (403.0/195.0)
|   |   |   |   obj2 > 808
|   |   |   |   |   obj2 <= 947: 1 (809.0/273.0)
|   |   |   |   |   obj2 > 947
|   |   |   |   |   |   obj2 <= 958: 0 (9.0/1.0)
|   |   |   |   |   |   obj2 > 958
|   |   |   |   |   |   |   obj2 <= 981: 1 (21.0/5.0)
|   |   |   |   |   |   |   obj2 > 981: 0 (110.0/51.0)
|   |   |   obj1 > 948
|   |   |   |   obj1 <= 979
|   |   |   |   |   obj1 <= 963
|   |   |   |   |   |   obj1 <= 953: 0 (712.0/208.0)
|   |   |   |   |   |   obj1 > 953
|   |   |   |   |   |   |   obj1 <= 955
|   |   |   |   |   |   |   |   obj2 <= 451: 0 (3.0/1.0)
|   |   |   |   |   |   |   |   obj2 > 451: 1 (55.0/5.0)
|   |   |   |   |   |   |   obj1 > 955: 0 (141.0/50.0)
|   |   |   |   |   obj1 > 963: 0 (1230.0/316.0)
|   |   |   |   obj1 > 979
|   |   |   |   |   obj2 <= 837
|   |   |   |   |   |   obj1 <= 994
|   |   |   |   |   |   |   obj3 <= 812: 1 (678.0/321.0)
|   |   |   |   |   |   |   obj3 > 812: 0 (595.0/245.0)
|   |   |   |   |   |   obj1 > 994: 0 (465.0/156.0)
|   |   |   |   |   obj2 > 837: 0 (1048.0/325.0)
|   lbl4 = 1: 1 (1340.0/39.0)
lbl2 = 1: 1 (88253.0/4417.0)

Number of Leaves  : 	55

Size of the tree : 	109


meka.classifiers.multilabel.CT: Node #7

J48 pruned tree
------------------

obj1 <= 854
|   obj1 <= 753
|   |   obj1 <= 694
|   |   |   lbl3 = 0
|   |   |   |   obj1 <= 590
|   |   |   |   |   obj1 <= 547
|   |   |   |   |   |   obj1 <= 313
|   |   |   |   |   |   |   obj1 <= 267
|   |   |   |   |   |   |   |   obj1 <= 259: 1 (435.0/80.0)
|   |   |   |   |   |   |   |   obj1 > 259
|   |   |   |   |   |   |   |   |   obj3 <= 258: 1 (5.0)
|   |   |   |   |   |   |   |   |   obj3 > 258
|   |   |   |   |   |   |   |   |   |   obj2 <= 270: 1 (8.0/2.0)
|   |   |   |   |   |   |   |   |   |   obj2 > 270
|   |   |   |   |   |   |   |   |   |   |   obj3 <= 281: 0 (12.0)
|   |   |   |   |   |   |   |   |   |   |   obj3 > 281
|   |   |   |   |   |   |   |   |   |   |   |   obj2 <= 272: 1 (3.0)
|   |   |   |   |   |   |   |   |   |   |   |   obj2 > 272: 0 (32.0/9.0)
|   |   |   |   |   |   |   obj1 > 267: 1 (580.0/170.0)
|   |   |   |   |   |   obj1 > 313: 1 (1998.0/341.0)
|   |   |   |   |   obj1 > 547
|   |   |   |   |   |   obj1 <= 558
|   |   |   |   |   |   |   obj1 <= 553
|   |   |   |   |   |   |   |   obj1 <= 548
|   |   |   |   |   |   |   |   |   obj2 <= 874
|   |   |   |   |   |   |   |   |   |   obj3 <= 878: 0 (73.0/32.0)
|   |   |   |   |   |   |   |   |   |   obj3 > 878: 1 (9.0/1.0)
|   |   |   |   |   |   |   |   |   obj2 > 874: 1 (7.0)
|   |   |   |   |   |   |   |   obj1 > 548
|   |   |   |   |   |   |   |   |   obj2 <= 548: 1 (12.0)
|   |   |   |   |   |   |   |   |   obj2 > 548
|   |   |   |   |   |   |   |   |   |   obj2 <= 721
|   |   |   |   |   |   |   |   |   |   |   obj1 <= 549: 1 (2.0)
|   |   |   |   |   |   |   |   |   |   |   obj1 > 549: 0 (9.0/2.0)
|   |   |   |   |   |   |   |   |   |   obj2 > 721: 1 (143.0/37.0)
|   |   |   |   |   |   |   obj1 > 553: 0 (171.0/76.0)
|   |   |   |   |   |   obj1 > 558: 1 (347.0/73.0)
|   |   |   |   obj1 > 590: 1 (8467.0/1299.0)
|   |   |   lbl3 = 1
|   |   |   |   obj1 <= 298
|   |   |   |   |   obj1 <= 270
|   |   |   |   |   |   obj3 <= 185
|   |   |   |   |   |   |   obj3 <= 44: 1 (14.0/3.0)
|   |   |   |   |   |   |   obj3 > 44: 0 (67.0/21.0)
|   |   |   |   |   |   obj3 > 185: 1 (633.0/194.0)
|   |   |   |   |   obj1 > 270
|   |   |   |   |   |   obj1 <= 280
|   |   |   |   |   |   |   obj2 <= 726: 0 (99.0/39.0)
|   |   |   |   |   |   |   obj2 > 726
|   |   |   |   |   |   |   |   obj2 <= 901: 1 (9.0)
|   |   |   |   |   |   |   |   obj2 > 901
|   |   |   |   |   |   |   |   |   obj2 <= 926: 0 (2.0)
|   |   |   |   |   |   |   |   |   obj2 > 926: 1 (2.0)
|   |   |   |   |   |   obj1 > 280
|   |   |   |   |   |   |   obj2 <= 699
|   |   |   |   |   |   |   |   obj2 <= 618: 0 (123.0/35.0)
|   |   |   |   |   |   |   |   obj2 > 618: 1 (33.0/10.0)
|   |   |   |   |   |   |   obj2 > 699: 0 (79.0/26.0)
|   |   |   |   obj1 > 298
|   |   |   |   |   obj2 <= 686
|   |   |   |   |   |   obj1 <= 669
|   |   |   |   |   |   |   obj1 <= 334
|   |   |   |   |   |   |   |   obj2 <= 304: 1 (74.0/16.0)
|   |   |   |   |   |   |   |   obj2 > 304
|   |   |   |   |   |   |   |   |   obj2 <= 327
|   |   |   |   |   |   |   |   |   |   obj1 <= 308: 1 (32.0/10.0)
|   |   |   |   |   |   |   |   |   |   obj1 > 308: 0 (108.0/44.0)
|   |   |   |   |   |   |   |   |   obj2 > 327: 1 (246.0/74.0)
|   |   |   |   |   |   |   obj1 > 334
|   |   |   |   |   |   |   |   obj1 <= 658: 1 (1557.0/371.0)
|   |   |   |   |   |   |   |   obj1 > 658
|   |   |   |   |   |   |   |   |   obj1 <= 661: 0 (27.0/9.0)
|   |   |   |   |   |   |   |   |   obj1 > 661: 1 (126.0/48.0)
|   |   |   |   |   |   obj1 > 669: 1 (2715.0/454.0)
|   |   |   |   |   obj2 > 686
|   |   |   |   |   |   obj2 <= 753
|   |   |   |   |   |   |   obj2 <= 702
|   |   |   |   |   |   |   |   obj1 <= 686
|   |   |   |   |   |   |   |   |   obj2 <= 694
|   |   |   |   |   |   |   |   |   |   obj2 <= 687
|   |   |   |   |   |   |   |   |   |   |   obj3 <= 612: 0 (16.0/4.0)
|   |   |   |   |   |   |   |   |   |   |   obj3 > 612: 1 (31.0/6.0)
|   |   |   |   |   |   |   |   |   |   obj2 > 687: 1 (729.0/142.0)
|   |   |   |   |   |   |   |   |   obj2 > 694
|   |   |   |   |   |   |   |   |   |   obj1 <= 667
|   |   |   |   |   |   |   |   |   |   |   obj1 <= 557: 1 (74.0/26.0)
|   |   |   |   |   |   |   |   |   |   |   obj1 > 557: 0 (21.0/6.0)
|   |   |   |   |   |   |   |   |   |   obj1 > 667: 1 (36.0/6.0)
|   |   |   |   |   |   |   |   obj1 > 686: 1 (1139.0/356.0)
|   |   |   |   |   |   |   obj2 > 702
|   |   |   |   |   |   |   |   obj2 <= 706
|   |   |   |   |   |   |   |   |   obj1 <= 685: 0 (160.0/62.0)
|   |   |   |   |   |   |   |   |   obj1 > 685
|   |   |   |   |   |   |   |   |   |   obj2 <= 703
|   |   |   |   |   |   |   |   |   |   |   obj3 <= 690: 1 (70.0/17.0)
|   |   |   |   |   |   |   |   |   |   |   obj3 > 690
|   |   |   |   |   |   |   |   |   |   |   |   obj3 <= 705: 0 (71.0/31.0)
|   |   |   |   |   |   |   |   |   |   |   |   obj3 > 705: 1 (74.0/23.0)
|   |   |   |   |   |   |   |   |   |   obj2 > 703: 1 (472.0/213.0)
|   |   |   |   |   |   |   |   obj2 > 706
|   |   |   |   |   |   |   |   |   obj2 <= 748: 1 (826.0/268.0)
|   |   |   |   |   |   |   |   |   obj2 > 748: 0 (37.0/10.0)
|   |   |   |   |   |   obj2 > 753: 1 (3425.0/839.0)
|   |   obj1 > 694
|   |   |   obj1 <= 730
|   |   |   |   obj1 <= 706
|   |   |   |   |   obj1 <= 702: 1 (1308.0/478.0)
|   |   |   |   |   obj1 > 702
|   |   |   |   |   |   obj3 <= 710
|   |   |   |   |   |   |   lbl3 = 0
|   |   |   |   |   |   |   |   obj1 <= 704
|   |   |   |   |   |   |   |   |   obj3 <= 708: 0 (809.0/309.0)
|   |   |   |   |   |   |   |   |   obj3 > 708
|   |   |   |   |   |   |   |   |   |   obj3 <= 709: 1 (20.0/7.0)
|   |   |   |   |   |   |   |   |   |   obj3 > 709: 0 (74.0/30.0)
|   |   |   |   |   |   |   |   obj1 > 704
|   |   |   |   |   |   |   |   |   obj1 <= 705: 1 (169.0/70.0)
|   |   |   |   |   |   |   |   |   obj1 > 705: 0 (103.0/50.0)
|   |   |   |   |   |   |   lbl3 = 1
|   |   |   |   |   |   |   |   obj2 <= 882: 0 (1164.0/354.0)
|   |   |   |   |   |   |   |   obj2 > 882
|   |   |   |   |   |   |   |   |   obj1 <= 703: 0 (10.0/3.0)
|   |   |   |   |   |   |   |   |   obj1 > 703: 1 (60.0/25.0)
|   |   |   |   |   |   obj3 > 710
|   |   |   |   |   |   |   obj1 <= 703
|   |   |   |   |   |   |   |   lbl3 = 0: 0 (68.0/24.0)
|   |   |   |   |   |   |   |   lbl3 = 1
|   |   |   |   |   |   |   |   |   obj2 <= 699: 1 (15.0/5.0)
|   |   |   |   |   |   |   |   |   obj2 > 699: 0 (42.0/9.0)
|   |   |   |   |   |   |   obj1 > 703
|   |   |   |   |   |   |   |   lbl3 = 0
|   |   |   |   |   |   |   |   |   obj1 <= 704: 1 (581.0/229.0)
|   |   |   |   |   |   |   |   |   obj1 > 704
|   |   |   |   |   |   |   |   |   |   obj1 <= 705
|   |   |   |   |   |   |   |   |   |   |   obj2 <= 408: 0 (5.0)
|   |   |   |   |   |   |   |   |   |   |   obj2 > 408: 1 (27.0/11.0)
|   |   |   |   |   |   |   |   |   |   obj1 > 705: 0 (30.0/12.0)
|   |   |   |   |   |   |   |   lbl3 = 1
|   |   |   |   |   |   |   |   |   obj1 <= 704
|   |   |   |   |   |   |   |   |   |   obj3 <= 762: 1 (102.0/39.0)
|   |   |   |   |   |   |   |   |   |   obj3 > 762
|   |   |   |   |   |   |   |   |   |   |   obj2 <= 732: 0 (128.0/39.0)
|   |   |   |   |   |   |   |   |   |   |   obj2 > 732
|   |   |   |   |   |   |   |   |   |   |   |   obj2 <= 818: 1 (148.0/65.0)
|   |   |   |   |   |   |   |   |   |   |   |   obj2 > 818: 0 (217.0/90.0)
|   |   |   |   |   |   |   |   |   obj1 > 704
|   |   |   |   |   |   |   |   |   |   obj1 <= 705
|   |   |   |   |   |   |   |   |   |   |   obj3 <= 759: 0 (9.0/1.0)
|   |   |   |   |   |   |   |   |   |   |   obj3 > 759
|   |   |   |   |   |   |   |   |   |   |   |   obj3 <= 817: 1 (5.0)
|   |   |   |   |   |   |   |   |   |   |   |   obj3 > 817
|   |   |   |   |   |   |   |   |   |   |   |   |   obj2 <= 751: 0 (14.0/4.0)
|   |   |   |   |   |   |   |   |   |   |   |   |   obj2 > 751: 1 (4.0)
|   |   |   |   |   |   |   |   |   |   obj1 > 705
|   |   |   |   |   |   |   |   |   |   |   obj3 <= 788: 1 (7.0)
|   |   |   |   |   |   |   |   |   |   |   obj3 > 788: 0 (16.0/7.0)
|   |   |   |   obj1 > 706
|   |   |   |   |   obj1 <= 726
|   |   |   |   |   |   obj1 <= 711
|   |   |   |   |   |   |   obj1 <= 707: 1 (454.0/131.0)
|   |   |   |   |   |   |   obj1 > 707
|   |   |   |   |   |   |   |   obj1 <= 708
|   |   |   |   |   |   |   |   |   obj3 <= 913
|   |   |   |   |   |   |   |   |   |   obj3 <= 751
|   |   |   |   |   |   |   |   |   |   |   obj2 <= 680: 1 (18.0/5.0)
|   |   |   |   |   |   |   |   |   |   |   obj2 > 680
|   |   |   |   |   |   |   |   |   |   |   |   lbl3 = 0
|   |   |   |   |   |   |   |   |   |   |   |   |   obj2 <= 710: 0 (70.0/24.0)
|   |   |   |   |   |   |   |   |   |   |   |   |   obj2 > 710: 1 (18.0/5.0)
|   |   |   |   |   |   |   |   |   |   |   |   lbl3 = 1: 0 (93.0/37.0)
|   |   |   |   |   |   |   |   |   |   obj3 > 751: 1 (23.0/6.0)
|   |   |   |   |   |   |   |   |   obj3 > 913: 0 (19.0/3.0)
|   |   |   |   |   |   |   |   obj1 > 708
|   |   |   |   |   |   |   |   |   obj3 <= 710
|   |   |   |   |   |   |   |   |   |   obj3 <= 694: 1 (310.0/124.0)
|   |   |   |   |   |   |   |   |   |   obj3 > 694
|   |   |   |   |   |   |   |   |   |   |   lbl3 = 0
|   |   |   |   |   |   |   |   |   |   |   |   obj2 <= 703: 1 (100.0/46.0)
|   |   |   |   |   |   |   |   |   |   |   |   obj2 > 703: 0 (121.0/43.0)
|   |   |   |   |   |   |   |   |   |   |   lbl3 = 1
|   |   |   |   |   |   |   |   |   |   |   |   obj2 <= 705
|   |   |   |   |   |   |   |   |   |   |   |   |   obj2 <= 690: 1 (27.0/9.0)
|   |   |   |   |   |   |   |   |   |   |   |   |   obj2 > 690: 0 (121.0/42.0)
|   |   |   |   |   |   |   |   |   |   |   |   obj2 > 705
|   |   |   |   |   |   |   |   |   |   |   |   |   obj2 <= 828
|   |   |   |   |   |   |   |   |   |   |   |   |   |   obj3 <= 699: 0 (7.0/2.0)
|   |   |   |   |   |   |   |   |   |   |   |   |   |   obj3 > 699: 1 (61.0/21.0)
|   |   |   |   |   |   |   |   |   |   |   |   |   obj2 > 828: 0 (9.0/3.0)
|   |   |   |   |   |   |   |   |   obj3 > 710: 1 (164.0/59.0)
|   |   |   |   |   |   obj1 > 711: 1 (804.0/195.0)
|   |   |   |   |   obj1 > 726: 0 (372.0/148.0)
|   |   |   obj1 > 730
|   |   |   |   obj1 <= 748: 1 (4699.0/947.0)
|   |   |   |   obj1 > 748
|   |   |   |   |   lbl3 = 0: 1 (142.0/52.0)
|   |   |   |   |   lbl3 = 1
|   |   |   |   |   |   obj1 <= 749: 0 (107.0/27.0)
|   |   |   |   |   |   obj1 > 749
|   |   |   |   |   |   |   obj3 <= 927: 0 (66.0/30.0)
|   |   |   |   |   |   |   obj3 > 927
|   |   |   |   |   |   |   |   obj3 <= 975: 1 (11.0)
|   |   |   |   |   |   |   |   obj3 > 975
|   |   |   |   |   |   |   |   |   obj2 <= 784: 1 (2.0)
|   |   |   |   |   |   |   |   |   obj2 > 784: 0 (2.0)
|   obj1 > 753
|   |   obj1 <= 761: 1 (38877.0/3580.0)
|   |   obj1 > 761
|   |   |   obj1 <= 843
|   |   |   |   lbl3 = 0
|   |   |   |   |   obj1 <= 768
|   |   |   |   |   |   obj1 <= 767: 1 (929.0/127.0)
|   |   |   |   |   |   obj1 > 767
|   |   |   |   |   |   |   obj2 <= 870
|   |   |   |   |   |   |   |   obj2 <= 732: 0 (102.0/47.0)
|   |   |   |   |   |   |   |   obj2 > 732: 1 (132.0/33.0)
|   |   |   |   |   |   |   obj2 > 870
|   |   |   |   |   |   |   |   obj2 <= 892: 0 (101.0/24.0)
|   |   |   |   |   |   |   |   obj2 > 892
|   |   |   |   |   |   |   |   |   obj2 <= 974: 1 (29.0/9.0)
|   |   |   |   |   |   |   |   |   obj2 > 974
|   |   |   |   |   |   |   |   |   |   obj2 <= 987: 0 (75.0/28.0)
|   |   |   |   |   |   |   |   |   |   obj2 > 987
|   |   |   |   |   |   |   |   |   |   |   obj3 <= 875: 1 (41.0/15.0)
|   |   |   |   |   |   |   |   |   |   |   obj3 > 875: 0 (7.0/1.0)
|   |   |   |   |   obj1 > 768: 1 (11642.0/1819.0)
|   |   |   |   lbl3 = 1
|   |   |   |   |   obj1 <= 770
|   |   |   |   |   |   obj1 <= 767: 1 (711.0/238.0)
|   |   |   |   |   |   obj1 > 767
|   |   |   |   |   |   |   obj2 <= 826: 1 (160.0/64.0)
|   |   |   |   |   |   |   obj2 > 826
|   |   |   |   |   |   |   |   obj3 <= 744: 0 (70.0/17.0)
|   |   |   |   |   |   |   |   obj3 > 744
|   |   |   |   |   |   |   |   |   obj3 <= 826: 1 (65.0/25.0)
|   |   |   |   |   |   |   |   |   obj3 > 826: 0 (123.0/47.0)
|   |   |   |   |   obj1 > 770
|   |   |   |   |   |   obj1 <= 839
|   |   |   |   |   |   |   obj2 <= 753
|   |   |   |   |   |   |   |   obj1 <= 772: 1 (222.0/29.0)
|   |   |   |   |   |   |   |   obj1 > 772
|   |   |   |   |   |   |   |   |   obj3 <= 729
|   |   |   |   |   |   |   |   |   |   obj1 <= 803
|   |   |   |   |   |   |   |   |   |   |   obj1 <= 801: 1 (75.0/27.0)
|   |   |   |   |   |   |   |   |   |   |   obj1 > 801
|   |   |   |   |   |   |   |   |   |   |   |   obj2 <= 548
|   |   |   |   |   |   |   |   |   |   |   |   |   obj3 <= 542: 1 (17.0/2.0)
|   |   |   |   |   |   |   |   |   |   |   |   |   obj3 > 542
|   |   |   |   |   |   |   |   |   |   |   |   |   |   obj2 <= 547
|   |   |   |   |   |   |   |   |   |   |   |   |   |   |   obj3 <= 558
|   |   |   |   |   |   |   |   |   |   |   |   |   |   |   |   obj2 <= 408
|   |   |   |   |   |   |   |   |   |   |   |   |   |   |   |   |   obj3 <= 557: 1 (4.0/1.0)
|   |   |   |   |   |   |   |   |   |   |   |   |   |   |   |   |   obj3 > 557: 0 (3.0)
|   |   |   |   |   |   |   |   |   |   |   |   |   |   |   |   obj2 > 408: 0 (6.0)
|   |   |   |   |   |   |   |   |   |   |   |   |   |   |   obj3 > 558: 1 (22.0/8.0)
|   |   |   |   |   |   |   |   |   |   |   |   |   |   obj2 > 547: 1 (5.0)
|   |   |   |   |   |   |   |   |   |   |   |   obj2 > 548
|   |   |   |   |   |   |   |   |   |   |   |   |   obj3 <= 670
|   |   |   |   |   |   |   |   |   |   |   |   |   |   obj3 <= 558: 0 (180.0/70.0)
|   |   |   |   |   |   |   |   |   |   |   |   |   |   obj3 > 558: 1 (22.0/7.0)
|   |   |   |   |   |   |   |   |   |   |   |   |   obj3 > 670: 0 (210.0/58.0)
|   |   |   |   |   |   |   |   |   |   obj1 > 803: 1 (316.0/98.0)
|   |   |   |   |   |   |   |   |   obj3 > 729
|   |   |   |   |   |   |   |   |   |   obj2 <= 746
|   |   |   |   |   |   |   |   |   |   |   obj1 <= 792
|   |   |   |   |   |   |   |   |   |   |   |   obj3 <= 786: 0 (13.0/2.0)
|   |   |   |   |   |   |   |   |   |   |   |   obj3 > 786: 1 (78.0/31.0)
|   |   |   |   |   |   |   |   |   |   |   obj1 > 792
|   |   |   |   |   |   |   |   |   |   |   |   obj3 <= 860: 1 (868.0/217.0)
|   |   |   |   |   |   |   |   |   |   |   |   obj3 > 860
|   |   |   |   |   |   |   |   |   |   |   |   |   obj1 <= 808
|   |   |   |   |   |   |   |   |   |   |   |   |   |   obj1 <= 798
|   |   |   |   |   |   |   |   |   |   |   |   |   |   |   obj2 <= 699: 1 (33.0/4.0)
|   |   |   |   |   |   |   |   |   |   |   |   |   |   |   obj2 > 699: 0 (9.0/2.0)
|   |   |   |   |   |   |   |   |   |   |   |   |   |   obj1 > 798
|   |   |   |   |   |   |   |   |   |   |   |   |   |   |   obj1 <= 803
|   |   |   |   |   |   |   |   |   |   |   |   |   |   |   |   obj2 <= 718
|   |   |   |   |   |   |   |   |   |   |   |   |   |   |   |   |   obj3 <= 956: 1 (132.0/56.0)
|   |   |   |   |   |   |   |   |   |   |   |   |   |   |   |   |   obj3 > 956: 0 (7.0)
|   |   |   |   |   |   |   |   |   |   |   |   |   |   |   |   obj2 > 718: 0 (9.0/1.0)
|   |   |   |   |   |   |   |   |   |   |   |   |   |   |   obj1 > 803
|   |   |   |   |   |   |   |   |   |   |   |   |   |   |   |   obj1 <= 805: 1 (6.0)
|   |   |   |   |   |   |   |   |   |   |   |   |   |   |   |   obj1 > 805
|   |   |   |   |   |   |   |   |   |   |   |   |   |   |   |   |   obj2 <= 705
|   |   |   |   |   |   |   |   |   |   |   |   |   |   |   |   |   |   obj1 <= 807
|   |   |   |   |   |   |   |   |   |   |   |   |   |   |   |   |   |   |   obj2 <= 632: 1 (3.0)
|   |   |   |   |   |   |   |   |   |   |   |   |   |   |   |   |   |   |   obj2 > 632: 0 (32.0/13.0)
|   |   |   |   |   |   |   |   |   |   |   |   |   |   |   |   |   |   obj1 > 807: 0 (3.0/1.0)
|   |   |   |   |   |   |   |   |   |   |   |   |   |   |   |   |   obj2 > 705
|   |   |   |   |   |   |   |   |   |   |   |   |   |   |   |   |   |   obj2 <= 740
|   |   |   |   |   |   |   |   |   |   |   |   |   |   |   |   |   |   |   obj3 <= 882: 0 (3.0/1.0)
|   |   |   |   |   |   |   |   |   |   |   |   |   |   |   |   |   |   |   obj3 > 882: 1 (19.0/2.0)
|   |   |   |   |   |   |   |   |   |   |   |   |   |   |   |   |   |   obj2 > 740: 0 (3.0/1.0)
|   |   |   |   |   |   |   |   |   |   |   |   |   obj1 > 808: 1 (222.0/65.0)
|   |   |   |   |   |   |   |   |   |   obj2 > 746
|   |   |   |   |   |   |   |   |   |   |   obj3 <= 901
|   |   |   |   |   |   |   |   |   |   |   |   obj2 <= 751
|   |   |   |   |   |   |   |   |   |   |   |   |   obj1 <= 798: 0 (4.0/1.0)
|   |   |   |   |   |   |   |   |   |   |   |   |   obj1 > 798: 1 (24.0/5.0)
|   |   |   |   |   |   |   |   |   |   |   |   obj2 > 751: 0 (11.0/3.0)
|   |   |   |   |   |   |   |   |   |   |   obj3 > 901: 0 (14.0/1.0)
|   |   |   |   |   |   |   obj2 > 753
|   |   |   |   |   |   |   |   obj2 <= 848
|   |   |   |   |   |   |   |   |   obj1 <= 792
|   |   |   |   |   |   |   |   |   |   obj1 <= 774: 1 (378.0/77.0)
|   |   |   |   |   |   |   |   |   |   obj1 > 774
|   |   |   |   |   |   |   |   |   |   |   obj2 <= 791
|   |   |   |   |   |   |   |   |   |   |   |   obj2 <= 764: 1 (10.0/1.0)
|   |   |   |   |   |   |   |   |   |   |   |   obj2 > 764: 0 (104.0/40.0)
|   |   |   |   |   |   |   |   |   |   |   obj2 > 791
|   |   |   |   |   |   |   |   |   |   |   |   obj3 <= 668: 0 (9.0/2.0)
|   |   |   |   |   |   |   |   |   |   |   |   obj3 > 668: 1 (119.0/37.0)
|   |   |   |   |   |   |   |   |   obj1 > 792: 1 (4219.0/832.0)
|   |   |   |   |   |   |   |   obj2 > 848
|   |   |   |   |   |   |   |   |   obj2 <= 930
|   |   |   |   |   |   |   |   |   |   obj1 <= 830
|   |   |   |   |   |   |   |   |   |   |   obj1 <= 825
|   |   |   |   |   |   |   |   |   |   |   |   obj3 <= 987: 1 (990.0/379.0)
|   |   |   |   |   |   |   |   |   |   |   |   obj3 > 987: 0 (26.0/7.0)
|   |   |   |   |   |   |   |   |   |   |   obj1 > 825
|   |   |   |   |   |   |   |   |   |   |   |   obj3 <= 761
|   |   |   |   |   |   |   |   |   |   |   |   |   obj3 <= 668: 0 (6.0/1.0)
|   |   |   |   |   |   |   |   |   |   |   |   |   obj3 > 668: 1 (86.0/28.0)
|   |   |   |   |   |   |   |   |   |   |   |   obj3 > 761: 0 (117.0/39.0)
|   |   |   |   |   |   |   |   |   |   obj1 > 830: 1 (52.0/11.0)
|   |   |   |   |   |   |   |   |   obj2 > 930
|   |   |   |   |   |   |   |   |   |   obj2 <= 992: 1 (1389.0/328.0)
|   |   |   |   |   |   |   |   |   |   obj2 > 992
|   |   |   |   |   |   |   |   |   |   |   obj2 <= 997
|   |   |   |   |   |   |   |   |   |   |   |   obj1 <= 812
|   |   |   |   |   |   |   |   |   |   |   |   |   obj3 <= 719: 0 (10.0/2.0)
|   |   |   |   |   |   |   |   |   |   |   |   |   obj3 > 719: 1 (60.0/21.0)
|   |   |   |   |   |   |   |   |   |   |   |   obj1 > 812: 0 (52.0/17.0)
|   |   |   |   |   |   |   |   |   |   |   obj2 > 997: 1 (45.0/11.0)
|   |   |   |   |   |   obj1 > 839
|   |   |   |   |   |   |   obj1 <= 840: 0 (62.0/13.0)
|   |   |   |   |   |   |   obj1 > 840
|   |   |   |   |   |   |   |   obj1 <= 841
|   |   |   |   |   |   |   |   |   obj2 <= 750
|   |   |   |   |   |   |   |   |   |   obj2 <= 450: 0 (2.0)
|   |   |   |   |   |   |   |   |   |   obj2 > 450
|   |   |   |   |   |   |   |   |   |   |   obj2 <= 698: 1 (4.0)
|   |   |   |   |   |   |   |   |   |   |   obj2 > 698: 0 (3.0/1.0)
|   |   |   |   |   |   |   |   |   obj2 > 750: 1 (12.0)
|   |   |   |   |   |   |   |   obj1 > 841: 0 (22.0/6.0)
|   |   |   obj1 > 843: 1 (3713.0/288.0)
obj1 > 854
|   obj1 <= 950
|   |   obj2 <= 857
|   |   |   obj1 <= 947
|   |   |   |   lbl3 = 0
|   |   |   |   |   obj1 <= 899
|   |   |   |   |   |   obj1 <= 887
|   |   |   |   |   |   |   obj3 <= 992
|   |   |   |   |   |   |   |   obj1 <= 883
|   |   |   |   |   |   |   |   |   obj1 <= 873
|   |   |   |   |   |   |   |   |   |   obj2 <= 767: 1 (529.0/114.0)
|   |   |   |   |   |   |   |   |   |   obj2 > 767
|   |   |   |   |   |   |   |   |   |   |   obj2 <= 776
|   |   |   |   |   |   |   |   |   |   |   |   obj3 <= 874
|   |   |   |   |   |   |   |   |   |   |   |   |   obj3 <= 722
|   |   |   |   |   |   |   |   |   |   |   |   |   |   obj3 <= 658: 1 (2.0)
|   |   |   |   |   |   |   |   |   |   |   |   |   |   obj3 > 658: 0 (31.0/12.0)
|   |   |   |   |   |   |   |   |   |   |   |   |   obj3 > 722: 1 (39.0/8.0)
|   |   |   |   |   |   |   |   |   |   |   |   obj3 > 874
|   |   |   |   |   |   |   |   |   |   |   |   |   obj3 <= 924: 0 (17.0/3.0)
|   |   |   |   |   |   |   |   |   |   |   |   |   obj3 > 924: 1 (12.0/4.0)
|   |   |   |   |   |   |   |   |   |   |   obj2 > 776: 1 (265.0/72.0)
|   |   |   |   |   |   |   |   |   obj1 > 873: 1 (256.0/39.0)
|   |   |   |   |   |   |   |   obj1 > 883
|   |   |   |   |   |   |   |   |   obj2 <= 730
|   |   |   |   |   |   |   |   |   |   obj1 <= 886: 1 (119.0/52.0)
|   |   |   |   |   |   |   |   |   |   obj1 > 886: 0 (14.0/4.0)
|   |   |   |   |   |   |   |   |   obj2 > 730
|   |   |   |   |   |   |   |   |   |   obj2 <= 767: 1 (267.0/49.0)
|   |   |   |   |   |   |   |   |   |   obj2 > 767
|   |   |   |   |   |   |   |   |   |   |   obj3 <= 760
|   |   |   |   |   |   |   |   |   |   |   |   obj2 <= 822: 1 (29.0/6.0)
|   |   |   |   |   |   |   |   |   |   |   |   obj2 > 822: 0 (6.0/2.0)
|   |   |   |   |   |   |   |   |   |   |   obj3 > 760: 0 (45.0/16.0)
|   |   |   |   |   |   |   obj3 > 992
|   |   |   |   |   |   |   |   obj2 <= 747: 0 (20.0/5.0)
|   |   |   |   |   |   |   |   obj2 > 747: 1 (86.0/31.0)
|   |   |   |   |   |   obj1 > 887: 1 (277.0/40.0)
|   |   |   |   |   obj1 > 899: 1 (2290.0/765.0)
|   |   |   |   lbl3 = 1
|   |   |   |   |   obj2 <= 804
|   |   |   |   |   |   obj3 <= 857: 1 (2123.0/841.0)
|   |   |   |   |   |   obj3 > 857
|   |   |   |   |   |   |   obj3 <= 890: 0 (377.0/168.0)
|   |   |   |   |   |   |   obj3 > 890
|   |   |   |   |   |   |   |   obj3 <= 992
|   |   |   |   |   |   |   |   |   obj3 <= 979
|   |   |   |   |   |   |   |   |   |   obj2 <= 705: 0 (186.0/86.0)
|   |   |   |   |   |   |   |   |   |   obj2 > 705: 1 (316.0/118.0)
|   |   |   |   |   |   |   |   |   obj3 > 979: 1 (34.0/4.0)
|   |   |   |   |   |   |   |   obj3 > 992
|   |   |   |   |   |   |   |   |   obj3 <= 995: 0 (106.0/36.0)
|   |   |   |   |   |   |   |   |   obj3 > 995: 1 (43.0/13.0)
|   |   |   |   |   obj2 > 804
|   |   |   |   |   |   obj2 <= 843
|   |   |   |   |   |   |   obj1 <= 902
|   |   |   |   |   |   |   |   obj1 <= 899
|   |   |   |   |   |   |   |   |   obj1 <= 890: 0 (366.0/174.0)
|   |   |   |   |   |   |   |   |   obj1 > 890
|   |   |   |   |   |   |   |   |   |   obj2 <= 810
|   |   |   |   |   |   |   |   |   |   |   obj3 <= 509: 1 (2.0)
|   |   |   |   |   |   |   |   |   |   |   obj3 > 509: 0 (12.0/2.0)
|   |   |   |   |   |   |   |   |   |   obj2 > 810: 1 (40.0/4.0)
|   |   |   |   |   |   |   |   obj1 > 899: 0 (652.0/260.0)
|   |   |   |   |   |   |   obj1 > 902
|   |   |   |   |   |   |   |   obj1 <= 919: 1 (18.0/2.0)
|   |   |   |   |   |   |   |   obj1 > 919
|   |   |   |   |   |   |   |   |   obj2 <= 836
|   |   |   |   |   |   |   |   |   |   obj3 <= 672: 0 (11.0/1.0)
|   |   |   |   |   |   |   |   |   |   obj3 > 672
|   |   |   |   |   |   |   |   |   |   |   obj2 <= 822: 1 (67.0/19.0)
|   |   |   |   |   |   |   |   |   |   |   obj2 > 822
|   |   |   |   |   |   |   |   |   |   |   |   obj2 <= 823
|   |   |   |   |   |   |   |   |   |   |   |   |   obj1 <= 946
|   |   |   |   |   |   |   |   |   |   |   |   |   |   obj3 <= 896: 1 (5.0/1.0)
|   |   |   |   |   |   |   |   |   |   |   |   |   |   obj3 > 896: 0 (4.0/1.0)
|   |   |   |   |   |   |   |   |   |   |   |   |   obj1 > 946: 0 (78.0/35.0)
|   |   |   |   |   |   |   |   |   |   |   |   obj2 > 823: 1 (17.0/5.0)
|   |   |   |   |   |   |   |   |   obj2 > 836: 0 (15.0/2.0)
|   |   |   |   |   |   obj2 > 843: 1 (80.0/13.0)
|   |   |   obj1 > 947
|   |   |   |   obj2 <= 668
|   |   |   |   |   lbl3 = 0: 0 (185.0/58.0)
|   |   |   |   |   lbl3 = 1
|   |   |   |   |   |   obj2 <= 323
|   |   |   |   |   |   |   obj2 <= 313
|   |   |   |   |   |   |   |   obj1 <= 949
|   |   |   |   |   |   |   |   |   obj3 <= 659: 0 (9.0)
|   |   |   |   |   |   |   |   |   obj3 > 659
|   |   |   |   |   |   |   |   |   |   obj3 <= 700: 1 (3.0)
|   |   |   |   |   |   |   |   |   |   obj3 > 700: 0 (7.0/1.0)
|   |   |   |   |   |   |   |   obj1 > 949: 1 (2.0)
|   |   |   |   |   |   |   obj2 > 313: 1 (11.0/2.0)
|   |   |   |   |   |   obj2 > 323: 0 (184.0/36.0)
|   |   |   |   obj2 > 668
|   |   |   |   |   obj2 <= 762
|   |   |   |   |   |   obj2 <= 752
|   |   |   |   |   |   |   obj2 <= 675
|   |   |   |   |   |   |   |   obj3 <= 760: 1 (97.0/33.0)
|   |   |   |   |   |   |   |   obj3 > 760: 0 (58.0/22.0)
|   |   |   |   |   |   |   obj2 > 675
|   |   |   |   |   |   |   |   obj3 <= 732: 0 (144.0/39.0)
|   |   |   |   |   |   |   |   obj3 > 732
|   |   |   |   |   |   |   |   |   obj2 <= 732
|   |   |   |   |   |   |   |   |   |   lbl3 = 0
|   |   |   |   |   |   |   |   |   |   |   obj3 <= 910: 0 (50.0/14.0)
|   |   |   |   |   |   |   |   |   |   |   obj3 > 910: 1 (4.0/1.0)
|   |   |   |   |   |   |   |   |   |   lbl3 = 1
|   |   |   |   |   |   |   |   |   |   |   obj2 <= 699
|   |   |   |   |   |   |   |   |   |   |   |   obj2 <= 685: 0 (5.0/1.0)
|   |   |   |   |   |   |   |   |   |   |   |   obj2 > 685
|   |   |   |   |   |   |   |   |   |   |   |   |   obj3 <= 770: 1 (15.0/6.0)
|   |   |   |   |   |   |   |   |   |   |   |   |   obj3 > 770: 0 (16.0/3.0)
|   |   |   |   |   |   |   |   |   |   |   obj2 > 699: 1 (31.0/12.0)
|   |   |   |   |   |   |   |   |   obj2 > 732
|   |   |   |   |   |   |   |   |   |   obj2 <= 734: 1 (22.0/1.0)
|   |   |   |   |   |   |   |   |   |   obj2 > 734
|   |   |   |   |   |   |   |   |   |   |   obj2 <= 747
|   |   |   |   |   |   |   |   |   |   |   |   lbl3 = 0
|   |   |   |   |   |   |   |   |   |   |   |   |   obj2 <= 740: 0 (35.0/15.0)
|   |   |   |   |   |   |   |   |   |   |   |   |   obj2 > 740: 1 (10.0/2.0)
|   |   |   |   |   |   |   |   |   |   |   |   lbl3 = 1: 1 (67.0/27.0)
|   |   |   |   |   |   |   |   |   |   |   obj2 > 747: 0 (7.0/1.0)
|   |   |   |   |   |   obj2 > 752: 1 (450.0/123.0)
|   |   |   |   |   obj2 > 762
|   |   |   |   |   |   obj2 <= 811
|   |   |   |   |   |   |   obj2 <= 804
|   |   |   |   |   |   |   |   obj2 <= 795: 0 (367.0/118.0)
|   |   |   |   |   |   |   |   obj2 > 795: 1 (19.0/6.0)
|   |   |   |   |   |   |   obj2 > 804: 0 (180.0/36.0)
|   |   |   |   |   |   obj2 > 811
|   |   |   |   |   |   |   obj3 <= 767
|   |   |   |   |   |   |   |   obj3 <= 719
|   |   |   |   |   |   |   |   |   lbl3 = 0: 0 (69.0/27.0)
|   |   |   |   |   |   |   |   |   lbl3 = 1
|   |   |   |   |   |   |   |   |   |   obj3 <= 657: 0 (28.0/10.0)
|   |   |   |   |   |   |   |   |   |   obj3 > 657
|   |   |   |   |   |   |   |   |   |   |   obj3 <= 699: 1 (33.0/7.0)
|   |   |   |   |   |   |   |   |   |   |   obj3 > 699: 0 (2.0)
|   |   |   |   |   |   |   |   obj3 > 719: 1 (105.0/28.0)
|   |   |   |   |   |   |   obj3 > 767
|   |   |   |   |   |   |   |   obj2 <= 812: 1 (24.0/10.0)
|   |   |   |   |   |   |   |   obj2 > 812
|   |   |   |   |   |   |   |   |   obj3 <= 974
|   |   |   |   |   |   |   |   |   |   obj3 <= 868
|   |   |   |   |   |   |   |   |   |   |   obj3 <= 809: 0 (36.0/10.0)
|   |   |   |   |   |   |   |   |   |   |   obj3 > 809: 1 (38.0/17.0)
|   |   |   |   |   |   |   |   |   |   obj3 > 868: 0 (135.0/32.0)
|   |   |   |   |   |   |   |   |   obj3 > 974: 1 (18.0/7.0)
|   |   obj2 > 857
|   |   |   obj1 <= 884
|   |   |   |   lbl3 = 0: 1 (529.0/152.0)
|   |   |   |   lbl3 = 1
|   |   |   |   |   obj1 <= 872: 1 (182.0/70.0)
|   |   |   |   |   obj1 > 872
|   |   |   |   |   |   obj1 <= 873
|   |   |   |   |   |   |   obj3 <= 767: 1 (96.0/43.0)
|   |   |   |   |   |   |   obj3 > 767: 0 (190.0/57.0)
|   |   |   |   |   |   obj1 > 873
|   |   |   |   |   |   |   obj1 <= 874: 1 (23.0/2.0)
|   |   |   |   |   |   |   obj1 > 874
|   |   |   |   |   |   |   |   obj1 <= 878: 0 (36.0/9.0)
|   |   |   |   |   |   |   |   obj1 > 878: 1 (70.0/20.0)
|   |   |   obj1 > 884
|   |   |   |   obj3 <= 872
|   |   |   |   |   obj1 <= 947
|   |   |   |   |   |   lbl3 = 0
|   |   |   |   |   |   |   obj2 <= 992: 1 (971.0/374.0)
|   |   |   |   |   |   |   obj2 > 992
|   |   |   |   |   |   |   |   obj2 <= 993: 0 (166.0/47.0)
|   |   |   |   |   |   |   |   obj2 > 993: 1 (60.0/22.0)
|   |   |   |   |   |   lbl3 = 1
|   |   |   |   |   |   |   obj1 <= 901: 0 (922.0/313.0)
|   |   |   |   |   |   |   obj1 > 901
|   |   |   |   |   |   |   |   obj1 <= 920: 1 (60.0/14.0)
|   |   |   |   |   |   |   |   obj1 > 920
|   |   |   |   |   |   |   |   |   obj1 <= 922: 0 (74.0/23.0)
|   |   |   |   |   |   |   |   |   obj1 > 922
|   |   |   |   |   |   |   |   |   |   obj3 <= 805: 1 (161.0/65.0)
|   |   |   |   |   |   |   |   |   |   obj3 > 805
|   |   |   |   |   |   |   |   |   |   |   obj3 <= 823
|   |   |   |   |   |   |   |   |   |   |   |   obj1 <= 946: 0 (8.0/1.0)
|   |   |   |   |   |   |   |   |   |   |   |   obj1 > 946
|   |   |   |   |   |   |   |   |   |   |   |   |   obj2 <= 913: 0 (49.0/13.0)
|   |   |   |   |   |   |   |   |   |   |   |   |   obj2 > 913: 1 (15.0/6.0)
|   |   |   |   |   |   |   |   |   |   |   obj3 > 823
|   |   |   |   |   |   |   |   |   |   |   |   obj2 <= 995
|   |   |   |   |   |   |   |   |   |   |   |   |   obj2 <= 955
|   |   |   |   |   |   |   |   |   |   |   |   |   |   obj3 <= 848: 1 (35.0/11.0)
|   |   |   |   |   |   |   |   |   |   |   |   |   |   obj3 > 848
|   |   |   |   |   |   |   |   |   |   |   |   |   |   |   obj3 <= 864: 0 (21.0/7.0)
|   |   |   |   |   |   |   |   |   |   |   |   |   |   |   obj3 > 864: 1 (2.0)
|   |   |   |   |   |   |   |   |   |   |   |   |   obj2 > 955: 1 (13.0/1.0)
|   |   |   |   |   |   |   |   |   |   |   |   obj2 > 995: 0 (46.0/13.0)
|   |   |   |   |   obj1 > 947
|   |   |   |   |   |   lbl3 = 0
|   |   |   |   |   |   |   obj2 <= 996: 0 (255.0/56.0)
|   |   |   |   |   |   |   obj2 > 996: 1 (39.0/16.0)
|   |   |   |   |   |   lbl3 = 1: 0 (323.0/121.0)
|   |   |   |   obj3 > 872
|   |   |   |   |   obj2 <= 922
|   |   |   |   |   |   lbl3 = 0
|   |   |   |   |   |   |   obj1 <= 947
|   |   |   |   |   |   |   |   obj3 <= 992
|   |   |   |   |   |   |   |   |   obj1 <= 923: 0 (232.0/94.0)
|   |   |   |   |   |   |   |   |   obj1 > 923
|   |   |   |   |   |   |   |   |   |   obj3 <= 880: 0 (3.0)
|   |   |   |   |   |   |   |   |   |   obj3 > 880: 1 (21.0/3.0)
|   |   |   |   |   |   |   |   obj3 > 992: 0 (169.0/50.0)
|   |   |   |   |   |   |   obj1 > 947
|   |   |   |   |   |   |   |   obj3 <= 978: 0 (141.0/32.0)
|   |   |   |   |   |   |   |   obj3 > 978: 1 (9.0/3.0)
|   |   |   |   |   |   lbl3 = 1
|   |   |   |   |   |   |   obj1 <= 901: 0 (391.0/73.0)
|   |   |   |   |   |   |   obj1 > 901
|   |   |   |   |   |   |   |   obj2 <= 890: 0 (182.0/53.0)
|   |   |   |   |   |   |   |   obj2 > 890
|   |   |   |   |   |   |   |   |   obj2 <= 915
|   |   |   |   |   |   |   |   |   |   obj1 <= 917: 1 (3.0)
|   |   |   |   |   |   |   |   |   |   obj1 > 917
|   |   |   |   |   |   |   |   |   |   |   obj2 <= 896: 1 (3.0)
|   |   |   |   |   |   |   |   |   |   |   obj2 > 896
|   |   |   |   |   |   |   |   |   |   |   |   obj3 <= 995: 0 (41.0/12.0)
|   |   |   |   |   |   |   |   |   |   |   |   obj3 > 995: 1 (3.0)
|   |   |   |   |   |   |   |   |   obj2 > 915: 1 (7.0/1.0)
|   |   |   |   |   obj2 > 922
|   |   |   |   |   |   obj1 <= 924: 0 (742.0/211.0)
|   |   |   |   |   |   obj1 > 924
|   |   |   |   |   |   |   obj1 <= 947: 1 (74.0/25.0)
|   |   |   |   |   |   |   obj1 > 947: 0 (29.0/6.0)
|   obj1 > 950
|   |   obj1 <= 974
|   |   |   lbl3 = 0
|   |   |   |   obj1 <= 955: 1 (2170.0/129.0)
|   |   |   |   obj1 > 955
|   |   |   |   |   obj1 <= 965
|   |   |   |   |   |   obj1 <= 963: 1 (138.0/39.0)
|   |   |   |   |   |   obj1 > 963: 0 (74.0/26.0)
|   |   |   |   |   obj1 > 965: 1 (1597.0/150.0)
|   |   |   lbl3 = 1
|   |   |   |   obj1 <= 955: 1 (1923.0/259.0)
|   |   |   |   obj1 > 955
|   |   |   |   |   obj1 <= 971: 0 (307.0/134.0)
|   |   |   |   |   obj1 > 971
|   |   |   |   |   |   obj2 <= 910
|   |   |   |   |   |   |   obj2 <= 893: 1 (864.0/176.0)
|   |   |   |   |   |   |   obj2 > 893
|   |   |   |   |   |   |   |   obj3 <= 826: 0 (16.0/4.0)
|   |   |   |   |   |   |   |   obj3 > 826: 1 (3.0)
|   |   |   |   |   |   obj2 > 910: 1 (500.0/79.0)
|   |   obj1 > 974
|   |   |   obj1 <= 998
|   |   |   |   lbl3 = 0
|   |   |   |   |   obj2 <= 767: 1 (669.0/143.0)
|   |   |   |   |   obj2 > 767
|   |   |   |   |   |   obj2 <= 923
|   |   |   |   |   |   |   obj1 <= 992
|   |   |   |   |   |   |   |   obj1 <= 976
|   |   |   |   |   |   |   |   |   obj1 <= 975
|   |   |   |   |   |   |   |   |   |   obj3 <= 950
|   |   |   |   |   |   |   |   |   |   |   obj3 <= 828
|   |   |   |   |   |   |   |   |   |   |   |   obj3 <= 734: 0 (24.0/11.0)
|   |   |   |   |   |   |   |   |   |   |   |   obj3 > 734: 1 (21.0/2.0)
|   |   |   |   |   |   |   |   |   |   |   obj3 > 828: 0 (17.0/4.0)
|   |   |   |   |   |   |   |   |   |   obj3 > 950: 1 (12.0/1.0)
|   |   |   |   |   |   |   |   |   obj1 > 975
|   |   |   |   |   |   |   |   |   |   obj2 <= 883: 0 (2.0)
|   |   |   |   |   |   |   |   |   |   obj2 > 883: 1 (2.0)
|   |   |   |   |   |   |   |   obj1 > 976: 1 (84.0/14.0)
|   |   |   |   |   |   |   obj1 > 992
|   |   |   |   |   |   |   |   obj3 <= 767
|   |   |   |   |   |   |   |   |   obj3 <= 614
|   |   |   |   |   |   |   |   |   |   obj3 <= 331: 0 (11.0/1.0)
|   |   |   |   |   |   |   |   |   |   obj3 > 331
|   |   |   |   |   |   |   |   |   |   |   obj3 <= 602: 1 (14.0/3.0)
|   |   |   |   |   |   |   |   |   |   |   obj3 > 602: 0 (22.0/10.0)
|   |   |   |   |   |   |   |   |   obj3 > 614: 1 (307.0/87.0)
|   |   |   |   |   |   |   |   obj3 > 767
|   |   |   |   |   |   |   |   |   obj2 <= 881: 1 (392.0/138.0)
|   |   |   |   |   |   |   |   |   obj2 > 881
|   |   |   |   |   |   |   |   |   |   obj3 <= 987: 0 (151.0/54.0)
|   |   |   |   |   |   |   |   |   |   obj3 > 987: 1 (15.0/2.0)
|   |   |   |   |   |   obj2 > 923: 1 (167.0/34.0)
|   |   |   |   lbl3 = 1
|   |   |   |   |   obj1 <= 992: 1 (503.0/141.0)
|   |   |   |   |   obj1 > 992
|   |   |   |   |   |   obj2 <= 756
|   |   |   |   |   |   |   obj2 <= 592
|   |   |   |   |   |   |   |   obj1 <= 994: 0 (45.0/9.0)
|   |   |   |   |   |   |   |   obj1 > 994
|   |   |   |   |   |   |   |   |   obj1 <= 995: 1 (12.0/2.0)
|   |   |   |   |   |   |   |   |   obj1 > 995
|   |   |   |   |   |   |   |   |   |   obj2 <= 508: 1 (4.0)
|   |   |   |   |   |   |   |   |   |   obj2 > 508: 0 (6.0/1.0)
|   |   |   |   |   |   |   obj2 > 592: 1 (471.0/172.0)
|   |   |   |   |   |   obj2 > 756
|   |   |   |   |   |   |   obj3 <= 759
|   |   |   |   |   |   |   |   obj3 <= 602: 0 (51.0/10.0)
|   |   |   |   |   |   |   |   obj3 > 602: 1 (443.0/188.0)
|   |   |   |   |   |   |   obj3 > 759
|   |   |   |   |   |   |   |   obj1 <= 994
|   |   |   |   |   |   |   |   |   obj3 <= 950: 0 (714.0/211.0)
|   |   |   |   |   |   |   |   |   obj3 > 950: 1 (101.0/48.0)
|   |   |   |   |   |   |   |   obj1 > 994
|   |   |   |   |   |   |   |   |   obj1 <= 996
|   |   |   |   |   |   |   |   |   |   obj1 <= 995: 1 (7.0/2.0)
|   |   |   |   |   |   |   |   |   |   obj1 > 995: 0 (97.0/46.0)
|   |   |   |   |   |   |   |   |   obj1 > 996: 1 (9.0/2.0)
|   |   |   obj1 > 998: 1 (2098.0/223.0)

Number of Leaves  : 	328

Size of the tree : 	655


meka.classifiers.multilabel.CT: Node #8

J48 pruned tree
------------------

lbl4 = 0: 0 (79498.0/10903.0)
lbl4 = 1
|   lbl6 = 0: 0 (39.0)
|   lbl6 = 1
|   |   obj1 <= 672
|   |   |   obj1 <= 600: 1 (3916.0/1091.0)
|   |   |   obj1 > 600
|   |   |   |   obj1 <= 613
|   |   |   |   |   obj2 <= 616: 0 (372.0/66.0)
|   |   |   |   |   obj2 > 616
|   |   |   |   |   |   obj2 <= 740
|   |   |   |   |   |   |   obj1 <= 612
|   |   |   |   |   |   |   |   obj2 <= 655: 1 (4.0)
|   |   |   |   |   |   |   |   obj2 > 655: 0 (2.0)
|   |   |   |   |   |   |   obj1 > 612: 0 (57.0/23.0)
|   |   |   |   |   |   obj2 > 740: 1 (138.0/48.0)
|   |   |   |   obj1 > 613
|   |   |   |   |   obj1 <= 617
|   |   |   |   |   |   obj3 <= 774: 1 (368.0/97.0)
|   |   |   |   |   |   obj3 > 774
|   |   |   |   |   |   |   obj3 <= 890: 0 (23.0/6.0)
|   |   |   |   |   |   |   obj3 > 890
|   |   |   |   |   |   |   |   obj3 <= 974: 1 (8.0/1.0)
|   |   |   |   |   |   |   |   obj3 > 974: 0 (3.0/1.0)
|   |   |   |   |   obj1 > 617: 1 (1665.0/759.0)
|   |   obj1 > 672
|   |   |   obj1 <= 754: 1 (29311.0/8385.0)
|   |   |   obj1 > 754
|   |   |   |   obj2 <= 673
|   |   |   |   |   obj2 <= 591: 1 (1472.0/472.0)
|   |   |   |   |   obj2 > 591
|   |   |   |   |   |   obj2 <= 593
|   |   |   |   |   |   |   obj1 <= 904: 0 (42.0/7.0)
|   |   |   |   |   |   |   obj1 > 904: 1 (10.0/3.0)
|   |   |   |   |   |   obj2 > 593: 1 (795.0/355.0)
|   |   |   |   obj2 > 673
|   |   |   |   |   obj1 <= 903
|   |   |   |   |   |   obj1 <= 884: 1 (11692.0/3746.0)
|   |   |   |   |   |   obj1 > 884
|   |   |   |   |   |   |   obj1 <= 888: 0 (345.0/141.0)
|   |   |   |   |   |   |   obj1 > 888: 1 (745.0/274.0)
|   |   |   |   |   obj1 > 903
|   |   |   |   |   |   obj1 <= 954: 1 (3143.0/784.0)
|   |   |   |   |   |   obj1 > 954
|   |   |   |   |   |   |   obj2 <= 989
|   |   |   |   |   |   |   |   obj1 <= 994
|   |   |   |   |   |   |   |   |   obj1 <= 990: 1 (2056.0/625.0)
|   |   |   |   |   |   |   |   |   obj1 > 990
|   |   |   |   |   |   |   |   |   |   obj2 <= 763: 1 (192.0/69.0)
|   |   |   |   |   |   |   |   |   |   obj2 > 763
|   |   |   |   |   |   |   |   |   |   |   obj1 <= 992
|   |   |   |   |   |   |   |   |   |   |   |   obj1 <= 991
|   |   |   |   |   |   |   |   |   |   |   |   |   obj2 <= 815: 0 (20.0/6.0)
|   |   |   |   |   |   |   |   |   |   |   |   |   obj2 > 815: 1 (51.0/18.0)
|   |   |   |   |   |   |   |   |   |   |   |   obj1 > 991: 1 (8.0/2.0)
|   |   |   |   |   |   |   |   |   |   |   obj1 > 992: 0 (360.0/162.0)
|   |   |   |   |   |   |   |   obj1 > 994: 1 (928.0/247.0)
